-0.004568333007134264
0.0019099146096459448
0.008306757418772738
0.0031377905546376476
0.004800288544594492
0.005981334425334513
-0.002646423439389619
0.013801339238641715
-0.014790251240931742
-0.01506455759552686
-0.005945620867496689
0.024613485618905712
0.006354992639897011
-0.04655739429217746
0.0019930240719818223
-0.00980285825270176
0.010707469321514902
0.0004948365289761014
0.0017366816402277494
-0.015523197530600021
0.005323767622151223
0.00215676812540556
0.0031901674526081756
-0.004455413117095994
0.004404185060649622
0.002184199094978382
0.022209344829631453
0.002673866289679817
-0.004138083286820817
0.0020375809709456193
-0.002013160956971424
0.019541436724183295
0.03336468907871217
0.0031969346240973565
0.002011315022947738
-0.007454572698078299
0.009864838435871442
0.0066783574408138735
-2.5109284245657153e-06
0.00658323897333457
0.0015525065017159374
0.004436725751239278
0.005299387108929084
0.01392850510839817
0.0018404328328279107
-0.00796331059171751
-0.004701906019763426
-0.01340417078052223
0.009581110290137309
-0.003164579549710603
0.018403890042268126
0.015321829182622192
0.0018126484238695213
0.0028851406879042466
0.004642886656120005
0.0009795035777850926
-0.004938850935318469
0.002287151213252073
-0.007358477619993752
0.013998987279012692
-0.018298576091871504
0.013559686622388475
-0.002246533060419545
0.0016051586504136316
0.001338189270389787
-0.009443077040119359
0.014594555511887593
0.004300440896211983
0.0034476825065827468
-0.004836526651161458
0.002113217339271228
-8.685962838034944e-05
-0.0032090508540254473
0.001231250723960454
0.0013152951886799204
0.020878017518452998
-0.0023914433105083174
-0.005817714902731738
-0.016835946282719307
-0.008948749289710654
0.002219637586776564
-5.570783219973006e-09
-0.02669931747783035
-0.00878545553079544
-0.004900005515653983
0.010929620886880799
0.006973767951655023
0.0069036031496309295
0.003983824448983506
-0.020227641617825795
-0.006320130768047973
0.0037349003694579237
0.0029064763170693927
-0.006687402076243982
0.006371288957492869
-0.013801396537425412
0.0016740199469137426
0.00816821583231473
0.00727525066845264
-0.002764694586366589
0.002698701718168018
0.0030717825746510827
0.0013657512474627052
-0.00221037915350994
0.0071521889094127945
0.011982629302928236
-0.007425398709848918
-0.014666454784216614
0.010502561198218484
-0.0030583134352300334
0.015562760681131787
-0.024442329019175264
-0.01292780393062221
-1.3340439699963476e-09
0.0117219664451309
-0.012363927724550104
0.003959263069486096
0.0075935859342816225
0.0020271857154620498
0.015944180350945143
-0.000601331883238079
0.016472788174762585
-0.019409162996747508
-0.003400383675912274
-1.194024232458651e-05
0.006159503413741163
0.01052470171739592
0.0016725623685337051
-0.005955836467032492
0.0
0.005427449892343889
-0.05652453655638983
0.0017939313608894226
-0.0037465328462506888
0.0014798628588749674
-0.005625846956102251
-0.009902672973123656
-0.002452699968968924
0.0006774177591215125
0.0051217184573162464
-0.012061101665653062
0.015172909284614863
0.004709992651814107
-0.0049524801959537415
0.008758541634640654
0.0019621482496144545
-0.0017086017997878732
-0.01259600552457262
-7.815612798237595e-06
-0.017225437410654354
0.007664561871405899
0.009026575407697444
-0.00017048308761179797
-0.021868043378665908
0.011063200622534498
0.0011668850991482511
0.015315427403973821
-0.04238313058438638
-0.005541659014566641
0.0008652762048124004
-0.006119098173553174
-0.0023296468506557185
-0.006782471607848782
-0.017443727897736502
-0.008027383455092916
-0.0036944050669391695
-0.010731267047859466
0.01392850510839817
0.006320388484191754
-0.012221160334522975
-0.00768116981930737
0.02047104706398908
-0.013818130405812075
-0.013273202889786924
-0.022920930289959923
0.004127339117349836
-0.0030240615162104426
0.0
-0.01266705128220465
0.012797523224344288
-0.0036505201223645425
0.004057467230207202
-0.004160691438897113
-1.0979416758243748e-07
-0.0033961237534422747
-0.005359358593542948
-0.003811463128329696
0.02431468395670478
-0.007158816846089457
-0.0013435731118976865
0.004356624428274461
-0.00916136271847399
0.012033094351835411
0.0069151262832133405
-0.007605238505959006
-0.0026565494767304804
0.004535631374862943
0.009499190178724932
0.000421088024644674
-0.028073060527692213
-0.017048666925840776
-0.001936146391698013
-0.010465388734173714
0.0022094248074383586
0.010743602313297327
-0.00090970979453002
-0.005209865811589463
-0.005997373228480764
0.01227474570464476
-0.029168696658248082
0.0005167536269974767
-6.64436988742453e-06
-0.018298232858957434
-0.004838277415574276
-0.013926170652933707
0.007624019363932247
0.013561842070324326
0.00922434257999995
0.006078635124185259
-0.0009316919505704435
0.005927823932756901
0.003953907032761593
0.01589002417639985
-0.00249706695918956
-0.004090368845857156
0.0027983755415056256
0.012745460661696061
-0.007159324884583021
-0.006111057572439719
0.011855431369869995
0.0008907993929851802
-0.007101755173483554
0.010945218152626847
0.0017613462810900375
-0.005955836467032492
0.012517158842989285
0.017973587727501635
0.005251168874877017
-0.006722861045550655
-0.008549544229758906
-0.01719694332589394
0.0012604320446942545
0.0015166226401516342
0.011548342012713124
-0.007800066479731035
0.005941259807849944
0.029006167561664034
-0.016658200234368346
0.004985116448800501
-0.011687431372776521
-0.0012465703795212619
0.0029450662200451415
-0.01354344282580937
-0.006053281889935105
-0.008257114537692862
-0.010217280916028035
-0.004812617911016407
0.003794128478867818
-0.0022066944730078195
-0.005604234433345137
-0.003606485878248
0.005943981055634754
0.010866615501810714
0.005665306801176741
0.019092653327142724
-0.014117713305471069
-0.008898674128447496
0.012272969716848846
-0.0003087420987563339
0.01283220806942093
2.4087322328362106e-05
0.016212771311963536
-0.004133393412648058
-0.027362881137670773
-0.005796062745537344
0.008707386586657664
0.00656392396283344
0.018844650853586605
-0.012692148953620714
0.008822660813911422
0.004634456778839222
0.03286477621985542
-0.0022270272593871284
-0.0019075329396644534
-0.004707088918188284
0.0017941574603526902
-0.004854093673693794
-0.0027961489201607753
-0.0028591781920378244
0.016924301145876963
-0.005534442248726902
0.012781916348730644
0.01238528127527432
-0.0030692077602696675
0.002712458048140668
-0.00461291593493546
-0.0008434624286494864
-0.015218122442080024
-0.0026389833693855657
-0.003124458854115108
-0.011223754875064516
0.0005567979306363297
-0.016139771560780152
-0.017288885569737223
-0.006209009334780304
-0.0014238307093843191
0.0002710487695030954
-0.002609231984745377
-0.01826389583878966
-0.006249093300698252
0.017149984826771006
0.0025711023434107296
-0.0024709377157963908
0.006293475857729399
0.004330982378398438
-3.307158413376619e-09
-0.001565026008185829
0.002576152865721235
0.006797772803043216
-0.006389826660468237
0.001786546445403267
-0.0038137518215022996
-0.010555550913801098
-0.00019319801296729594
-0.010405129437212928
0.0013435169624895823
-0.0037961866471602863
0.007675001211682279
0.008493408299688093
-0.0004979562169172623
0.001966042989455093
0.005627221384419101
-0.00440071091486614
-0.007712543325792243
-0.007235663232318109
-0.007209524584231788
-0.005450511953804453
0.03886751191842567
-0.004921238215590837
-0.0007446094232423654
-0.01437119827167207
0.0015838475090944734
-0.003947046278680393
0.01818057112158003
-0.004429277464228122
0.006812317582148181
0.003928657924941073
-0.003805500141131909
0.0032454601792877963
-0.006038248987976392
0.0016899530945283226
0.0105877288730959
0.0018090351483062376
0.007811072519036659
0.014600305740416286
0.0011321123265494797
-0.007215951370146256
-0.012475467922584358
-3.0741135122565123e-09
-0.005504947746832765
-0.02930014096686885
0.0030417925021522674
0.0141908458332705
-0.0020993137943765374
0.0191581754451324
0.012963296142320243
0.01733432059327203
-0.0003468620760983435
0.0044596707683721044
0.003813456219470753
-0.004870604584587635
-0.015164660991368078
-0.0033466760360667718
0.0018441600138973263
0.0024666447625587575
-0.005681819269715437
-0.012256793866552682
0.006810829908527608
-0.010465388734173714
0.01285379091012088
0.000746286698427194
0.002486342501669121
0.0015279286963947375
0.008969209669414627
-1.6153789282719e-11
0.008773155098195375
0.010180730167375683
0.0018747726192935505
-0.002434130113499825
0.014758949988009567
-0.005147590722625669
-0.0036435707963191925
0.008282902190597435
-0.004488103562017599
-0.010361873465245497
-2.8034960213378533e-14
-0.008672817371349143
0.0068315507304926625
-0.009117484523929353
-0.007351122995382158
0.023970297151393608
-0.006483881001314101
-0.0046339065006642775
-0.0022041833841366563
0.0013810399132338977
0.0026684090910723763
0.008458843996169413
-0.013938463250406742
-6.057066531923486e-06
-0.00873501561980559
0.018482123968864384
0.0007356619162658214
0.002184557699620767
0.01794630602886551
-0.0033091149786268507
0.004573909583706321
-0.0052762962283181
0.0210625775269708
-0.03181119774744791
0.006264588415150725
0.0052853590863952615
0.0007789483861928597
0.007408919732637997
-0.014189783343838629
-0.013441330637549986
-0.0021005140939465263
0.008039234221493486
0.011778429879751386
-0.003627014825910391
-0.01680504077296577
0.010320800252561428
0.00406880146206817
-0.005190332550915605
-0.0128341209116526
-0.0176595315666622
0.00017892963327088902
0.005910723211572613
0.012384607331524838
-2.3004058365652955e-10
0.003392934861618715
0.004498775750642617
-0.024387673793966357
0.01372164111002756
-0.006256498622810098
0.02250931459446419
-0.005632598024334936
-0.003615248768281805
-0.004924852284554037
0.015113530417690722
0.006799621726807702
0.002124368009252129
-0.0031903374496900614
0.0017741172264382876
0.021686241176885775
-0.014172009605678102
-7.964416336021094e-06
-0.004018904515438607
-0.003624928984198097
-0.02712530017269138
0.009292489183164047
0.0010629249516310778
-0.007994432497025729
0.0020876678211380587
-0.01184983740619945
0.007891056193598827
-0.03551902505893077
0.005048890205334626
-0.003479125480541341
0.0021913051915372077
0.0007313049630247128
0.010989010641670204
0.008414053449955326
-4.608658931395394e-06
-0.006591137832756757
-0.009473558531514013
-0.007366546388757953
-0.002077516748541178
-0.0069884155172182634
-0.008547354569909894
0.007379906346167466
-0.004156472677654427
-0.003307137329561169
-0.012555074174954755
0.0013836163799412586
-0.001837172704778735
0.023926609276599214
-0.009446268148546873
-0.009798932319768533
0.0070637126738580525
0.000219584461460607
-0.0033680344421871677
0.00432540547699416
0.0008630907413448067
0.02524086471224678
-0.015326619616514396
0.003981502730858181
-0.007208536555058981
-0.0021698742327039638
0.0009180269573078137
-1.3591273817643754e-06
-0.0029987396648265266
0.0074309450457686705
0.008486516218438957
0.017006036391760584
0.02141819028580641
-0.010962163445085686
-0.009621610436777828
0.0013292298181964155
-0.0018200041617083074
-0.02440308884120064
0.0230954576299218
-1.3911297029648896e-05
-0.0027908422519767042
0.02530875424546986
-0.0028139419773059765
0.006315067771391122
0.0017052535288846057
0.017982020408723556
-0.017943386543532627
-0.010115886052511765
0.0008368690603447839
-6.366508287910379e-13
0.004165407626309288
0.0026918155525812257
-0.005007750705872568
0.002045300284591719
-0.005112219721122151
0.0002088712201392894
0.002481764462120298
-0.015562796130810914
0.006069231057316159
-0.00464519856083909
-0.006334031297322583
-0.023504155975172004
-0.0005238487279865632
-0.003559941813673794
-0.03691969835126679
0.01282906229442019
-0.004503837777383489
-0.005913709441651689
0.003962115256065694
-0.004847583096013682
0.014610290006450106
-0.004924901283935408
0.0005391264098743627
-0.003042897206616294
-0.005577378483124729
0.011749198805213613
-0.002951178393733431
0.01315844769534777
-0.004130180581383009
-0.006300005349326342
0.003943133673819947
-0.00028283066356879776
-0.0018619644409399794
-0.01831874885513112
-0.03991551071330229
0.005710554150547687
0.003051235784007004
0.0014931641083305218
0.0026297113412497132
0.033458029702177296
-0.017411406860839477
-0.02614257205483712
0.014474273383731024
-1.20650503957395e-05
0.014354972875462809
-0.003174328640537028
-0.03608958824321714
0.01865071300068686
0.015177739494619674
-0.007082118120805357
0.002661975041604638
0.010010517863616352
-0.0031717003561858863
-9.33145210148971e-06
0.003921511204163423
-0.007204836263849001
0.000919301406300884
0.017902794289598824
0.00247637315044162
0.0010549124747904644
-0.022309564840518437
-0.02357495524879746
-0.016933437895187475
-0.015381211277201646
-0.009633823397249396
0.001292745258558822
0.004164800970979683
-0.004357079954936613
0.008256442960728897
-0.01060314187659284
-0.04277178012665037
0.008838140832119205
-0.014993648845498128
-1.299044981348272e-05
0.008458843996169413
-0.00254611805921498
0.001862823192470153
-0.005566396776047161
-0.01636050059297516
-0.010947638043539236
0.006143215246884167
0.0017038469203423624
-0.017535592070908355
0.007932067632024717
0.004197600081158786
0.01312938239216588
-0.0069844107462425946
3.214355184553048e-05
0.007338126774036033
-0.0034642842384571383
2.690591142531076e-05
0.014676434497654153
0.02759477482176253
-0.002357711780150971
0.001438896176240884
-0.0030128927825179112
0.006731466552394517
0.0009236740098621441
-0.007618660803244013
-0.004635294291674001
-0.0014803046416580535
0.007424187508650504
-0.00692687483757234
0.0011914518585481918
-0.019450324637319386
0.001637153608172445
-3.9762533544585375e-12
-0.004324663593219493
-0.002564165746787866
-0.01573420301920659
-0.007726840081875432
0.0071441960918959815
0.013699698990886555
0.007266291506002088
-0.0031717003561858863
-0.0017410860910357484
0.004861028775775233
-0.013988396361711003
-0.0037180066383771357
0.001264309941611376
-0.013668590012739963
0.0016505080321566866
0.01060311793067788
0.0053627451870095705
-0.008301957767430652
-0.003309543126827959
-0.0047365835422945556
-0.023513186745620585
-0.006486259608529233
-0.002852411156490223
-0.0014511144821870677
-1.387536833996559e-10
-0.008389972144818866
0.0
0.005833391505392313
0.009176027416119812
-0.0012071886846246713
-0.0145210955572914
-0.003256519653699923
0.001965667996248384
0.007845261909312059
-0.012349625560728671
0.001338880198613368
-0.014375546954151393
-6.53236924914866e-05
0.0032641891999500533
-0.006144850748114649
0.016643127632008814
-0.006516370278343767
-0.009381703164231321
-0.0037555953415817247
-0.004274727096292541
0.001300869295867202
0.0033697321984662407
0.008367855150239514
-0.003857794098912368
0.0030266806495144166
-0.0024938041024988385
0.004291144505555064
-0.007260285949339782
-0.004290168706386272
-0.010421572917969468
-8.664148030185559e-10
0.0
0.006700331899242041
-0.006933661441640733
-0.0016631987710211658
-0.03543789936105551
-0.006987883422089329
-0.005232408381620872
-0.0047292830747522
0.0019854093717054403
-0.0027495008506329584
-1.5750840102399037e-05
-0.005268954068129294
-0.0011732355303608148
-0.008011734363188463
-0.003657260464131533
0.0018982706019937822
0.0032791781713062927
0.009056689628973295
-0.0030738675531432487
-7.90822073550967e-06
0.008936088394732672
0.015075071255194606
0.006741093146329445
0.002618115217872523
-0.0068334633422531856
-0.0021509677510363986
-0.0026442697368974487
0.03178374279796693
-0.00981102688810463
-0.003365396106001491
-0.011902383066736069
0.0011659022334404344
0.011399784773025832
-0.007956491872877473
-0.003448741867534566
-4.138594581196524e-05
-0.011388989426581217
-0.02140887443740701
0.001459349002229195
-0.012529444349587396
0.010052711629044742
0.00834715548735928
-0.008314626584795861
0.007043222035754682
-0.0026832087168914046
-0.003983745738741332
-0.005136619748702896
0.008503364215739714
-0.00571478542191851
-0.03853750495798898
-0.013186619729388182
0.0027398404515211546
-0.014812502910443892
0.00302120644380985
0.004855867719588189
0.03554974923282132
-3.2910430398796905e-10
-0.016194071996010508
0.026656114559634146
0.0034680660335543543
0.010177503438460883
0.002443124339653559
0.0024447855608221753
-0.0020577101988886043
0.008971592519575218
-0.012094907935042436
-0.0030042246106750533
-0.009142978601118845
0.0004832363330912467
-0.0018602987814797685
-0.005359908181444648
0.011850501028137384
0.0015699132360897658
-0.003605077667093101
0.004365671107198821
-0.0021344450070056543
0.008682546803650326
-0.004109525279107317
-0.0237825533700135
0.0012619989247592627
-0.0010235284816865013
0.009090966829876548
0.002772199913893825
0.015799673393096927
-0.0021267232386715583
-0.002060997406016709
-0.0007397945884082898
0.009628933365437003
-0.005594620819537181
-0.00012196815818320655
-0.016183535184356956
-0.0073683060939439314
-0.009247870532282262
-0.002886365119642241
-0.0036478092321624105
0.009946543072065012
-0.0069407534709420215
0.009400592507176304
-0.022965577080136947
0.004884515254283443
0.017174943503423096
-0.01621406427736016
-0.007353573795454999
0.0013900660893430452
0.0016080384805212714
0.004815137822786261
0.007540358700057328
-0.0002635463321107667
-0.017429955818500084
0.02870107500960932
0.01906328258723984
-0.005448016655380635
0.01152176334751557
-0.013324332543063045
0.01340017392767632
0.004580213868523633
0.009726590009072202
0.008078647635854957
-0.013878946699008455
-0.0014949317106155856
0.014789415499796637
0.0015969979827746977
0.011514260666309065
0.007015189417172799
0.011857175584690575
0.034507327557513845
0.0016918433940723056
-0.002924789299077784
0.016935659029720572
0.012833165090645379
-0.004750096486381209
0.00963142604865973
-0.015280834376885037
0.021064754690783054
-0.006305802610834045
0.003925055367812386
0.000619189799707636
0.002875525646851381
-0.002287490236505175
-0.003400924897146101
-0.008482054332724788
-0.011983815065427726
0.0028324262959198254
-0.009483125094807499
-0.009216790023456593
-0.021103506159002833
0.001798229801417286
0.010376197698059978
-0.002351205813306464
0.002964639427482907
-0.008014536988568237
0.0013069895942423094
0.006561766867636219
-0.004218225426798997
0.002347530265722767
-0.0028611220688784674
0.003741855920158737
0.0018369051250988783
0.0026726803029761682
-0.003177644559120466
0.003023480281115302
0.0012075145566155026
0.025055627846267435
-0.0023854838886939326
0.0024791006282735995
0.018616009829939235
0.0017044756852184467
4.410863697107096e-10
0.04229597620439493
-0.018255707500623948
-1.803535415582817e-14
0.01107435645876946
-7.692792842301586e-06
0.017605689080806435
-0.009259864942488103
0.005122756095310033
0.013473042307966447
0.002334232287923502
-0.0025289195167178865
0.003186990955758545
0.0007465141049451112
0.005549055923889236
-0.004685930806593841
0.002225306994293926
-0.0004608762790688118
-0.0055089995398630125
-0.015001290032726345
0.0033186730067628237
-0.011553714957361932
-0.00038394545301694027
-0.0003555936323337238
0.0014030444504479723
0.038617607442996096
0.0
0.010177503438460883
-0.007273730690729281
0.005068665240361599
-0.0011745002530518301
0.0034378815174771304
-9.100774504758387e-06
-0.015135995990653675
-0.00772417211445286
-0.002374099728743534
0.005160145244418633
-0.003077479471468787
-0.0040524775049303645
0.001092301776394401
-0.004583249064702926
-0.0036989104976425284
0.007092969304953897
0.004470198151661119
-0.00021217665224228992
0.0026856710137736477
-7.981947271655547e-07
0.0029397632790390048
-0.013138622588871331
0.0019494491841376927
0.0122344696109457
-0.0034601093725442457
0.013929659603930524
-0.002395764827266949
-0.003576836244350507
0.005969266480457979
-0.0001849698228647382
0.009235644772745062
0.003673289569076566
0.005994100929858931
0.009186284032702304
-0.004317801772198627
-0.0016679314936240575
-0.02603211012680079
0.019709737552533753
-0.00299278791826928
-0.006241176828123968
0.0017838358772419639
-0.007037311805816024
-0.0031024280154216804
-0.0021606737642358782
-0.001920820299043839
-0.006138068135372005
-0.017584988278248285
0.0004482444701982428
-0.002604829278810098
-0.005432949817809927
-0.05555456526444627
-0.0014873983002012126
0.001866299625457841
-0.011473375904864401
-0.005891496302915237
-0.015233587879943727
-0.004277271379650573
-0.04804527557225492
0.0010808853857531401
0.01771057051152445
0.003403155138846642
0.023308815437181038
0.004038840302296112
-0.004667028022791829
0.0030056363122699967
0.006197694944102521
0.004494597964432501
0.005482779297057882
0.002498631738475902
0.0016258404643456387
0.0009627451541561709
0.008213552736463493
0.0084447527819945
-0.0026531263185732828
-0.00916400370341161
-0.004842387431399965
0.011439473933397448
0.005737035044699619
0.0017695605449212018
0.014697394154642336
0.03556900674162685
0.0015577727541535497
-0.009867432137965046
0.006147636020843803
-0.013137670705456855
0.009062308029724178
-0.01600547581071819
0.0009617217972682669
0.001487846911920267
0.0012867613596454712
-0.0215288163115407
-0.004608903368397533
-0.009638998294127784
0.008780710419732198
-0.0033145340950956003
-0.011583453558930291
0.005009438165285385
-0.004324971111722809
0.02219083416651245
-0.05177723320274101
-0.0038587674896648568
0.007671782028080835
0.0015927767492116107
0.0024131388292093756
-1.99932126591026e-06
-0.003287565825219935
-0.0020361273666601723
0.0008512300008343348
0.004887847987544818
0.006477643723660596
0.0014583597397864552
-6.699027644410132e-10
1.5632797738365887e-05
-0.0058455311699610385
0.006268801547505498
-0.006843663122223153
0.013684385245956594
0.009863333190460661
-0.0026681675951803468
-0.017023227995703695
0.011764849776605475
-0.016337778507065387
0.00808251707502183
0.0012256768394627764
0.012178641412499643
-2.0801493533864047e-14
0.013689897732094475
-0.004502730892042184
-0.003792015467742196
0.009118878413097144
-0.004319259763097874
1.8118327285421843e-07
0.005432417690056681
-0.015023356959168727
-0.004378909778092102
-0.01706843382910859
-0.003062276204758131
-0.0005465422948151201
-0.008385260683021532
-4.988203139750488e-06
0.01797177667580754
0.0009397938795710417
-0.013200755379240155
0.008204407821953297
-0.003295610969987103
-0.0018875915604430608
-0.003617726927111576
0.003525160397061797
0.012102357270979526
-0.009586909808352242
0.010552381823808356
0.009500637645136438
0.010805916432782647
-0.005995649092367645
-0.03447858040126516
-0.01915623032542178
0.002065935777956878
0.032390272417400126
0.00805378913409529
0.012028724592894093
0.00894768585963399
0.008277192906067902
-0.017308237732383585
-0.011105038942973306
0.004812734495031593
0.0052069384848472495
0.005423972041783184
0.008798342376923642
-0.0029818434827840966
-0.004437534031480064
0.006580239032307228
-0.011337351711471063
0.00638254359719168
-0.0026580169185638778
0.01724410159090722
-0.007573530550503303
-0.00036926367834726296
-0.0082410686146847
-0.003559446849505459
-0.011224111775438769
0.020412231331536787
0.008148369094869348
-0.0015005583068703116
0.0007151635145428906
-0.00493271936484817
-0.00014369889964819648
0.00493888932750742
0.005206981614419074
-0.004378147815977399
-0.0002937517692697
-0.003639367199693141
-0.012347372759687582
-0.011782598571205753
0.0010838492917778933
-0.0121025256023424
-0.0032076883169786037
-0.014117713305471069
-0.013746623174030336
0.002131965599662726
0.00863645567161592
0.007460861138112821
-5.085067978487574e-06
-0.0035176856754407285
-0.013219281040241181
0.012451257936850027
-0.018732181168363712
0.006302717970288796
-0.014900576864478755
0.0010064197644183935
-0.0039181590495766605
0.0003425891822121417
-0.00766258829945449
0.011871882718036571
-0.014001037738414776
-0.0051443684898192015
-0.0018548556475851616
0.009655916089764847
-0.002219666729524288
0.0016920371740134015
0.011353207777530414
-0.006507284221544998
-0.02044019651684291
0.004373949302806325
0.008282902190597435
-0.0026230365975962425
-0.005718752869862489
0.023468706820076218
0.010773308640963472
0.0023510189344458556
0.009678939555464033
0.01158602982470147
0.01359791668749382
0.009984768744905443
0.02214173087998431
0.009655916089764847
-0.014128186913941939
-0.013579474670535238
4.1558174350003917e-08
-0.007157501700601743
0.0010124437809847446
-0.005831660391916924
-0.019366424847977654
-0.0028902320267481445
0.013178088060194073
0.0019981328987594723
-0.005380743079416341
0.002389003759310602
-1.0459895519116174e-09
-0.00717066490549926
-0.009219231960494009
0.0037036078214118828
-0.0028635324336599753
0.0007940785208232772
-0.004566909442090137
-0.007738863626793161
0.007115443514157438
0.0007613358794334238
-0.0023093534369310847
0.012546434701132005
-0.004709996978691822
-0.0016664504853295173
-0.0029023345676312076
-0.014863531435238374
-0.0027818646580689247
-2.6014467392419908e-05
-0.01384379570215359
-0.006924145556609805
-0.003277533242922521
0.005152617117602428
-0.016544402068298367
-0.00292212758421188
-0.00890915635801493
0.0011052675905853808
-0.0020767956469046095
0.001543452215469803
1.8458388556746164e-05
-0.0018182887318196454
-0.0023508454759169025
7.005448525449075e-06
-0.013556156536856575
0.005701544201449517
0.019038534959868614
-0.012954009071081699
-0.003590144554987141
-0.0016027015982494112
0.002872924474456168
0.003548418420889127
-0.032586574222354135
-1.0916930047821987e-07
-0.003799479787544465
0.006571435929892669
-0.011649143158690914
0.0029555592594664687
-0.00035160450384584107
-0.012061068209755865
0.008384329042555805
0.03949593466058159
-0.011034556390170442
0.006225057729602772
-0.0016679314936240575
-0.006174926422901895
-0.0033456928964311454
-0.007183058827452032
0.004900258810742181
-0.02923349967320557
-0.0033691972129532635
-7.67997755494801e-06
-0.01172863632981086
0.003244716981945865
-0.00533644017528915
-0.005042001386095544
0.007083156524719338
-0.003071309229933361
0.016615217658992036
0.014257062194749294
0.015865223123008337
-0.004128553896586601
0.006352443020375203
0.0012053174174622993
-0.0053938975921737084
0.0031867232037370162
0.007805211423428429
-0.0033424507016420516
0.0004885870895971063
0.008380350217485311
0.001599358760946946
0.006515112137729324
0.010274298454358233
-0.0053085326206218225
-0.004716233958802304
-0.013877270107328844
-0.013724604105111874
-0.012899293663654816
0.010096677119732814
0.0018735156587852489
-0.03790426406597667
0.008559271891571806
-0.010475366278408768
-0.004041106142655446
-0.0020318010715752754
-0.005157567914691598
0.016253625632232902
-0.04957441652356923
0.005627221384419101
0.0049225164353909725
-0.010333606432939372
0.0023524312605870527
0.001966042989455093
0.004147217071636024
0.011236373703081705
-0.010843324064336574
0.006829223093172113
0.005476045207502178
-0.006699671473708963
0.0158391617695183
0.007338744525425259
0.03818626080811958
0.007428610646200708
0.011528980823878505
0.009239466991474774
0.012880167217599993
-0.0026699606195244733
-0.010546234729274856
0.0009806881965699254
-0.00268918693153348
0.005397425877167402
-0.01646205799601352
0.0008326589242680445
0.0013703932410567194
0.004305974738617233
-0.004466706827575635
-0.0012548062102555504
-0.01070160350460778
-0.002182198883743428
-0.04587310736293417
-0.003521375610787485
-0.0018390492673746668
0.0027123734280673226
-8.647948858856072e-06
-0.0001439710903390897
-0.0018312331154903719
0.0031588362096541867
1.8809045956291865e-05
-0.005380717991655456
0.005771198255302878
0.012219256130459046
0.004520412847584212
-2.285175788912625e-06
-4.0103531889447543e-07
-0.001722553778516048
0.0038681896726046744
0.005578359992864772
-0.014903252048145748
0.0028756228749110577
-0.005396799775743609
0.0072480806535273066
-0.003967171128206671
0.002208371119913996
-1.2354646873237295e-05
0.008535749976577989
-6.826798714299672e-10
-0.01067860497672081
0.015260591194192104
-0.005798435460324753
-0.0035568317533616316
-0.0046154405256287005
-0.01798145217773924
-0.020635274615836804
-0.004792486771848509
-0.003820689783051682
-0.024185811194666156
0.004850725010759429
0.0006415246218497928
-0.002816808755870062
0.006766986435435031
0.013691738988455816
0.00573462902488044
-0.01918774742986916
-0.027144987746448912
0.008199394661845766
0.008608971988884256
-0.0013020901268487918
-0.004225553945136264
-0.0017941916978632298
-0.0016789372463859376
0.009143384361900554
-0.0018288579885646983
0.001999011687967354
0.007833754206511109
-0.00734822846003595
0.005480682226983134
0.0071048595093243525
0.014967488818262138
0.00232610444515265
0.003448879266377845
-0.016701880879588387
0.01273351319242877
-0.027622439051294335
0.0005678350472111622
0.01078145018679542
0.00267928280707661
-0.0008614698278225518
0.016195623968842034
0.006686480196655454
0.0014051661428530985
-0.0007618227915004418
0.004644691881766537
0.011967464833794657
-0.001826670847896149
0.003963630719104955
-0.005405002686254726
0.0017660481642417002
-0.003413799840655083
-0.008212369066675013
0.0018676704960787836
0.009979959827773954
0.003485321578019535
0.00048792322604693185
-0.01693654206787445
0.010583250232700904
0.010477010867165284
-0.007358477619993752
-0.006513209416503397
0.009356738198721935
-0.004069002287329522
-0.006170834761841769
0.013961388615061509
0.0006708467462574283
0.014663528846487577
-0.0024335261537333057
-0.0014644039381802468
-0.012404652579070962
-0.007994432497025729
0.005800815501720337
0.004437945929193151
-0.0069618715969250585
-0.0018296615247576223
-0.0054672039357583505
0.0029847923372668195
3.5701061170099585e-06
0.010527219680237189
0.008966901230300434
-0.04909017241750735
-0.0034851240097207507
0.001921030888816459
-0.004021753016527897
0.0007933607210504213
-0.0018170146842904577
0.0018142786740835972
0.003390589162776189
-0.005906249289715167
0.0014257798129447175
-0.018941117946607505
0.004459072906989707
0.018024381571679952
0.0047773164569589665
0.007970314578178261
0.001971975366535692
0.0017835463068876568
0.004845866424399837
0.003635426888778007
-0.013699416240587457
-0.0035360183939967815
0.0011109080381998667
-4.6238013507944444e-08
0.0040876581452488235
-0.0029023345676312076
0.007567503553379838
-0.0017616375902418878
0.003838362731720359
0.0083033191669951
0.008242714859852212
-0.003760818797400245
-0.006447898000215287
0.0020437272428563595
-2.876285806872711e-06
-0.004831208941500538
0.001269074572517481
-0.0017936499791713523
0.0011258172520567564
0.015831761807140216
-0.03611077265626112
-0.002922043425282196
-0.009210149318002264
-0.0012069062383068335
-0.002392767127390518
-1.4613017562414092e-05
-0.00991700733968921
0.0033204896449165297
-0.00015261877588416479
-0.0030743313919162304
0.004474951823052651
0.002235372311935403
-0.006020260768350185
0.007602830653560827
-0.005563126098432704
-0.01329135197183394
-0.0017964471691975083
-0.018599217615545272
-3.196620962201621e-10
0.003616710748962393
-0.013647876521657559
0.001002188762941181
-0.007786316837001711
-0.011965611851559262
0.006866680340039423
-0.00580076956601618
-0.0027888423377570725
-0.01163938626425197
0.0017787225782057582
-0.014533903311675568
-0.0016616572765884856
0.0030173511332172143
-0.008248511938660625
0.0005287289665500361
0.007096202623851923
-0.003075622412011208
-0.0032432211914661087
0.04066719189231215
-0.0023228223028157646
0.0017004156565191672
0.01157378617454769
-0.002452699968968924
-0.00273995191719636
0.025363627922639805
0.009432970904371842
0.002759577866219124
-0.005788745502567711
0.003393443597565174
-0.0027756028391565496
0.03958571101953914
0.015780883715300363
0.0008450661614666727
0.0023377222224768473
0.02474507102210933
0.0034314185163838093
0.0026844471447868548
-0.0013501735013752372
-0.004972971040541651
-0.010665894239763846
0.004017206003665292
0.0014365473069052502
-0.003959942886462069
0.0028680151972823704
-0.0140941670328872
-0.0022378581662741612
0.006536052583686472
0.012880215248128974
-0.005385120030899111
-0.016521878318896357
0.0032520875964243295
0.0117219664451309
-1.8485470076492672e-09
0.01482993093025845
0.019858564651866983
0.006806425888868639
-0.010818559091484884
-0.014472538886274814
0.0069883467679129115
0.0005564152628052439
-0.001977717574803015
-0.001855199706226563
0.011860082739797303
0.002863989181522922
-0.006955447897414124
0.002063260741361387
-0.0031869224661142483
0.010653358669282369
0.01407117935689368
-0.0038288503706616064
-0.009056130643364394
0.006056191665983179
0.01062798150917307
-0.013076995500803905
-0.006241176828123968
-0.0015257728373998187
-0.007262818982211628
0.0048507249085829925
-0.0017679199345689344
-0.007481683926034507
-0.014183382405668302
0.006515112137729324
0.0051863720281605805
-0.0034238305183681866
0.0012277934706009666
0.010767180802208528
0.011861172059749488
-0.0033799673263073464
0.005644159205433678
0.005203748053337584
0.0016610378088737815
0.0009134501581532939
-0.0018750252798748447
0.002167009511823186
-0.002533187365408678
-0.00452353775441095
0.002280794832395533
0.004646039124006082
-0.0005346376656687859
0.015159462396294093
0.0020759085446231326
-0.016503867492062244
0.0012194170705771721
-0.004286660567782038
0.005232149298458832
-0.0018152750625778735
0.011985404552216366
0.001480712784864386
-0.003968758717971268
-0.005782323585209504
-0.022002424095389776
-0.013913995662657252
0.0023589125776886355
-0.001515680187458487
0.009391322510363365
0.0011994650969204793
-0.003971707156406092
-1.429628538001491e-06
-0.0028957762901444953
-0.002396819953776179
-0.000875628713422874
-0.004144378291154104
-0.0032960172245668964
-0.003471067361802512
-0.002812497056197312
0.00853456920430401
-0.0027655113159598685
-0.015233587879943727
-0.004281089861958878
-0.004531763137235379
-6.86748748828861e-10
0.001551545742599919
-0.0039582804771231255
-8.46718141119503e-05
-0.00263900978950994
-0.005785868190301758
0.004708215020523971
-0.0021332751721439445
0.007727396834350634
0.0016679194487003739
0.002709071084585873
0.0030473656615591605
-0.0019243301128343607
0.006760805301905226
0.01573148815687754
0.013240900678281046
-0.016639309183677696
0.0013909662064831559
-0.010306379470577833
-0.002945152177928353
-0.0017938775912309142
0.0006547502499218587
-0.002366364433412662
0.014776557562739085
0.007561422191143287
-0.013011623848131017
0.004591000507746001
-0.007246265715414799
0.003899271869260579
7.838083277404082e-06
0.0010943840934042582
0.009147283663776488
0.0010562434972262104
0.009887672534469653
0.009629984804247874
-0.001518537041259293
0.009139451088563077
0.0069279579383412695
0.007969910762160177
0.04072915845010591
0.01752863459855506
-0.0071948211582048855
-0.008356776708317658
-0.011073290347741373
0.008458915917005186
-0.006789752516353283
0.0017018077587681536
-0.00584559141269766
-0.005678981920481346
0.01751296438105615
-3.251833170533303e-06
0.002625870602311242
-0.002318233058815662
0.012657177305161853
-7.409747954256724e-05
0.0007525303566416006
-0.003533451604717745
-0.003672031578707256
0.004055696359748771
0.007151873846864924
0.0025668133331896575
0.0042042726237736345
-0.005528723897898494
0.010874003643060789
-0.0016993614966821463
0.0026093817538401804
-0.015740300477266597
0.008215401121942568
-0.05344402632149628
-1.99126519748388e-05
0.00245056527447422
-8.647127870610668e-07
0.006748301153391249
-0.00263523646153169
-0.0010968110392285658
0.023702142937976154
0.015036783536312758
-0.002243551950295932
-0.0025928117961662193
-0.010529757575873476
-0.002375330504671105
0.0014416412102913117
-0.002741089063351565
-0.0025107434649249243
0.014585920447863523
-0.002357808941668816
-0.007940673229890555
0.01866340856470905
0.0033504038705043948
-0.003034556335338098
0.0025048933229240506
0.00139422479172047
-0.013523185278186592
0.017091926081547047
-0.012150660751352245
-0.002642379648154266
0.005377830057840559
0.010776338297650331
0.0
0.006083690617626625
0.006143528763215945
0.01844432801809875
-0.021964116583966093
-0.00543581301987066
-0.006305802610834045
-0.005866483730666578
0.0035787282328643647
-0.012957077794906105
-0.0035626082790842354
0.019482638889226234
-0.004316131282127648
0.015195181548813663
-6.402419864323018e-06
-0.014867501507193561
0.0037353210370184866
-0.0032880871724204606
0.004608531131612046
-0.02226395561402407
-0.009030006395750053
-0.006585208729729149
0.018450173354521756
-8.90395157297218e-05
0.009423281862229802
0.005488830921135802
0.03144613452443507
-0.0010922312282272283
-0.005374876902866712
0.026831711225324576
0.004259461410025365
0.009246658891054412
-0.00236757433737222
-0.002153603740093544
0.011749504835020092
-0.001428244712854351
-0.007639020348740142
0.000870060983303376
-0.0033421223594307004
-0.00020833423521388053
-0.010568175169514188
-0.0015881648196897006
0.001689338886160114
-0.04972019679640627
0.005553600823808387
0.0072902057294864904
-0.0022221175734641377
-1.9679376865260684e-06
-0.003533451604717745
0.004436491553781847
-0.01398816867810989
0.01263257788482002
0.002880276427465949
0.006495256795601411
-0.0031159001653100382
-0.0026155366438444603
-0.0044440134934728365
0.0039221768636205625
0.0027590313825702093
0.002606328633285078
-0.0037956244805914465
0.012997750932135517
0.022176693422466486
0.002225401814377257
-0.003253296531769088
0.0012541899082501847
-0.0035768239224980482
0.002468672718127614
-0.0133620381244112
0.00943756763846078
0.00855542475570831
-0.0020273161604188795
0.011484625795442838
0.019336196696906414
-0.014984669735786113
-0.0022516552900213324
0.016187928887504612
-0.01626980368603245
-0.005997716637641714
0.012754510171708887
0.012311756528202917
0.002247268957496654
-0.002356056061606836
-0.003834066745369596
0.008168722023074773
0.0056797880397343225
0.014234386345697583
0.005078614176299438
-0.0026308704009885974
-0.0037121390251875813
-0.003571258551188578
-0.00594211898780237
-0.008255467649440594
0.00957276429852056
-0.004838873944396663
0.014497631055207452
-0.005678981920481346
-0.0020142066237045235
0.004353239844430439
0.00474253061917536
-0.009752212954765097
0.006445272457036594
-1.7740047652090622e-06
0.012386853035146903
-0.001826670847896149
-0.009818269512892674
0.0027929352773453588
0.011250946146947573
-0.007966645861891006
0.010434103112333113
0.010352935676748254
0.0027679981205786957
0.00934572455266139
0.0031583325254337198
-0.0030089480671886197
-0.004514691057677106
-0.013062972517614091
0.004207809653860753
0.011350783752219117
-0.003532254219521161
0.017444166353305694
0.0026157105047290886
0.0007819812022633599
0.007393171660561559
-0.003702951697150839
0.005782757925009585
-0.032090335044622054
0.010182795792653415
0.008578174967363137
-0.007711677713174911
-0.013470838012862812
0.0007304254698555159
-0.011924434895045641
-0.00633074049000404
0.0
0.011292821128398479
0.0011908519745826933
0.013676421457111522
-0.004001805432479414
0.006362649999332833
0.01619332655918482
-0.0073084164104801445
0.003963630719104955
0.009109609025669305
0.0013395580437621513
0.007195567386630021
0.011169382757847016
0.0040710071723752995
-0.011659112159819005
0.003079155718792181
0.0025841399825483943
-0.006014964795447232
0.014227145537829231
0.04050956751967133
0.004016162089812702
0.004963087338807063
0.006641425788910111
0.006641170905694437
0.007275790236743533
0.0050841637609274
-0.011506927405624484
0.009634064639230179
-0.0020208159888602576
-2.1390454359465295e-09
-0.011714777006193998
-0.017556697111106807
0.008019082078615576
-0.005995992917120907
0.0020030411920621306
-0.015633211587479955
-0.007246636842707659
-0.006639230225547769
0.0024399543656344717
0.012332591785712306
0.0126630947486993
-0.0013817372342277054
0.017893051470435628
-0.00772417211445286
0.010371192649849087
-0.0036456252886432837
-2.3455700483407334e-09
0.012915325118640185
0.00507968194167329
0.0016907596371707632
-0.00533582949765324
0.005112444652026877
0.011002348132536447
-0.01706857694998235
0.008749080858536562
0.009816082076994609
0.03539036185135459
0.017418491021914256
-0.011195184561255503
0.0024851433218615227
0.006556263963778431
0.004685021727115124
0.003944471279046674
0.002119351476086214
-0.022607809574421472
0.002048691045271272
0.006790589390754652
0.0018521302646683127
-0.0015588892630366037
0.003628120101244481
-0.007284021542884096
-0.0043705935151212875
0.0012795811202666106
-1.0510969735955982e-05
-0.025983389433778547
-0.001783219290525213
0.004985670426492685
0.015087577041780079
0.015175070283576307
-0.0040245379048852205
-0.00256251798942505
0.0026132168191167404
-0.008623357578571075
-0.014998926462351831
-5.696116498357905e-10
0.019507934677218116
0.012221564075968732
0.003089641112002667
-0.004188145570867036
0.002660721473334716
-0.004288485817515375
-0.0013663484809087452
0.0014831594505847728
-0.008949273010104269
-0.004960288137947321
-0.001833039558458515
-0.03854833213390298
-0.0052941503643978895
0.016790859412879305
0.005294100617120092
-6.298738286340234e-10
0.0032869612060158386
0.004098621325874476
0.0072820459112403575
0.0033281013378200584
-0.00287885489662374
-0.003629578414873008
0.01960905233861845
0.00024845897778803805
0.01897114542142908
0.0020840806511855667
-0.002668713275998661
-0.0019927924769267747
-0.004376352144134687
-0.006202185540210467
0.0028766312349661994
0.003393381071502797
0.002192082226387569
0.009739922790560553
-0.008731346718682186
0.003450805861482175
0.0074736181122768185
0.00544617395571942
0.0018827318142528205
0.0022910417835135723
0.0005227176102845303
0.004642773727207096
-0.001925510345668803
0.0010745793145094911
0.008384329042555805
-0.015803422224842403
0.002819062892185803
0.0009917675028628683
0.001439274457002073
-0.0037410566314969823
-0.004252365215725816
-0.015451654876596284
-2.008597298048346e-10
-4.5299037284019404e-06
-0.0016982043240012016
-0.0026494424760730596
0.0016471773754908132
-0.0023165662918797772
-0.005119119184431969
0.014473762009021658
0.011426635871158209
-1.2144723134334166e-05
-2.554121855291009e-06
-0.008410560012464015
0.03649399349473095
0.002832566579719395
0.0011216852656914498
0.001119822087895415
0.009888913997066495
0.01216859823339493
-0.006025803806388418
-0.005514752873142085
0.017767901252407816
-0.006386291207351139
-0.0050046411344238885
-0.010196282751486369
0.023587227064163788
-1.048498379664971e-09
0.0016908211636498323
-0.003544775681274497
0.0018172981224200185
0.0020181433598787323
0.0023020100662321705
0.010145311355635976
-0.016444270578161533
0.0019052836230802855
-0.015025276036467918
0.0029324616324646526
0.0025637649460104285
0.007751592936730235
0.013599528898893496
0.005229184262590546
-0.002276745658763056
0.017475270759688882
0.017945638362917234
-0.002559170786464247
0.005844731093842382
-0.004823144381424553
-0.013088568741208765
-0.0056673845834698386
-0.011413111231248456
-0.014119534932465039
-0.0023490749277887747
0.001323769298099013
-0.02748426041224603
0.0067951405752391635
-0.00012830882415694434
0.015787434473948224
-0.004264772526508138
0.006005858025444171
0.018637565732924823
0.0024302656291817605
0.005721213879023384
0.005544781898701974
0.002519219525382564
0.0050630795455156394
0.0027758875892162464
0.0017268251052681507
-0.0029022122925746047
0.008075275122750003
0.0024004823802411955
0.003099342526225927
0.00604146718222324
0.020928518754569473
0.008210024089264321
-0.006892381778268886
0.001269633009498437
0.0032337775888909765
0.03140979925024414
-0.007942945806136638
0.009808524512937958
0.008589704044456529
0.009062308029724178
-0.012358730355413128
-0.002734681373864378
0.0020441264606282784
0.00616143601207246
0.005380985407427773
-0.008794271700636886
-0.002050817679083416
-0.016329107983485438
0.009422767323303494
0.015432443478794175
-9.976509368166577e-06
4.905330678994457e-06
0.005602069854440482
0.013422581051132093
-0.018175277456687112
-0.019826953113026364
-0.047625275412336035
-0.001810107943428034
-0.006893822837894243
-0.0036144921191581356
-0.016157841554614385
0.00986238483931579
0.011182111159109298
-0.004578382971356022
0.010807257994533482
-0.003944161445420455
-0.005669528678869937
-0.0042631942269761745
0.00785503394706478
-0.004271831225316464
-0.0041396587774245805
-0.006042265476589595
-0.01115921433973104
0.005078614176299438
-0.0027622173062241654
-0.01793065349512807
-0.0030150782716256565
0.0058459161276310095
0.00160892455686279
-0.01761595831159949
-0.013558254813128265
0.011678240335106506
0.018325890803480415
0.0014198712708407629
0.002064226601125336
0.009108098327487029
0.0010049606898745555
0.009377115247702848
0.007589527689334824
0.006545373267459273
0.0008185708150061598
-0.0043457046784730466
-0.015393932834256427
0.002942800513198028
-0.006062143929603427
-0.0122273652837894
0.003665067576678998
-0.03526929463798758
-0.0036614969606387493
0.010102490524419517
-0.004723417556315865
-0.014859199115563366
0.0023334062896575424
-0.008506280906603417
0.015930901159749582
0.01026373580201152
0.013318962630075771
0.0009837715003031481
-0.009108808153153687
0.002867878993510398
0.009184232775015923
0.01504050313184952
0.002426086374977314
-0.0029484093832535677
-0.0038675720514680977
-0.0113201497316603
-0.011033372632486146
0.006648066597983476
0.002266634246941625
0.006358408838143012
0.004114859561637409
-0.0031197492816006363
0.0032826114239882524
0.0017647151350872845
-0.008716547135260417
0.000654473108368723
-0.012277039877017627
-0.0030314259307326606
-0.009815494217113169
0.0021300338871873855
-0.004331472845635057
-0.009523463924892655
-0.0031315295319805743
-0.012988819355295791
0.002471512573078251
0.007444983329096691
0.019146979764294338
-0.01635735996500377
0.016883478392402375
0.010491977394978085
-2.9047625829194535e-06
-6.888942359650997e-10
-0.029787105372001306
0.02041008352707375
-0.011141623329538308
-3.760998543066678e-10
-0.0052867046512936845
0.025782852323951336
0.011367697562783932
0.009628933365437003
-3.4161882002342973e-06
0.008072780085146313
0.0023618728870994895
0.005144157312818899
0.03589034372105126
0.008017527521810945
-0.005994393185071641
0.010937948274597094
0.00740275485935456
0.012765111688491685
0.007197555195907357
0.016198647072705165
0.0005822662611723178
-0.013308403432439941
0.01751982967605776
0.005078187869643077
-0.003093824482746548
0.003193195270993236
0.012431816126265956
0.0021099630470038915
0.023471748800174264
-0.015772996381903954
-0.003254778396789064
-0.00227471007950079
-0.002537563642505358
0.0018297605132616215
-0.0032524641776870552
0.001075521553005279
0.004956650115448973
-0.017377458972627515
-0.0008269155126200254
0.006703903608946797
0.003831406486106625
-0.013293260052671828
0.0022885010595249658
0.007132547366689948
-1.6557678452311593e-06
-0.0216462317319807
-0.003714854994058144
-0.01696265318133667
0.010298599196478542
0.0021616720524947194
0.0030399339784522392
-0.004171290204951214
0.0018461885696929566
-0.01153840460314723
0.008969873060901317
0.0062455994669559905
0.04164517680391784
-0.00257797772756998
0.003070542855566893
-0.0063661958960881185
0.004456349316004075
0.013966573761555573
-0.014568162853127582
0.0023524312605870527
0.008172765946967918
0.019054903786983858
0.007246218979360716
0.00481873235114594
-3.3749651026711444e-10
0.03154642002659078
-0.010265726082134432
-0.01214883103955854
-0.0027534427143653694
-0.0029545072598520677
0.0038552026696372144
0.004572471361228909
-0.0036091491568557717
-0.004506625047678432
0.010256174198193874
0.006160449186446968
-0.05059681253228558
-0.014768873351351693
-0.009959535509827602
-3.5163666612663175e-10
-0.016781975651797502
0.008441037947004125
-0.004651498527512904
0.005280651124252282
0.007130029513972672
0.004355863721684318
0.0009179791554106073
-0.01802844208007749
0.008072780085146313
-1.1623826249557802e-05
0.03583065305156273
0.002623950486672515
0.013225789448258673
0.005365446160052904
0.005488179244927898
0.006484927322196517
0.0013685405788809797
-0.008110722360190375
-0.021040296426266432
-0.004498171088680751
-0.0017079786143976777
0.006905287865910026
-0.01225798461696694
-0.0158192590355351
0.0016453020893106073
-0.0034642842384571383
-0.011406848896223868
-0.005997373228480764
0.007256406904917902
0.017448114503079006
-0.0006257733064490596
-0.012807804187470127
0.002266634246941625
0.022294850756321087
0.0026191388688204184
-0.02127358423410169
0.0020344661697770474
0.0008907993929851802
0.022571455061180874
-0.0174842914944027
0.00865857856312335
-0.0035119429759271595
-0.014508416490834395
-0.02040163566137563
0.0022793788911063613
-0.005641299500788676
2.263960800346495e-05
-0.010919346138713265
-0.003889851588094151
-0.0035991998956047167
-0.004120718787066573
-0.005641299500788676
-0.020191430138135315
-0.00867905208350625
0.00480794394421831
-0.015326949008284518
-0.007024573633390131
0.012269168433639635
0.0030886273627152645
0.01854629367357995
0.0034630457998771234
0.005333598498867049
-0.0010612084241429062
-0.008358520666175845
0.0016961480279466734
-0.0008693135130633224
-0.03108274559895812
0.0026503684953498702
-0.002263533467651902
0.006633836368721388
-0.002732494474127395
-0.004699173316085822
-0.0043260775833439
-0.005520286209127085
-0.002288319819886349
-0.01861804359976071
0.006641457964081994
-0.004184187084067535
0.018054791259420815
-0.014631628163506879
-0.01779356108181451
0.002265073203729875
0.006645021939435024
0.0014793680942999591
-0.007113897262687795
-0.0045216905781528035
0.010565045030934719
0.002440696204572685
0.0006373002278286048
-0.014044921763691855
0.04382039362763824
0.0006544519412974187
0.0024625976863789133
0.006173831497698009
-0.005181876531134442
0.0012136293224738405
-0.025195890153895728
-0.0006347973870516827
-0.005147811479554131
-0.004287011028375789
-0.017004460643907555
-0.0066616499098764385
0.0069642354837602255
0.002280794832395533
0.007665437334158606
0.01915328110972454
-0.005525316133639927
0.0034541583855474045
0.0025664358632197927
-0.004471648405009417
0.006410737836473375
0.006473039707067724
0.009573821422656179
-0.015530006693557016
-0.003889851588094151
0.005266132860395707
0.005112192298906891
0.020555699589211267
0.0
-0.027427676530103105
-0.0032318797210035472
-0.01864460068764653
-0.0032544686404905212
0.001840764496525721
0.0017936372082212775
0.004431701524568846
0.01969125061619684
0.01932450334340277
0.007330364135955855
-0.002254030092987349
0.006900454646622888
-0.011843719564828891
-0.012491521280564044
-0.008327756779421715
-0.0026029136711535304
0.009163631813287382
-0.005120508673592227
0.0020031963557269744
0.02036639711850983
-0.012040388428459718
0.0058472014097803015
-0.002708822921434198
-0.01045237614503326
0.004055696359748771
0.0025361549311547892
0.011803692572316801
0.011873228321972204
-0.012582880284600247
0.0017420364171607024
0.0
-0.00024630056283722016
0.0024612169207567755
0.012230812874488194
0.011429824668622246
0.01097772269290383
0.008315502225859129
4.558717769929837e-06
-0.004283980180774547
0.01370976809014669
-0.01307715076807504
-0.02787429020502437
0.0029137111020479693
-0.008745681050641402
-0.002874823131593653
-0.0037192198487256594
0.005043558419162041
-2.397191006874576e-06
-0.008348575271079564
-0.0049230107907224895
-0.01600713811078941
0.0023163634300146546
0.001101763741558199
-0.012204021510781923
0.019313326751007276
-0.020512264323916028
-0.002283891908871573
-0.002945152177928353
0.0009645670252278473
-0.0026231865667999976
0.008487077966959525
-0.005021675303366648
0.0010083889476031232
-0.0005703968738469513
0.012270029361976992
0.0024264680636840548
0.014225455053605346
0.009342968375619076
0.0014567226506024557
-0.0026425761849892524
-0.00800798793835425
0.007437938370207727
0.011020834549269071
-0.002709106800402589
-5.676930806341608e-10
-0.004593398623914306
0.002181373486421907
-0.0037583056485756224
0.02879979386312969
-1.4489282941171423e-05
-0.004883095464005603
0.0010666711790708865
0.004443797539844418
0.006454993758168579
0.016573922093780863
0.0033392804609325565
0.0014695601640565294
-0.0010795411101404374
-0.0036140807602402874
-0.0028649731208645855
-0.000772340665008992
0.014334341375251788
0.004437502265598976
-0.01606351271675299
0.004113567870749849
-0.01546627806399049
0.004305045342236493
-0.015367356632616413
-0.008446863334770844
-0.02991486816907418
-0.0022139429909918515
0.008559271891571806
0.012039780686156343
0.0008504501782608699
2.159056184613798e-11
-1.9060899310315508e-09
0.0018953585073497089
0.002066498649317956
0.00592557717279268
-0.003208218211084742
0.0008888619592856751
-0.002817750070805472
-0.0011720951604128347
0.0029670719272613896
0.009790114686104268
0.0030969172709967947
0.013697771488162641
-0.004938219453318984
0.01632579150392454
-0.0053302207579222945
-0.04027304381913364
0.0014642843229064752
0.0013511167262829126
0.007541842469346534
0.008438023885220398
-0.002588026972229457
0.0
-0.003182135751489849
-0.004969301946170246
-0.0032809644339513444
-0.0028673464116522203
-0.014507783283894784
0.002495417872234126
0.0021537580907352734
-0.003879595432615424
0.006252882135283837
0.008869678016168852
-0.015391296827760964
0.010491977394978085
-0.013894672978782217
-0.01460127521949717
0.0073891330113431295
0.002759577866219124
0.007626740437363768
-0.0017980506885753949
0.0016827809427692887
0.009391905285962284
0.0029559696373414805
0.01226832440265975
-0.008699650635497033
0.012693978392252279
-0.010271374613212056
0.018149979512151374
0.006063270389258388
0.007473460874265855
0.001961155647290131
0.013919572637006689
-0.007987252268987236
-0.017622611221897184
0.01583465702524391
-0.008109864965775905
0.0006589624314804605
0.013181601245171932
-0.01589793394058747
0.008756558285488669
-0.003957182366929022
-0.00426711568596489
0.0030181178765679145
0.00232747789742901
-0.00042725404897081597
-0.007481068263586086
-0.002000897896932636
-0.00746625997358271
0.006466652680736733
0.00916434878468514
0.01597798943505846
0.002102274224910665
0.0017207952884783384
-0.005819707652364674
0.006151816837233421
-0.009682052801359272
-0.010585286585168144
-0.00909921756512901
0.008581655303277234
-0.011983638503569535
0.014856299714008652
-0.0017097129647876375
0.007337987460091324
-0.009046730045962355
0.0033967765714366517
0.00852652081967853
0.006729824267257497
-0.0018838516838189606
-0.006368233293246678
0.010925428604834145
-0.004354124782507014
-0.013429155650287707
-0.011117564603417633
-0.001826670847896149
-0.0017997400364667302
-0.003191290392908904
0.009597833400113862
0.02236390111808636
-1.9188638621820313e-10
-0.00741659924216741
0.0010513002501502454
0.0018144390394120237
0.013990414100132052
-0.0020913101779529513
-0.00441674781027518
0.0030544230361415213
0.002864861148389495
0.006803593213550952
0.011583492460287807
-7.4817302721823946e-06
0.002605794748011764
0.0015924025801881457
-0.0066459123582703755
0.010457903251642638
-0.016751107887652546
0.0017821734206851408
0.0031419256496348844
-0.0017150082727182404
0.0015370568299774047
0.0009795276466373038
-0.008490676364233125
-0.005228670461545558
0.001998688456937895
0.008758541634640654
0.008218539805290186
0.0014642843229064752
0.013739982572194788
0.0096111286397688
0.0035033539080894806
0.002444872491678344
-0.003550166059589583
-0.017470960988249292
0.01391737985184835
-0.01937677027585364
-0.008504324256204976
-0.01336822583879143
0.003068733800245267
-0.018407814031459392
-0.007435960885004768
0.017739199192199673
0.0038316614772989028
-0.0023257450726637424
0.004585295584813689
0.012551135637489663
-0.013539225664220824
0.006679844695627254
0.0014365473069052502
0.0025690344580385402
0.00888858637646557
-0.003709553241848749
-0.005876686886201566
0.0033368545990943967
-0.009002863584387464
0.0014142602417750935
0.006976277415221254
-0.007810370645296984
0.005336948940593554
-0.007551304694524362
0.003334972949076338
-0.04643650620079788
0.002692627419658881
0.007562031076453026
0.014547106685642113
-0.008312473965469703
0.009394548532672256
0.0013805986311618054
-0.016930049477787312
0.003038397609558011
0.001634531998774321
0.007319747361632584
0.018502177833281043
0.0047978207793014805
0.018921057720132056
0.0025982835416394697
-0.0033866226243615166
-0.0020273041894181137
-0.0020607695581547104
0.010327605494538858
-0.0019040280148671653
0.0021372352665323994
-0.003558270178091864
0.02188845643718835
0.0026631606653019575
0.004744878528327838
0.012252623289975327
0.008412375818578358
-0.007939219424506982
0.003219972552103268
0.008829448344564443
-0.010271374613212056
0.0026589107263697014
-0.014813950918861184
0.004196520314543696
0.0033267304558080016
0.0
-0.005475073468077318
-0.008530050789795452
-0.0071845220622894865
0.01276375097438215
0.013294969568652155
0.005895109659600585
0.010956762932202602
0.035043940504022326
0.008919682962903741
-0.002187392812624309
-1.208068391518247e-06
-0.003658926091571328
0.0019404611640967502
0.01471175961814629
0.002127892518012465
0.0021365588525946635
-0.016758641177072667
-0.002615326946876131
-5.623941442980056e-10
-0.03908387742204456
0.00011776339568442563
-0.012974555884888005
-3.9542507636712326e-13
0.0032789056319893427
-0.0022857583929599633
0.0172152767300346
-8.513049392001035e-10
-0.001637851925387666
-0.0059926196901187315
-7.248905004374865e-05
0.0010916737683811263
-0.0049973009487246384
0.01206776239538657
-3.337400686323734e-06
0.017316277402718076
0.010775700118994492
0.012307112605322607
-0.008660928400212434
-0.003699289916984907
-0.0047215374458908655
-0.0038487869872346576
-0.02345983591592181
-0.016084488030509898
-6.89625669677226e-06
-0.0016905617546240594
0.0031523515227297456
0.002595965268621131
-0.008214209295443288
0.034786032625221605
0.0029182917395022922
0.013821548894198423
-0.016073776913747406
-0.014841290097515116
0.04067305561367182
0.0017696486084881218
0.0062851273897616255
-0.00685018444394977
0.0030054447707908894
-0.0014466095120490464
0.033989234516856384
-0.002206154162970563
-0.013329174415754083
0.01368106555121392
0.013927935625292705
0.011585559384555433
-0.0026157806509552557
-0.002703461395497707
-0.0015844445487172953
0.009422151385154575
-0.0022179270250898067
0.0026130151926760936
0.007997880721834287
-0.01623947487203798
-0.024218673111988206
0.0009448587457098974
-0.010271687183222898
0.025842727357393035
-0.00034631187252129325
-0.014998926462351831
0.0011299635436114513
0.0012717786910574809
-0.0011536841472787503
0.004625675547288052
-0.0046544318131464596
-0.02146950699990256
0.007559739266517835
-0.015757877076068804
0.01588598607741983
-0.01234641833950221
-0.013416195600818581
0.032400624864527716
-0.002584570941056641
0.0014330678973390539
0.01093928164002686
0.004902327047824097
-0.0026113996706987074
0.0006077191137194685
-0.005056136966609845
0.011344692716797647
-0.00165367374979493
-0.015321501321359633
0.02035197764142267
-0.01146850673923002
-0.0014345291354011188
-0.007842253828314284
0.012614487633416821
0.003458889152504288
0.011403260891880554
0.008363043999143397
-0.004310176802545202
-8.86979521132984e-10
0.006976277415221254
-0.013391546026385481
-0.012764469854873402
-0.0009843086391253886
-0.010385686457811622
0.0018896016435305983
-0.002438060926120545
0.007420621136699885
0.0020202387324801192
-0.0029324924031049475
0.006581547682671846
0.003426101086927057
-0.0008415133495210799
0.0021320770497599536
-0.012158468969223086
0.0006589624314804605
-0.0033691972129532635
0.002273172534230303
0.02272668540646765
0.005990622289265707
-0.0038340539679903446
-0.037552897350218176
0.00408022374462165
-0.003398334348373545
-0.004277759855736468
0.0033202671729572523
-6.6043898704846525e-06
0.007811072519036659
-0.014187735212605053
-0.009703443288375744
-0.0025019416389539502
-0.002224389894716673
0.02217713292930401
-0.0077129552272902566
0.0153069226823885
-0.0001367932815126591
-0.0018051565065959172
0.004562981890726736
0.00361211648864798
0.025269528394933256
0.0015925187653752387
-0.006927449389298104
0.010382957434104745
-0.0033520597333506702
-0.006903498060988583
0.0022282613252584595
0.003111296716250778
0.0033874201242954493
0.010120708063352274
0.008909562031756427
-0.020579590130840836
-0.010168154289312146
-0.0037608806092283456
0.008315501952911261
0.014260043241281724
0.002647856497545306
0.01240698462949055
0.005120244535988302
-0.016102480135966758
0.015077920507391708
0.00468467034505701
-0.01658320144791655
0.001979259444638492
0.0014233926892227708
0.0019300537537495469
-0.0034172556531804096
0.004128021909982329
0.004835756642989737
0.0009179791554106073
0.006622064740808865
-0.014621775817669897
0.0016684361396502063
-0.004605988543478867
0.013954616039875216
0.007846802490347507
-0.020547562352544617
0.001938151947112992
0.00313528226273082
0.006190054029024148
-0.013088483123220274
-0.0016984054991931838
-6.580047165889794e-07
0.01762547500496958
0.007003432124185894
0.0034207160875421886
0.0
-0.005259305088262456
0.009386280015207955
-0.002384588985904812
-0.0014820007272740286
0.0024778701252936015
0.010081183679590846
-0.003084683696101839
-0.004717160118095204
-0.005121897513011005
0.004383902759512457
0.01071271230711212
-0.004860737526385857
0.01114738172132527
-0.008342888177026069
-0.00405893521730775
0.0045676222858079
-0.003063025715634452
0.0016577790397442214
0.015016764173750882
4.104275949350252e-09
-0.04160322131901713
-0.00030824660093855784
-0.020379679172807176
0.004992347851275208
-0.0013833093946379893
0.00500884048649311
-0.004421988170290738
0.0012284333057565608
0.008056042540324448
-0.0029970531017208895
-0.014036239524199629
-0.011050635471984826
-0.002087214399247032
0.0008204272020169192
0.0013225559045912227
0.01530277001133324
-2.7271565567115977e-10
-0.0013311961587020062
0.0029904075485955024
0.013361480142579507
0.005975812501670087
0.02624593465625409
-0.01660170978732973
0.006961381458835109
-0.00533282815139308
-0.010191229957572528
0.006052643082331854
0.006216693624743925
-0.011710912155882592
0.003886766611030253
-0.005803240157842817
0.010152284615892961
-0.004973376445260075
-0.012773629665234857
0.020676954700450445
-0.0035127225400511733
0.0009696960669168879
-0.008996185948640018
-0.010618879047880721
-0.0034352836793210993
0.023486154675576975
-0.012485051850686706
0.0034560738675168327
0.0024110255935501077
-0.03341145599400358
0.001646034327409368
0.00577656940162212
0.0014740946442308859
0.0033483928515494797
-0.0022389738898692477
0.001776874300437032
0.0037429416476142474
0.009951576305244845
-0.0022179270250898067
-0.004259743181484673
0.0039419150232715295
-0.0019309078551803234
0.0040619607689387
-0.02416519147555544
0.013817209871976968
-0.0023187068174990513
-0.01328330185332347
0.005553600823808387
0.0022571908657114587
-0.023167621303655822
0.002068479791593129
-0.008151118145675621
0.024781496516704516
-0.014565575709133837
0.0027960026902863894
-0.017393905893097965
0.0026647335257685596
0.006637969901558044
-0.00459067200365727
0.0022654684709480354
-0.0034602896758800876
-0.0141630261103411
-0.013427895386809016
-0.0015601612822596796
0.003404868928332863
0.0041321945595271725
-0.020615232171057797
0.002739685479306601
-0.013720176827497677
-0.01626980368603245
-0.017273190914970385
0.0035016800527769413
0.027806757357655552
0.0032697209148557973
0.009540992994243786
0.001585905363489361
0.007729904183031039
-0.002045163302504642
0.007160542916108961
-0.00871276555122283
0.006633836368721388
-0.0077251305690141355
0.017249663618808093
-0.010893943707225701
0.0033634370738565753
-0.009875377679874942
-0.006607133542362503
0.012586913230155485
0.003948944641640673
0.01926731382365707
0.015558249253712084
0.03562510102594811
-1.4180606390369028e-06
-0.003233919838857815
-0.00479920702090129
-0.012055769023082039
0.00367246087515374
0.0063523856127282435
0.0037372994430835667
0.006321387164627161
-3.663131562985295e-06
0.0013883117687550526
0.0016102470816098822
0.004624563858202285
0.013947641594550057
-0.021877056669353738
0.016158518140927412
-0.0034288653034039627
0.01141794290279441
0.001628476874259624
2.0254247878371357e-11
-0.027269042389320913
-0.011696946498815638
0.0019314779948365133
0.010842080726244976
0.020708243241452158
0.006437626252327759
0.011859424166650931
-0.007920361697874719
0.0011819613850873546
0.0013937146535145841
-0.015999036548980102
-0.0013713403572299398
-0.007319641692129105
0.002278130360332392
-0.008812272605464955
0.016300915465480393
9.178409178693818e-06
-0.012663627043442077
-0.03184797228472344
-0.005941474934895294
-0.017425653339889408
0.005559291309741509
0.005709300955444485
0.004472623704583953
0.0014164870786092282
0.009210932806553173
0.00895788451940652
-0.0019922809618832674
-0.002666004526938148
0.008266357295559176
0.0008982032251177652
-0.0028454842854495053
-6.947572372058183e-05
0.006069517009946564
-0.005199168765399689
-0.0165024623362962
-0.003909455116792322
0.01232968144270324
-0.004063284876747754
0.005143214262531971
0.002665279004497478
0.0014030444504479723
-0.010449522758189911
0.01141827610752327
-0.0060597798832159044
0.00607889393497763
0.009325627213700524
0.004267978241518257
-0.012337476925046819
-0.03353241222294593
0.022679394491813977
0.001528621285201238
0.002366266111321679
0.001738936242387614
0.002151757025528753
-0.01921615005027748
-0.005907642697785711
-0.013719685072223615
0.011581249555457647
-0.002840887247412773
-8.845070517159286e-10
-0.003039293088395782
-0.01461516509274768
-6.248528663712879e-06
-0.0041046320349918276
0.02870579284189812
0.0008106640227927526
-0.0020913156556953364
0.015252357320831016
0.012344898785914845
0.013515967327548188
-0.0026711493486872265
0.011463813024400516
0.026376783522711493
-0.019597901467854374
-0.011649143158690914
-0.010327333870757007
-0.01485774822343417
-0.02600342212617582
-0.005728701305492663
0.010578096262300243
0.01567733281261088
0.010548931275468998
-0.0023654830103668435
0.0032377222782120556
-1.0972761712428271e-09
0.02226762739699201
-0.0014823844575791128
-0.013427507646585391
0.0013639139146184372
-0.010153122979502108
0.010855256975359502
0.0039524413327903865
0.011310546924966778
0.0022801799198485517
-0.0034543739284396613
-0.0048341283084808095
-0.012546822754190055
-0.002386565881613057
-0.023088991061004174
0.0014197353318570283
-0.004329967026482213
0.003702905681509902
-0.01480545374496608
-0.003966143398793988
-0.0036893592917377712
-0.009643412342027454
0.009899586595395108
-0.006357261930235229
-3.2308513150137908e-09
-0.012432252331312052
-0.00568035597329884
-0.019029231761407184
0.009897318482312355
0.008934308138127461
-0.015321019301046781
0.015132462078395338
0.03668431525222013
-0.009288517780953482
-0.006653138914971989
0.0014426954554435495
0.021313519687781092
0.0017086413290758817
0.02341967972592433
0.005143214262531971
0.006136387089027294
-0.005224239005700704
-0.0019811894846268425
-0.008132285039462013
0.010072201284694018
-0.0023893164739453823
-0.001852229586857617
0.0036488755541146676
0.015817922105828986
-0.009247550788012024
0.0030476596647730997
-0.012229793905186812
0.0071129345935053824
0.003313947877438985
-0.002690892286689395
0.004210958234709448
-0.0052422195754358416
-2.1602365382922605e-05
-0.001708429166350863
-0.0022053030338666972
-0.015102571631519809
-0.015720341635551378
0.0013271804957553967
-0.0022543302291812475
-0.000753744579291604
0.00925431584436433
0.0026736784817983383
-0.006490045787270624
-0.0025529101346984918
0.02092995355044395
0.0
-0.003692603581781773
-0.003653370729963501
0.020497200817038052
-0.011843320029712728
-0.0148481866572745
-0.003889248724555111
0.003967448349153815
0.012625404522988886
0.0011668971908901586
-0.013444297674183982
-4.7774368656378126e-08
-0.004636775364506826
0.010831756367843016
-0.015882830920226142
-0.027157113507259162
-0.004798547665489922
0.005934954250985788
-0.038533702990189454
0.0008354492862083371
-0.010020372329779521
0.04573389529271698
-0.007176430588757669
0.006723543493451999
-0.01989428997935753
-0.0045373982958190045
-0.003270879276095941
-0.0019436085142487648
0.013935299461433737
-0.0019255061778769814
-0.004397316467323901
0.0018616098524961559
0.0053602125702464035
-0.01205277162163441
0.008511177004875518
-0.0009431157275452472
0.005489591114362008
-0.007920077565403237
0.0050738127057061745
0.005550871926706097
-0.010394983986215292
0.010887018624895542
-0.01639741608301067
-0.0017095090580683818
-0.0036680551797422267
0.005664679300320154
0.0018507458823265061
0.009450850014780994
0.016132519063094555
-0.010603819533417939
-0.014009762918037544
-0.00524156461386226
0.011640480595121497
-0.016521878318896357
0.0034724106943019323
0.0022217677071669378
0.017525037302830903
-0.012446535841634077
0.019006063228740253
-0.004778459337181434
0.012074163022983166
0.015949939839836835
-0.00556093859872637
-0.00847673140492003
-0.0028469497475151298
-0.04439841709773675
0.001166450852340031
-0.011161395237025742
0.00663714054385115
-0.014607615253202401
0.002856694968928714
-0.0010213710185839127
0.0017953741021358135
-7.387049687052857e-10
8.56633708559314e-05
0.04768645626902023
0.010644999260986445
0.0027897860011365048
0.012252601461555417
-0.005071482167053164
0.0015075905536254353
0.027579651164474205
0.003975919175177488
-0.028848470158540234
0.02232925291124288
0.0008624732047510043
0.0013479773109006396
0.008757866376928061
0.0190354366087203
-0.006819242928618112
-0.005410791088851546
-0.012434390723659908
-0.002986355714469666
-9.527009184291552e-06
-0.003221938897896804
-4.644883428291082e-10
0.0047359034085439206
0.019477987610226503
0.005663087111328152
0.008625797649648093
-0.005238291566337524
0.011647236723707386
-0.0023028064569453346
-0.009396450279545743
-0.00572873393718698
0.0032973424430681763
-0.002756346031566691
0.009691167316662095
-0.004229787139374258
0.0006038378206489809
0.007320003471342156
0.006005858025444171
-0.0012957850071855178
-0.006419858355645015
0.0034366118866139238
-0.006834614204576696
-0.01844279040232475
0.001280450944267152
0.0008736617689641379
0.007286011687841169
-0.01153223907966137
-0.005570920631518915
-0.003124458854115108
0.014632089051459268
-0.0022322291975029646
-0.014803852055548735
0.00528735595846238
-0.005146440643847203
0.0028985862210487504
0.01443155506566621
-0.0019706888897015767
-0.0013271481544251946
-0.0211664846676421
-0.0031127310712247974
0.0
0.0005462753128348367
-0.0036476687327318927
-0.016992962035647274
0.004231039004695408
-0.004197152817500288
-0.008628770079926587
0.010876862585117827
-0.012546399415779346
-0.0024569537469446598
-0.00581995517489987
0.0011500593120351344
0.0007792090433765443
0.0
0.0016027459703045355
-0.0024344698957260388
-0.0023178467092050538
-0.006577117326963166
-0.0005780779966931738
-0.008573480849423153
0.005391334596699609
-0.03701089377584882
0.003111436425018966
0.0017629508961966686
0.005447852148700699
0.0016918433940723056
-0.005112571723809396
-0.007631404711869368
0.0070637126738580525
-0.0019363397321545915
0.0012383157617044404
0.02524469280677318
0.0015644539660561803
-0.0006518791717044838
-0.012761054031125206
-0.008654310559980389
-0.003253106702478421
0.004793552411076415
0.000870452339167938
0.01490369083338069
0.043020870393532064
0.004752452412492368
0.007716749800346462
0.005299387108929084
0.028381841000099984
-0.01580184614018
0.0026902108201589704
-0.0016842418700502711
0.003162216743656771
-0.016658200234368346
0.0063117288761931085
-0.005367317346482544
-0.006960321469340789
-0.004537133837486505
0.013269548271274235
-0.007645052660887402
-0.0040697209854653905
-0.0053602502498290945
0.0008080145942326931
0.008700546619932942
0.004382332272027558
-0.016414602066403626
-0.004169518362587909
0.004525131519376725
-9.502903457208868e-05
-0.0165525428020318
0.008004836887511744
0.0
0.0028288205066614234
-0.005265122018377119
0.0019230688710112386
0.002496493026190307
-0.00457157936429723
-0.004210790932490982
0.0014744876184785722
-0.005438960561614346
-0.00010637673037018721
0.0014137638613772611
0.01033393868504808
-0.037231134315042706
-0.0018359198911632475
-0.0029149354452398003
-2.8300109558134907e-10
0.003526160921594446
-0.008200427627303346
-0.0054380645872175205
-0.007011104734350099
-4.341458001764566e-06
0.0021530290030881897
-0.0022600865822167034
-0.0030358893848548597
-0.01965914214019743
0.0011976036873175063
-0.004636687347774555
-0.03348266622741902
0.01514016044520441
-0.0020704165513169776
0.0011725166630708918
-0.02188017289061986
-0.007977889233221158
-0.013698855209659426
0.004650865180424775
0.007153725324289031
0.0025532202323627793
0.009461396600523041
-0.006633055915733085
0.006815846000606247
-0.0020336488262241823
-0.0019930473327655495
0.002389003759310602
-0.00369140914461664
0.002034570794389155
0.007494902348894455
0.001243858373315455
0.0049959721964803515
0.007695936260064913
0.010303086656808612
0.006901648938531516
-0.012227212238940275
-0.004551036832604807
0.020621226900145145
0.005203748053337584
0.003077530797698123
-0.0005432096617664833
-0.002221858026462844
-0.01265038100655477
-0.0026193421629201424
-0.00195413807495519
0.006093577020625575
0.011136927328390167
0.008446837401124414
0.0012314358437765735
0.00614593604304144
-0.008534819122667021
-0.001523359144577875
-0.002104065213834086
-0.017815894598086156
-0.02670964123804093
0.004591000507746001
-0.007868181309006267
-0.016308126450118532
-0.005423947531462586
-0.014431567109482868
-0.009488930890916764
-0.00326778298074942
-0.01311993317319228
0.00608588605964029
0.030792212807798557
-0.014366664500797224
0.009093660390653855
-0.0004989763413333392
-0.016480173123356773
-0.005207903971973232
-0.017285256465340702
0.0012160409899590516
-0.008458464765392394
-0.003980814100643825
-0.007711450731596148
0.013477669673894905
-0.04771570402931524
-0.003565807409971245
0.006822738039893961
-0.0071295830233835955
-0.01354945968957238
0.008072275299344294
5.7035203490362824e-05
0.001107163730310754
-0.01374170518846141
0.003313196684667783
0.00686978660881295
0.014124313946026848
0.00022019521326831993
-0.008918776265453718
-0.003168497859075397
-0.001692054562093007
0.025068656077634734
-0.00711073336319174
0.034954750121734525
-0.0047679064631634275
0.007573752074292612
0.019405905242377987
0.002479890080033849
-0.0035820139889994247
-0.0065699732355310675
0.013325278938757634
0.008105996061949979
-0.008699176829469232
-0.00469187372623452
-0.0043080100781269955
0.005793590312333381
0.0072699515147318615
0.0030599301137778675
0.014160525575020759
0.013587533662258683
-0.006057858955495963
0.0023168037812093412
0.008433801073538217
-0.001467970175859009
0.00017122400203816698
-0.003381539492957129
0.03603929700531764
0.031534801792657816
0.010951970635550536
0.0033876480298151903
0.01685420839746804
0.006897757350382592
0.016187780359257282
-2.235234472690952e-07
-0.005819707652364674
-0.004439618721721419
-0.00410963876930028
-0.004051426403838698
-0.0033457650574172074
-0.049683186003361565
-0.005247893485428494
-0.0026075010785987828
0.004414790851974787
0.005733838589516085
0.01505967060655153
0.001904255836403542
0.00436518618126731
0.0132589671636964
-0.014267784322185468
0.01564906468177268
0.009513900966781372
-0.009682135830124651
-0.013869163058917602
-0.016392370585353335
-0.0021572632947048915
0.014832132383114937
0.007420687835057638
-0.009443077040119359
-0.005814528141021814
0.0014154018449829922
0.007932067632024717
-0.002657989880768374
-0.017908074741451372
-0.001433373316260031
0.0039886198171149145
-0.0052875147554742215
0.006919640954556349
-0.009520724507667885
-0.01461678545225741
-0.012987688232161551
0.01154474710038591
0.008126107029471393
0.00026542401221185045
0.006801689395010038
-0.005134465950707032
0.004083341816012703
0.0064473555772289765
-0.0011370468479351406
-0.0048597775360963
0.0015764484238150092
0.005632976948685434
-0.0157845757304576
-0.001961519850084344
-0.007106394810767004
0.003489735676282678
0.01267563774418211
-0.01157804232693645
-0.002276041804947694
0.002533099921811145
-0.0044548217421992485
-0.007627621721402701
0.015340939726169355
0.0016027757554120706
0.0005820927058792675
-0.010078541143790648
0.003112911974426956
0.005559244503032729
-0.00512254279537069
0.01317102512214042
0.009455297647194619
-0.0026356154443677084
-0.001614368532198071
0.001997106050091719
-0.016931435166843447
-0.006094347169576018
0.006227028993582468
-0.0015648677718748847
0.013807839601914744
0.010145545514021753
0.013945291650938114
-0.011815757646961378
0.050527698160164884
-0.015010404928940015
0.011226753912968195
0.017055230918910324
0.007420687835057638
-0.0028830152869566985
0.011456356590257531
0.007771246533301085
-0.014156448335260063
-0.009652376612519128
0.007031237954445732
0.001910879281374548
-0.010982476643702582
-0.008826435287951863
0.009047531587937845
-0.025529891376580138
0.011516827749279169
-0.010131440973677791
-3.592995438946623e-05
-0.012572328074486822
-0.002131424089621042
-0.0020696616199126125
0.0060514455722248785
0.019681532346644375
0.004372594260112954
0.0013499267271098576
-0.0061860482767706094
0.008271878533162634
-0.002907302752489316
-0.008103120663569755
-0.0026269363072786048
0.004106716829331467
-1.0788769276620382e-09
0.002219968191174218
0.007985937451426076
0.0034847555839909706
-0.017853473182721426
0.022312467452671136
-0.008516429832996178
0.000547162699630981
0.0024296094839518357
0.0022864384462042225
0.00981788112987578
-0.004054076067424481
-0.009319366688525054
0.0010684013636392564
0.006641425788910111
0.010840007427394044
0.0014567210649769268
0.0007736934336940175
0.009290299312753424
-0.00310383766427399
0.012398687282520747
0.0006064418312697469
0.010958330930217083
-0.001412202555168726
0.0010668870880320954
0.001571603395905425
-0.0006180967473529358
-0.0019644669804035598
-0.016931022680823266
0.0009824683101852315
0.0005591664646491522
0.01582748639226277
-0.003595354169042003
-0.016612262566085865
0.042484462951899324
4.93782898922464e-08
0.0045640319600113635
0.0016680255001674004
0.0030748998156252642
0.005632976948685434
0.001992692558851236
0.006390833813171804
0.003989042194797881
-0.00623041422133019
-0.010855355011633398
0.0015557618219595765
-0.011083060502404667
-0.0037637963275107683
0.0014302090311214288
0.010570718450082825
-0.002096193747581916
0.022232298247784762
0.009851368454175074
-0.0437962524646409
0.0017657953502081625
-0.014295937999749458
0.014394037531252596
-0.02819052332204889
-0.007945284019182241
-0.004541994370902523
-0.004234656877002282
0.0018939785466473812
0.006383759218058736
-2.2124548922397235e-05
0.006122956352602745
-4.783140250915053e-06
-0.0035748683652014465
-0.0077537005142682015
-0.00029226520189239375
-9.081183722773445e-06
0.016792375116033893
0.005006641177558628
-0.005580800238869484
-0.005171594447749719
0.006515880651716782
0.00446639698714487
-0.0034165341361435645
-0.015110485966199568
-0.002635246827335476
-0.01351178235623156
-2.196551620861804e-15
-0.008914288945441226
-0.006040656447193664
0.005409054680529517
0.0014602284334433461
0.0038948961434530963
0.007701721403367122
-0.0034610528685021487
-0.0023332004043913664
0.0021259163141389846
-0.009329405728806518
0.02605539080968339
-0.003588449593363736
-0.023704258304539854
-0.013452880577002144
-0.005221701978952354
-0.01922852007948687
0.010555267948351722
0.006814112547442353
-0.0022572337327636657
0.008011963434697735
0.008580510614544722
-0.0026953599857231967
0.0008252114756251166
-0.007648973223236388
0.007076865403405768
0.0007759792567231577
-0.00894923777789976
0.0013392108912563686
-0.0004390047044466518
0.002053616729424928
0.039987565446656353
0.0019612987505894463
-0.0019636872533326005
0.005653319882485754
-0.0019847033870832864
-0.005273449425296593
-0.0037614531979025157
-0.0023259873685367786
0.014753482477007897
-5.699984281420882e-10
0.007522874455133575
-0.004499126637012409
0.002043302596366713
-6.4234434357019365e-06
-0.013736211898071752
0.001015674694614271
0.006194635750329986
0.0030584395047800984
0.00227710297636476
0.013285361792697185
-0.021268979228561757
0.006764476317423809
-0.0012647668641931021
-0.010454300969860662
0.001290927345503186
0.020160806885159258
0.007438994477647104
0.0030087742183874827
-0.007937683149414856
-0.004994294652715265
0.008991418307195364
-0.0029823469979900997
-0.005426985570773624
-0.006740015015504762
0.001421008423949614
0.005141523722967497
-0.0016502460694657255
0.007417511924557634
0.016256002768983417
0.0077891000334498845
0.012853251549629723
-0.0056461498195714685
0.005189733769244452
0.01861850922623105
-0.0031324723607313552
-0.006531858625125467
0.006487621668590394
-0.00948201482077846
-0.003297819339775452
0.019239800349705877
-0.00476666755666778
0.01639679662866533
-0.00426711568596489
-0.02081622921486756
0.0033727265897243145
-0.01610026416962583
-0.0009027575692106941
0.00269039277352198
0.0023048933077301115
0.008458843996169413
-7.645826787418292e-10
0.01488853366771995
0.011997069913214939
0.02545485293926506
-0.005957877704995403
-0.01503520979010761
0.007273274414555272
-0.0027291371147084623
0.020239333793071017
0.0018021223323404908
0.040433992206795194
0.002245959527636344
-0.0025278828093396486
0.00825190994302907
0.009414676737648797
-0.001082666021064988
-0.0022367439373468254
-0.011072662075120992
-0.007150106589490994
-0.01809126432300275
-0.007357146469607534
-0.0013208165735738707
-0.01395415899836123
-0.010525641380547365
-0.004226743420920342
-0.0026883501749245943
-0.0060916303087409085
0.015598246292444131
-0.021396407142690563
-0.007455630158448066
-0.0028839658993465383
-0.00253326470352152
0.011598012440885295
0.0076134377094445906
-0.015822912417263538
0.010332166106145032
0.0017215203244018151
-0.012476835666284967
-0.024282060903021672
0.017373268955464743
-0.004123674855867583
0.020813294049141954
-0.04926037012753238
-0.01556518190627008
-0.012252172374570913
-0.004218816223982063
-0.005010228057453098
0.010262906074847061
0.0007396415906426267
-0.03258611385832539
-0.006132144216509872
0.0025429203418163584
-0.003919889187237761
-0.008524202662212271
0.0012503269510461058
0.0018898531882971898
-0.051749725418192505
0.0028626851567463024
0.001199462391925581
0.00687151082645413
0.00447889529994375
0.0007113434458176104
-0.003349183011487746
-0.033835264613326
-0.01453116638462684
-0.0035394654564498223
0.02411769869834982
0.003941242896536249
0.011006506822284563
-0.04803086378557427
-2.2244655700059196e-05
-0.00886061736750447
0.003121240319224455
0.00361211648864798
-0.01279291317155068
-2.0032278266907e-06
-0.008650126795677329
0.003190821747786977
-0.015755108915853452
0.005081252516969249
-0.0035221535395647944
-0.009771092239728494
-0.016095329902938826
0.0012216753502203468
-0.012174379781514923
-0.014905106855075194
-0.01532344495193783
-0.003557851000340279
0.002384190813392519
0.012889101368144692
-0.00956279437640435
-0.01382685889829511
-3.942092224489295e-06
0.0133337938799286
0.0012747657584831356
7.977879842398957e-06
0.00502250937101212
0.006612877315342079
-1.7392517005495757e-06
-0.01620511582338918
-0.001964218425545915
0.015527720821420721
0.0005928450130463191
-0.004919871371481226
-0.002709918161130858
-0.008371707999181861
-0.00437419007631986
-0.027461166726207076
0.0017929053594194749
0.006005858025444171
-0.004597410966325016
0.011430969482129774
-0.0078092333057249415
-0.008868917815691227
-0.004131161407603456
-2.7404127727022086e-09
0.005928231710887256
0.017044737984020803
-0.005374449296858246
0.001804710853290731
0.001967289601501089
-0.009347979798400224
0.01112161370886255
0.013152200947789674
-0.012742542546024332
0.008362650741225892
0.0030931738369093585
0.003906012595660598
0.007603477234395405
0.005993869582114445
-0.016132359167629645
-0.0288443628640269
0.0019015195731881148
0.0028324262959198254
-0.008245455495289626
0.007498327226793113
-1.1699114558353646e-06
-1.4706993771818817e-09
-0.01808603580542295
0.0033516353650179394
0.01127518326987522
0.013354038008615145
-0.01818705605213176
0.006982984340836696
0.007511726611738736
0.013215445601639996
-0.005268261755981703
-0.0004181457765749898
-0.004493663905809369
-0.012090249885550944
0.001989598354584134
0.005960024275790581
-0.00197604176694508
0.006856108275008647
0.01462110240436932
-0.0032040597087807402
0.02400530073889049
0.01248575677196485
-0.012837488859190407
0.0016609792505508935
0.0028599354514529554
-0.0064762864016926535
0.0013877395949371007
0.022537920163626095
-0.0058452062771783735
-0.0022720953732833513
-0.008734212372706862
-0.018166410708533642
0.017603108808187808
-0.01663924342178895
0.02204488821313783
0.004863694414726485
-0.015201011288954597
-0.005433675553812484
0.009954053143355453
-1.6610435724074298e-10
-0.01486253089663107
2.7531843941559966e-09
0.009893901489043583
0.0015936963807475944
0.003703648020342612
-0.0012221652638856112
0.007653230599056033
0.01011343897977612
-0.004257275751532251
-0.002452699968968924
0.02686098439087861
-0.00423085844436584
-0.0027774544734170425
0.0009097868069784747
-0.002042402710600842
0.013765010706271685
-0.0032040823034189115
0.0033358383999704776
0.0019163670652035667
-0.0095172413210992
-0.011124902905054836
-0.00513306195664713
-0.0008353575533910539
-0.002466960291145776
0.005444030665043333
0.003776973849470718
0.01743486597432657
-0.012972960827930648
0.009711156203011068
-0.02373719012523894
-0.00012154044259565231
0.010404559355149438
-0.0029860128677145796
-0.012405865041888817
-0.006481571996782338
-0.002910466586363181
0.007430961066029722
-0.016873464145411365
-0.0032904783311342328
-0.0032346630443840963
-0.012582174759847275
-0.029633247534919405
0.0027619398022696727
-0.0177120065651281
0.0044255978976213495
0.0009726943747057643
0.002928345251520244
-0.005466281085567391
0.0016899568643320107
-0.01288324735347455
-0.016148062713062943
-0.012756784559592654
0.008314659156512095
-0.002855379685480785
0.013024449498006031
-0.0012683714830161847
-0.001210111221945005
-0.003083752795601339
-0.0025431724059128227
-0.016857605158279998
0.018434096727051374
0.002427098141662338
0.007693213320409157
-0.007213003960449239
-0.002384588985904812
0.0038722846082521467
0.009832193563107914
-0.008100176467152944
-0.0030301217688522663
0.0021499784491952807
0.0015484508591197773
-0.00512377731746549
0.008245701468840894
-0.002091258587905006
-0.002336273696917251
0.00195181643713949
-0.003714854994058144
-0.0027633033108604614
-0.004143227206128798
0.012997750932135517
0.008757999501935641
0.012961264469648986
0.018765990090390722
0.016593337210171668
-0.010816536499965747
-0.002382551694871706
0.00522600686054306
0.008994514358365714
0.002850304257046114
0.007690534814503611
-1.1506989462447153e-06
0.0043524157786652895
0.0027388746223620656
-0.0025221029711900086
-0.008232440576265168
-0.004962393722299167
-0.0062226254375746725
0.003368028185054983
0.024281636942597818
-0.016643836588575146
-0.014640632246167795
-0.008410560012464015
0.01893653085044879
0.0027414615202184666
0.001794755619123312
-0.001448645553021455
-0.02461197763717746
0.037603000783064826
0.00340351870774823
-0.011960350040227236
0.010011986395147937
0.0036069084623480065
0.01908859106736072
0.005587005267765218
0.0013245877855618188
0.002416128077138654
0.0018194207443490765
-0.0025197945244101994
-0.0032162633841227146
-0.002752925346300529
-0.0022665869970135803
0.0032064182875235583
0.009381377089939193
0.018496950311358618
-0.00995293890620787
-0.008515702739199752
-0.008608388345898306
0.0019438688828284623
1.0949725082000062e-05
-0.004125980778009149
0.0019471442495333617
0.012635415550307312
-0.0022200793532111433
-7.018873553773329e-06
0.0015223256385993311
-0.0019104703082107896
0.005228279767656496
0.0063368452014097775
0.0027062181415466085
0.0029156094250523223
0.008980673060821733
-0.001926268244087205
-0.002590680524311191
0.00722115565330626
-0.002682039891777197
0.007934512108764098
0.012994926863599635
-0.013567480181682558
-0.002750452862479471
-0.0018990345868529503
-0.006948707649252613
0.0028710124490751317
0.0074863800550144825
0.0078059296789895405
-0.01158756480009695
0.0015696300495325127
-0.003699393720188821
0.006517118551741373
-0.01159619975069317
-0.004569800934136517
-0.0147221103878367
-0.008847102200477725
-0.03173493233005453
0.004804931756761921
0.00846580024966265
-0.009061714416096727
-0.009468562937255556
0.007335480584380745
0.007231761092089399
0.0006589624314804605
0.0010885409247585283
0.013738737245377056
-0.013325646307842127
-0.0060287952163159955
0.004592817328630937
-0.0023914433105083174
0.004367418315988666
-0.0030370577886712764
0.007148553733175089
0.004026215037756814
0.005374125221965583
-0.007028183951265789
-0.005268409659293663
-0.02175086541869887
-1.0522541952965793e-05
0.005670029823501965
-0.014494123243739328
0.015559273995943807
-0.005398447369937748
0.0031940832914055767
-0.01193294730738555
-0.010375432168436997
0.011888190872028958
-0.0020607695581547104
-0.0020579807605151635
0.022118770908232138
0.04256617425401318
-0.0019201695567716392
-0.00813627535624565
0.004506243017442068
0.0008415475410351519
0.0035895583992086024
-0.0032385737310149407
-0.0015883287128511672
-0.0011203185518493895
0.002301572791038962
-0.018178691868092633
0.00675288017731318
-0.0012037161933405617
0.007258672556926503
0.0014075113735334624
0.0011637788077626208
-0.005728252413352992
0.00117465137630036
-0.007530798017554837
-0.004376594372079075
-0.0024394161346690374
0.007411887115240247
-7.239736419468684e-10
-0.003248909538726214
-0.006607420254018055
0.006069231057316159
0.008138276895743927
0.014083501689947212
2.6965156566538953e-08
-0.002204680302517166
0.007649350724706031
0.007394797676782168
-0.006131829912679698
0.0015089644451238876
0.0029559324779045095
0.03377070226660698
0.0030913852174582683
-0.0026315228651821775
-0.010323300598425468
0.017308224219848508
0.0007121210734813945
0.015408996349575736
-0.004392008849310315
0.0014990974591882768
0.006167372094293662
0.0012486748800588205
-0.0047727977812786326
0.005889028563128075
-0.015801644318122563
0.005067958435972906
0.0021501043075609254
0.01232968144270324
0.002394715915302935
0.0033381329179617723
0.002148793816711941
0.007063695619685824
0.002439466557228104
1.2245580970441319e-14
-0.006733504024575155
0.018293641093675123
-0.019417866012341144
0.02176374368485073
0.0023459887957967044
-0.0023490749277887747
-0.02100348697140677
-0.0015762790569907028
-0.014352574634135662
-0.018940760192441706
0.0014609682463480411
-0.004013010094069397
-0.0013020901268487918
-0.018425087894720648
0.005825909179293895
0.008238812806389263
-0.0035429338307150344
0.035972877069874044
0.0031386242556637866
0.01206064693109164
0.010565423921653348
-0.0029368325032534132
0.01621401366610423
-1.0834063282166321e-05
-0.01990056867871132
0.007384246500706957
-0.00915908916636381
0.014163315612139508
0.004734804604008709
0.0009974593934651975
-0.002088079682498886
0.013634195503908417
0.011328090241923335
0.01829633589047588
-0.016943527579139424
-0.03246761193390032
-0.0017820318850504946
-0.0035222109220050144
0.0
0.00753940073653643
-0.003449291674995164
-0.0025789259760557117
-0.0034930881922258902
0.013485708607384189
0.008306694358327621
-0.005413713682388824
-0.0031896939177970657
-5.649783829970984e-06
0.009289122849074299
-0.010476469292013332
-0.00309437358731208
0.012486386493015264
-0.01686310536440005
0.0017044756852184467
-0.007344802189291155
0.00717813696745832
0.017504811690492006
-0.004131161407603456
0.0
-0.002325393539772391
0.009247924132845373
-0.021259970401712968
0.0020772827220263274
0.02159185720856585
0.0025423009802056236
0.0072424490640069054
-0.05306088054202205
-0.010506315067980491
0.0030968483343240716
-0.005023415843210095
-0.003421308224584429
0.011849860444703129
0.009631406780859358
-0.01402997293749158
-0.0009810336387513214
-0.0043311552761178184
0.00965490487918967
0.009490225718246146
-0.00267998754376319
-0.03967035879251801
0.001498381397785561
0.016238535307525684
-0.011224120610857298
-0.010918010156563336
-0.04477511172761277
0.0015577727541535497
0.0017279782806581992
-0.002899716582006881
-0.01338509583845755
-0.0030514062514710536
0.00254168903497867
0.006579583322702264
-0.004591370373157844
0.0025905985145016773
0.008801255534970282
0.0015335616974659074
0.0019801594325864202
-0.010994856645314457
-0.0019766937321236784
0.006095257712759478
0.00633735686698348
-3.741896192441933e-06
-0.01938540867090568
0.006638469082550763
-0.006057858955495963
-0.00713972489755369
-0.027724541940368733
0.01622748208150317
0.009596749519283467
0.004922304672396897
-0.002763300765962609
-0.015594153376549728
-0.006738429072482088
0.00798515915537172
-0.009663645944444089
0.0033143245133653615
0.01120130317494677
0.007718547010782331
-0.003220051360554296
-0.0026345693869036305
-0.003658926091571328
-0.007485823382224408
0.00519601596829768
0.005928726613203942
0.021676303298946473
9.076618584852658e-06
-0.008111788498395573
-0.011447026050762974
0.009691167316662095
-0.012917243978605743
0.0027508276825689727
-0.013962857426624621
0.0059354344721092
-0.014357187624040675
0.02070918836012956
0.0017296878190841357
0.01070850963826796
-0.016887920177014466
-0.006172368190647008
0.004656034017303846
6.215305599220112e-05
0.00022894484664182172
-0.0014721406597565112
0.007695936260064913
0.0025841399825483943
-0.006555342145390386
0.011171620675571337
-0.03365759259412053
-0.016696218326570304
0.011226753912968195
-0.0023580208660529903
-0.0015276036523540653
-0.004781661147367067
-0.005970529858843372
0.0006033650045950707
-0.007907152516978093
0.0034500536070319354
-0.007385152528596069
-0.0011370468479351406
-0.006185777960189246
-0.03512034748413073
0.006964009075124566
0.004064932412799757
0.016387198301959713
-0.004788808459894555
-0.005730717893781054
-0.003268119123122409
0.010058491767626722
-0.0073976268829108365
-0.0118611383417924
0.006467018821458337
-0.005725790468775342
-0.0166156702477465
-0.008794730487917648
0.01208582233134804
-0.007818569400296443
-0.0026607203879989404
0.015472288026417045
0.020446370262972375
0.02421863810997347
-0.0160060153708025
0.009524205857625605
0.001997106050091719
0.003722026932157632
-3.8403715007144816e-10
2.2837686556143647e-05
0.0009054922538121428
-0.0064849435028406085
-0.006457069824533753
0.00934401778571481
0.008463072247567845
0.011683604357004026
-0.0031572605526517744
-0.005021154336042959
0.0005244323347484632
0.005724613101975475
-0.01732362907652861
0.002570039541271533
0.004367463744660146
-0.0036884784021778082
-0.0056168980018505826
0.0024640432418661256
-0.0004093628243497668
0.0023287046944560626
-0.0011072122627677203
-0.003390282732479512
0.002808510228918225
-0.003329071848462685
0.0042272965221717505
0.008218539805290186
0.001702767588485554
0.011751012296257975
0.004514586960936879
-0.021046007843259957
-0.005604770391258414
0.010997792407882241
0.007603477234395405
-0.00886924899821112
0.00817504724119632
-0.0020447642763804182
0.0017681889108398094
0.006636189422208907
0.008120150680769486
0.0029324616324646526
-0.01626980368603245
-0.0034228573605847236
-0.008636166834927399
-0.008268966276524129
0.007920791321892856
-0.00789588955121224
-0.0025691669769882177
-0.020787458918041866
-0.005317424925710228
-0.011357706576563285
0.00236491258729292
-0.009174992710326303
0.001731694863732467
0.002315375408066254
-0.0024559703068609685
0.006080764341463425
-5.248693640648227e-07
0.002011714859274223
-0.013650769155511455
-0.004317335910007479
-0.010344432823420041
-0.004266825397721697
-0.0327217719676731
0.0022339219233680828
0.001371444464973245
0.004091191688896267
0.008535663820941364
-0.011391150858064554
-0.017405093029716708
0.015462482366699754
-0.0071720221913502994
2.425273394796507e-08
0.01648327771192625
0.006105885893288887
0.00881383459603597
0.004290294103621283
-0.014364324894828438
-0.003094350088474757
0.0014291675407753857
-0.003303955349574939
-0.013752847160285521
-2.667559603466778e-05
-0.0017018930948303746
0.011941642295277034
0.0003882194560769544
-0.004439217769296808
-0.011368916575931042
-0.0022095741404207694
0.015113804435703955
-0.007855199279891287
-0.002675745560444651
0.007201214182078162
0.008171074233421291
-0.00230175171492549
0.0048547969140003856
0.005192298420157767
-0.012450345814495991
-0.01620511582338918
-0.002485162795600687
-0.006063043408406197
-6.377466862574233e-07
0.00834541100840008
-0.005524392775365312
-0.015084624411423702
-0.010147645470802692
-0.011110249737897267
0.0063021343723142905
0.022396660930164097
-0.013975525611505635
-0.014021984787474512
0.0021099630470038915
0.0018198338450134866
0.01629236634412373
0.009677559009779646
0.007902973354250047
-0.013628781752900089
-0.006521989296867103
-3.912518835000323e-06
-0.003405095624813684
0.016235306842156322
-1.829304022750814e-06
0.011860082739797303
-0.017636246815346427
-0.0032437739432508357
-0.0056417143458168525
0.004728574552941239
0.007207442363423242
-0.024763542154774488
-0.0024597441647307423
0.005267134933369918
0.02091464893522245
0.00855542475570831
-0.008146278735825487
0.006859901904597686
0.0019412927878992318
0.004681080754333894
-0.005118741445535859
0.013926047600115161
0.0011389148189137031
-0.005158050126412118
-0.004380827334592982
0.0012147572415642045
0.02341813431712134
0.00901622258895335
-2.3068381838019177e-10
-0.00959355812805092
-0.012989336622075676
0.015818605058557703
-0.017907660526852276
0.02223051027868545
0.002550689465499747
0.008178344252885017
-0.00717114487344696
-0.01952670566708981
-0.008135725677217607
-0.014935688123556543
-0.0032704505596187284
0.0035171894972845334
0.014451549769897962
0.005075670549276475
-0.019364601201538482
0.005928726613203942
0.018747773422882863
-0.007459194729324838
-0.014098127629233723
0.0018499605355011784
0.0013377012521657047
0.017989373111491097
-0.0028990678930083374
-1.250713944609498e-06
0.0002792698296905278
-0.008581498937940722
0.000662406883557338
0.00894939332587879
-0.0017271318084862534
-0.009924041417925538
0.0024127261989794297
-0.002556859360031081
-9.063285009033175e-06
0.0044524650028883025
-0.012093729675825612
-1.06998606041547e-06
0.013622306265375262
0.008016445478340304
0.003054169309852224
0.009783634712256928
0.0064020152564829985
-0.005005267004095915
0.006557456610204966
-7.301156660509502e-05
0.007015141057349046
-0.004539459232493362
0.006324744502244106
0.014628070608919377
0.006197016178757546
0.011044641653514488
0.008245701468840894
0.001027809859784497
0.0025549287533947716
-0.01618608032071364
-0.002420015615305952
-0.005767412180457677
0.0058060690015530655
0.0
0.007882964686075078
0.0017780223091885764
0.010118864136731014
-0.012113137538961025
-0.004288551964882819
-0.007936289965572232
-0.005655948397238777
0.01774624935607621
0.011692815235207649
0.011116901990661768
-0.002002811759577079
0.024076660415835973
0.014266226728387961
0.00795097865998642
-0.005888609596960365
-0.0035616352626025795
0.0015588008831551431
-0.015874967214834636
0.013822280758342626
0.015439944634550177
0.015701002040914423
0.0001180505693483048
-0.010788132372928163
-0.03220039423807737
0.02055689166829393
-0.017198963712728537
-0.002270940711267496
-0.006207513565801964
-0.005922979252317047
0.021829356050324013
0.013055430356718172
0.0017588605440076001
0.0013723796923633038
-0.017297393310848556
0.011932950819750822
0.003407877275214269
-0.005450350160332269
-0.02486273960308265
0.010760678605601764
0.005064656601180363
-0.014607615253202401
-0.003105424216060883
0.01046879957687759
0.021055494298871397
0.0025270780711853396
-0.005514423798111737
-0.006616512863013945
0.00352710928340421
0.0034118301614135906
0.01489305022721772
0.00209981470341146
-0.00970827686728363
0.00844323671700444
-0.005669887800405582
-0.002620760152270688
-0.011611389472646574
-0.005426985570773624
4.520618126817496e-05
-0.009646639861281772
-0.007510535648872257
-0.005384443550389174
0.013107216880806618
-0.005372545830788642
0.002768947552485062
0.01586987733758218
-0.0027334227832737645
-0.014973554742721397
-0.000964944249976083
0.0017712191725934357
-0.004842805581471033
-0.01600577154388555
0.006240790505726185
-0.0170028171239227
0.031621740237417886
0.007397742834758455
-0.003290063294073064
-7.599805358551698e-05
0.010074041808440274
0.020595420274652797
-0.0030948935837724107
-0.006366892064202942
-0.006025277899144991
-0.0338727971516373
0.011364129822634402
-0.001270503585337293
0.001903661331154427
0.0038977449594042738
0.03484465910994889
-1.3002666197733394e-06
0.005267296423138367
0.008168722023074773
