0.007645245491791306
0.9042614159447551
0.023900856534105452
-0.037504143682337204
-0.08964092788509012
0.005841777622111548
0.1279192275549864
-0.2524681311585989
0.06738873866357313
-0.0850347189361649
0.10531187043079618
-0.10243253884152542
-0.13491169411467924
0.11425595600821892
-0.41594186519659143
-0.21049287014482596
0.3081226486990587
0.021872869991372088
-0.03184723968119425
0.22982167690956828
0.351170690492955
-0.27539302519862124
-0.22768162125279529
-0.11575779384315253
-0.028653734374481644
-0.26229358356431565
-0.01117085667812983
0.05249750660104018
0.04477944929037742
0.009793451673825984
0.1295399596397679
0.05554390816169525
0.3015009370950246
-0.10948701991529967
-0.01565786788371443
-0.031883436091444374
-0.48809156698587963
0.03925914023186137
-0.2201587538005206
0.19399905425498692
1.043754805469659
-0.08194547325399927
-0.023685922537240386
0.3325286224741842
-0.03582503530662904
-0.7097414533711679
-0.0022443581261988397
0.10587293233992712
0.2600804316627229
0.04272279009707126
0.5328829713760233
0.15318952449585774
-0.07568319750549765
-0.054201141612743656
0.059074930138502214
0.021012736974823483
-0.017707322312612052
-0.2344163394240677
-0.053263762839241745
-0.07895900183545541
-0.0006970399683934526
0.2362424804054244
-0.042923880506490625
0.0753406660385554
-0.11675804618857312
0.14499956216162488
-0.0060246145733125886
0.014027039417502945
-0.33522894381746815
0.4959697889106591
-0.09947601243741652
-0.2672508607081042
-0.17590803205722377
-0.1355049413848871
0.37318105145699293
-0.006960689657488199
-0.042887948150896485
0.09761785417187326
-0.014109643160825065
0.017245617727841434
-0.08012019166227796
0.04006259287659977
-0.10032754900860545
0.5360807285812476
0.24412610877343463
-0.30542211133940717
-0.49111726740513467
0.010619181649238954
0.4634633847367506
0.37698616775060645
-0.016008261817118074
0.05321508725079016
-0.12489351785389483
-0.01656720876311998
0.18923989801546262
0.004682027952516927
-0.0005187792120480496
-0.09018650366622719
-0.03731688761508148
0.09460892284583439
-0.284890479803099
-0.09764085814430751
-0.021379518419670333
-1.0019263352105894
-0.0051570387134915185
0.09480887560906742
-0.05567805497839306
0.38982871090765364
0.0677377890122094
0.31964501822797103
0.0034537992194775117
-0.3916441520226326
-0.13584251373127118
-0.019945791473261594
0.28625025622470035
0.05012217438275
-0.9535907379580362
0.2159253450208883
0.5525180586444791
0.30005334904576864
-0.20465588901958554
0.14802344442804122
0.046340953941474756
-0.05613710931276507
1.2253070125037784
-0.2511225448222457
-0.0017062047865564435
0.09515183509895397
-0.04883924409803283
0.010959879183242998
-0.027734600617981536
-0.023690617251145865
-0.04541298225509284
-0.4110761732788078
-0.0431276259251973
0.012641582699741983
0.0010102074050716884
-0.12210152622217092
0.07732498990857459
0.14383946753576726
0.011252680207133568
-0.1948785819202395
-0.03571802919967856
0.12890218537808334
0.28681551372262326
-0.033294335348967925
-0.09470212707454119
0.15168585441181065
0.10478704288410945
-0.2582633542049152
-0.0017217624629074625
-0.01703598021987025
-0.017386791748184954
-0.6703858887187787
0.21748909011538892
0.13354370421656422
-0.08634785967379902
-0.100328397196961
-0.03486921318095538
0.17756387197865328
0.009509663980968044
-0.0775361272382143
-0.168090487764489
0.058607275438790074
0.363641447575093
-0.1939885698562187
-0.0226550026990118
-0.04267763608261181
-0.04406698127576012
0.14259044037230115
-0.007955447980628036
-0.18946905724196367
0.01722762185153866
-0.028735214541441553
-0.13675720042001832
-0.4238683906341388
-0.0014209707934478484
-0.014903659097551288
-0.33045044993331935
0.5676270781037174
0.041490197981939904
0.005448116149175665
0.043811000854675
0.1230704548362047
0.04941908173870443
0.04205131660726846
-0.13403221557066372
-0.023589765792907055
0.21908713776742209
-0.050787183674769275
0.018080094550185388
-0.20261318852374688
-0.07252584611368101
-0.014766936938894649
0.27031331693914656
0.0897719549632309
-0.11862876910607283
0.7365181037020371
0.31962892404261994
0.10892475479503125
0.14091325061728802
-0.013146018222606056
-0.15668176174748863
-0.17437557341065257
0.2759103623043749
-0.03760197634315892
-0.019548810110671087
-0.7092362920325685
-0.15466618677344765
-0.019844023947453972
0.17576706586603316
0.21043624666941999
0.046223570515738714
-0.05408034018583893
-0.4705508067149666
0.12161893482691578
0.06122057034317566
0.04736617050335939
-0.034299986317066156
0.13971981311056808
0.03484302604835972
0.0464978572418978
0.1888234469955942
0.12642020512982388
0.28268289385137746
-0.15547780107666134
0.28240330254565865
0.07574850852087303
0.7019714537733039
-0.20379896306715806
0.04290787372283747
-0.006061157922656904
0.03355032604482852
-0.1066124796664879
-0.024025566253219253
-0.004781131123305959
0.05164854174399479
0.015323820019088994
0.11076351239951823
-0.19545504890364815
-0.002022678435989633
-0.15450898328185297
0.561732056701587
0.024815725105396536
0.2151568782805979
-0.2003285621182608
-0.28221680494907514
-0.061173449275172334
0.059768609783471066
-0.016750380422951523
-0.07779985478063772
0.2978726879346094
-0.14065247059200525
0.11679622648191372
-0.09304332698425784
-0.1059487549086652
-0.1119108112012334
-0.3713300255908581
-0.003743177266263504
-0.12450250119075049
-0.003032324400027035
0.224760029063353
-0.005122668487473968
0.10703067476592552
0.0014814490740052248
0.13787148883274156
-0.16235687250552097
0.08055638540517074
-0.11662045582951898
-0.024829697032484374
-0.9354636396845163
-0.21028886018481702
0.5838306280861848
-0.5585977704415417
0.08338756666905109
0.007035302089669434
-0.013782219225139157
0.012308126657670974
0.013068385340538146
-0.04647027113259957
-0.012280400130239113
-0.3045446850221333
0.5170638374362455
-0.031023314348933313
0.05819322669000036
-0.11951503954331609
-0.0065495057306896925
-0.010240539355034066
-0.20082376949907618
0.043373991461749944
0.09343512596609928
0.04531859546884795
-0.9329941733975988
-0.1374299408751902
-0.17720744305794572
-0.08267102644129296
-0.2735099446294279
-0.04099850522154843
0.20123657327166955
-0.15126826581010888
-0.23141519470889668
0.11073721212906017
-0.34646422650968406
-0.015394540501384371
-0.07123387561445213
0.3166669048427306
-0.027167751046800755
0.06752985320054199
-0.10542967538269991
0.01315667499631252
0.055376065935897924
0.8999589506220046
-0.028583928193894978
0.09346298707637106
-0.13229037091922216
0.011838374698062867
-0.2741402289186964
0.10789954597305741
-0.04304272220993634
-0.014331978111311951
-0.019701818719330008
0.06518588906647908
0.008145733659251243
-0.007380381050601993
-0.03330091814105217
-0.08977977331079454
0.025567518510693943
-0.2405025495454777
0.02737440544337092
-0.06770548797288882
-0.27413372291538335
-0.01366557760729449
0.07745322167349948
-0.21279139481391712
-0.02514251546761917
-0.22577088812803114
-0.0018892919481602773
0.014231091099402635
-0.06739086738582933
0.36473624980357183
-0.12274743956753235
1.0114849155555108
-0.06776713752990153
-0.11449446135358333
-0.06601295905897826
-0.12255098893881713
-0.02762253614969959
0.1694266697262921
0.08311918873863161
-0.15179797175899912
-0.31138879388743995
-0.03904887705895186
-0.03374734086793746
0.03591988774889268
0.020360621041547563
-0.4296357888730188
-0.5919347257474126
-0.03951190670006608
0.33328662450483504
-0.6830500181789853
0.2788527643067686
-0.02041697569271549
-0.09089652186768483
-0.041646612031506054
-0.1016501573500945
-0.060269378930986696
0.0243158066591728
-0.05747850334386026
-0.2528618538544261
0.0008313982407014793
0.06666164632399772
0.14041754232633186
-0.01395795818571734
0.035923109892234545
-0.046672562168630874
-0.040837145364123015
0.02325702013219829
-0.01886969494394201
0.13740217992038808
-0.025663762947316024
0.0033799351073397926
0.014372570198482523
-0.06644898121914834
0.11148396835204955
-0.10362372175100568
-0.06782908495483947
0.09253496426648497
0.05611992806331256
-0.11599425213459044
0.007603677155552023
0.10477779985408112
-0.020093432001624868
0.001497310563647211
-0.5217145140756765
-0.019145758500935788
-0.018211640152785143
-0.008189507732561042
-0.0015307465916593714
-0.002445445682471342
-0.3596982445592339
-0.08116595864454379
-0.1100156004202699
-0.0004968874983984208
-0.19296658895176833
-0.0029235318259455754
-0.1953248982533741
0.3979151431784872
0.05932832916031047
0.018960207904844473
-0.37043231010938177
-0.27248639053940177
-0.08665803672519179
-0.053889081033347906
-0.19050978021194978
0.11765589388202058
0.005560408826643049
0.06159314010966767
-0.01891946458428132
-0.37711856030508967
-0.0420575349054548
0.18413996799090568
0.004423598711159096
-0.05982752361936022
0.1119931077540757
0.16575202898788072
-0.06808753051602313
-0.27150709846572324
0.01431624128716692
-0.1319512401830339
-0.0009458487278530761
-0.14684314933137
-0.04165789235183072
0.03454548742594142
-0.015402214939497253
-0.026339953012702276
-0.07665229623440523
-0.2288414693396371
-0.2512148612249314
0.16102108213275643
-0.11652013358477269
-0.011725203254375401
0.07048509381472229
-0.339421105317103
-0.2015104099189607
-0.014973711570478396
-0.08224592170819639
-0.30279708340975525
-0.04420715760010105
-0.06183653562448201
-0.21977490552367837
0.40959786021774597
-0.008658727634713521
-0.1154482959133457
-0.3541847645331029
-0.054657534788257134
-0.004497073709679805
0.37232267570284927
-0.03343440221265494
-0.039920121462376196
0.5378281717414628
-0.09601610996819344
-0.0030030222146095967
-0.06047953422108611
0.0068177296882999654
0.9182355196754926
0.03278215839965657
0.006220456718767907
0.020175778084519595
0.18338163036837235
0.5058050564950513
-0.0152985625076419
0.03805278824537607
-0.3126127574372793
0.3572062068434766
0.2255535346589451
-0.09691312687016893
-0.026087546522841325
-0.0111256980408924
-0.18316620129106626
0.11449302720824336
0.030919545756775947
-0.06513179298959842
-0.15925303352658016
-0.46615157176984684
0.11188912008877373
0.18073747528323172
-0.16125894382194356
-0.0038594530541294007
-0.013570915969156456
-0.04922257868097294
-0.0014023910794217853
-0.09415092743291273
-0.1750515342217763
-0.07493058612181953
-0.10233653639375692
-0.1978967895427894
-0.07376851842874049
0.03559884331185921
-0.2773996551870473
0.2316808550374786
0.4819722107042015
-0.09033610469701779
0.1771662708965248
-0.07160641523944371
-0.3472111151825556
-0.0388131772631208
-0.04522830945099694
0.16735468899054814
0.43037410630318906
-0.001055763126096111
-0.034594956416893245
-0.0011243254194910918
-0.1654920945778117
0.11083188079087457
0.68218827875516
0.8650897075568685
0.09035684034088262
0.01997467873022112
0.03209743343516482
-0.15689990649753
-0.01820829204179587
0.0756197394569466
-0.21724868581539888
0.17743799209668118
-0.07213382410673548
-0.3964249589608669
0.03943747297605829
0.07879613741183512
-0.023381275781532665
0.01495950399472453
-0.06922696782228434
-0.09075826278573264
0.2458520322716631
-0.10979499564174615
0.04166366188545979
-0.06315748588114951
-0.165075612696805
-0.10595263360397356
1.3632072618561684
0.9099683813685714
-0.05152788911148198
-0.009100077928344325
-0.1060910288788846
-0.15900592181957093
-0.1397171736440596
-0.17984943118465443
0.27996935771396747
-0.10637933317765277
0.010609269627794923
0.009872831784717456
0.03055101143122264
-0.09857131490267325
0.1825527032501851
-0.07611503322345697
0.2079169626829672
0.36728570035269215
0.07685750327099887
-0.04947398471712038
0.059528448490954844
0.09524366949132063
0.008063731768879595
-0.14272191310581783
0.029690608614213545
0.010845428786653469
-0.11502040904658273
-0.07096988594975415
-0.0037467630455614597
-0.34425153181046675
-0.1828825306263775
-0.6475347435457988
0.04301089834854942
-0.28267211336109466
-0.01908286606295033
-0.31132039619250745
-0.010439967561571485
0.39954700398056514
0.14494962172838727
0.1803114182620725
-0.11773087285743204
0.047525618348524395
-0.0911911821786855
-0.10181411268713482
-0.02487545234608127
-0.026208373493958468
0.01980505338491255
-0.0369695374876139
-0.13190218657351666
0.11520381367489156
-0.01864490273598546
-0.08959628312359018
-0.1524717340752066
0.31214397564863877
0.08657827401098778
-0.286139818547703
0.10054578279897369
0.28109162889625045
0.001866149298666413
0.11604096749233836
1.3451856408279108
-0.029388736906691526
1.716450223217231
-0.02722269427975454
-0.028831662462029554
0.17634682280026442
-0.0032694718730995856
-0.06384817617242515
1.2672185606649067
0.2551873146845138
-0.08657539879173677
-0.048880049808917886
0.35623855300024315
-0.008282081897122881
0.12043304062755603
0.011440556907431934
0.5996122517711729
0.06457038988996326
-0.000425549111411489
0.0023522994926802976
-0.16008529706365263
-0.0043711034569678155
0.5198138768369097
-0.3521602217834776
0.008141592221194089
0.025463783176512912
-0.04011793190261664
0.1604646978427775
0.02083603843139844
0.047889528958901445
-0.7490849725676696
0.005600927145865236
0.5512343151834865
-0.02764536580683741
-0.14297460488097438
-0.21251097687392856
-0.08925285485772237
0.12162744645859125
-0.25283034396283505
-0.003590156848039551
-0.05835259467569677
0.02738042588483382
0.938512323831076
-0.03443348498810966
-0.006969502926217926
-0.0009509894357640915
-0.012321903290302008
-0.03344682733196953
-0.0019575998682678794
-0.023746466915592637
-0.2313359478534683
0.20000172000235109
-0.044836919276965814
-0.4928185516251215
0.06098749950656731
0.0033476426386784388
-0.12087204404220227
-0.08243243319798074
0.12830447038557402
-0.04635261700323159
0.39163114705913327
-0.016796236684598856
-0.041685462228508545
-0.06020858484793726
0.10256511319598892
0.05953688061008164
0.04960999004009936
1.1653671848939247
-0.1640805095699729
0.23328198358150534
-0.07049783299176005
0.19763806340439782
0.04212749165640604
-0.0481306189438875
-0.03104914770622506
0.1417789412341671
-0.0007611008072726022
-0.04634111190336782
-0.1124719001515577
-0.30787779484552474
0.12410026861267325
0.016738756039938487
-0.007063479812675345
0.05053402042696953
-0.002799683261503913
-0.023895623554564586
-0.0657990489928858
-0.005771095637346701
-0.7725368734705501
0.08717483922313789
-0.7455232393607272
-0.05161812802990474
0.48116325528904724
-0.23900041762729504
-0.04477040114573458
-0.010513673667471597
-0.003119632635181857
0.06662753702576604
-0.6366591993312463
-0.2071352663165783
-0.024980695931213635
-0.087410615211482
0.12462163380245134
0.08744920946590089
-0.010331873605002656
-0.15435193340420633
-0.023608647391746944
0.14598144170846836
-0.014016913767131349
-0.0036985943044650555
0.00960717622304905
-0.0552427377684759
-0.22059703329296274
-0.44658508915801354
0.032087230475835365
-0.047071519027192935
0.6196966236534026
0.01691466118485829
-0.022892811363020644
-0.037258448615606524
-0.16546750338683577
0.14711597071154128
-0.5692924058754173
-0.19481373393770746
-0.14959298216153544
0.10763512721707195
-0.1510727761464944
0.004709927253043686
-0.20272237438462842
-0.1573303144918169
-0.18836023748085345
0.13927064299420994
-0.17643896353466373
0.705511349105685
0.5715799309114434
0.01946832750964475
0.03564524291389324
-0.0009913418199414058
0.25148529110645523
0.05776988703575521
-0.011497064588853481
-0.11618583699833647
0.0069104617562748775
-0.06734235565438539
-0.03278280799133448
-0.006780524254448549
0.5401160846516604
0.21781614790657766
0.07872174331811264
-0.031711398637730426
-0.01374819409234767
0.24049353493696055
-0.02379836518935195
0.0016862997339005732
0.03286817929500884
-0.0361761381684536
-0.1744005081583677
-0.026881088847889815
-0.039729652586134916
0.05082905633030463
0.19213722435779348
0.054541988591330394
-0.05251363154552447
-0.2515951620729029
-0.007828710011858822
-0.006815097793871274
0.7418573147040597
-0.605927605468676
-0.150232654001934
-0.006687661854509873
-0.068130987340866
-0.22035049168290852
-0.0079931758738484
0.10353276922276748
-0.06323231316884019
0.0012401506326362452
-0.3632155407917711
0.10455818307341028
0.006273048492715618
0.2220049375880829
-0.17298213506547166
-0.35423672431999687
-0.12888432773603986
-0.0013801208789690573
-0.36282865732792674
-1.913082300647973
-0.19419226925139588
-0.09084290937223435
0.06457284577703222
0.017125037534073618
-0.7393833248545462
0.05789231288949108
-0.11398124877843717
0.24379090425607203
-0.05307245524876478
-0.1087075662211358
0.02672190472111683
-0.08786125480113115
-0.09588626871419335
0.5794444618800918
-0.1639743281367318
-0.1316078365937711
-0.33632716201054585
-0.06750907365145949
0.047258948650703674
-0.015102025510894842
-0.061922741364499
-0.8666155057411324
-0.11833453836410482
-0.6517183381613983
0.05860644401302406
-0.014409957157255241
-0.03758971624046309
-0.027881449311890318
-0.12967620283036835
-0.1271698676615818
-0.4998368399686753
-0.251317892777517
-0.044073491028047994
-0.11885334043517234
-0.263987653146437
0.11454551772311113
-0.1100154571095914
-0.23398290143668202
0.19500102972872813
0.3051512531593822
-0.26574199358784195
-0.11240394251247103
-0.40256068727370553
-0.11072443339755744
-0.21653891641718132
0.04925205616033874
0.0027467043911296187
0.05909580087815757
-0.003153374314316651
0.002308285562465198
-0.025984499921200943
-0.006096652205098752
0.26918667277175284
0.0866062136142529
0.6411980362412387
-0.01851930957255981
-0.2789953277540213
-0.07000785316639789
-0.033646554287436556
0.01472134087078479
0.05385018852022761
-0.1961639673216686
-0.05605250659490346
-0.22182420849826306
-0.030993806269652563
-0.13762232331892393
-0.10920388879008074
-0.05731238231326122
-0.3222708406712915
1.793258647238714
0.113740062467469
0.06588528119035308
-0.10715185996014881
-0.04595889145060028
0.10350442397888879
-0.14618811264226986
0.6552073066738796
0.14425300653252568
-0.42031719777044946
-0.00848035458350171
-0.6116592548121611
0.17962956452457532
0.09474021033207747
-0.05176480468723036
-0.1481966414193714
-0.05446651389345971
-0.003529357284821425
-0.037231672176999527
0.46421978658670165
-0.1272270444073685
-0.018769816332229072
-0.006067162593626816
-0.43784172874477467
-0.00020402000308231857
-0.03167240409188282
-0.04374471575982781
-0.004821566297762474
0.986647621065022
0.12288358978237422
-0.007797428623779877
0.03315965831679722
-0.13916883977038721
0.03840686122895043
-0.006088831758490109
-0.0401230572098413
0.6115143378759527
-0.15826900301137087
0.0883312070851983
0.1043596435082955
0.7647415592479411
-0.08593174824847793
-0.0029873838825582137
0.21592202172268019
-0.002336962816609754
-0.14213834129037406
-0.1600979046132261
-0.03312565979294565
-0.06956161859287063
-0.20490031392596245
-0.0071129399700189475
0.08981442458008497
-0.22614885085348607
0.24607348715074637
0.023846106994676517
-0.3750999226234247
-0.1702094320225121
0.002269767050131228
-0.3131202851950231
-0.01642787521441927
-0.06362560405861252
-0.008745027107207164
0.2532291668483297
-0.38990704188301645
-0.030695074320065723
0.15867534017494817
-0.1849370309119917
0.016000203212865518
0.19772180919193966
0.11031087892501684
-0.05427093918956882
-0.14220954990294407
0.01907974004541171
0.012939513166514972
0.9316203467541962
0.03248099721688404
0.2571578590808193
-0.0606676441081694
0.0023451761122651443
-0.18874099068624275
0.18172541697711034
-0.18536555239055577
0.013296325675192936
-0.0832762484049366
0.030185695453894337
-0.00854598615107429
0.12928414315348358
-0.21537120864978565
-0.2588753862210097
-0.007257623987136885
0.11341032963452052
-0.0511306211027148
0.322096308517454
-0.30369482126655756
-0.05342329191748753
0.06410329618394012
0.43999538147554734
0.00564332551575953
0.0293123646710133
-0.14903569678403203
0.00988434210544659
-0.025842048706841803
-0.11281096463242823
-0.028537159958484253
-0.1002495168370352
-1.1387758604392482
-0.013139545981206976
-0.09517991058391265
-0.014792442696562425
-0.2605752400912589
0.09268450441975494
-0.040468816458163935
0.06957515652964527
0.03216838330962047
-0.31319429219445477
0.10670692115625657
0.23525703415642304
-0.12121521325110268
0.8457581286903834
0.025070152386721004
-1.2415453729083572
0.048646314629924595
-0.36473479020437843
-0.024776234503571408
0.03273319754909604
-0.0066322979712229654
0.011431296592645553
-0.0029904614551649568
-0.029035749140397412
-0.056753709811969213
0.023633569135504212
-0.1946521079459606
-0.06099156191321104
-0.46546900326155366
-0.11665687385708086
-0.14043201494784116
-0.17248886381653503
1.026664743256122
-0.15768318586689414
-0.008505212819904741
0.21818218596346664
-0.06378259771685467
0.0017667057537521672
-0.029984183491180733
-0.06193007221209452
0.014556941056923574
-0.06844394710383879
