-0.03450193500447028
-0.007585845916171351
0.2516918649214465
0.2146857274805932
-0.01017824978418235
0.3261205033548259
-0.17909097123376985
-0.07678980045766493
-0.5308288025291371
0.060068840731560075
-0.11019461094140864
-0.3240692665019713
0.18751763506773378
-0.4724770748913432
0.024088088155038115
-0.5726370842058718
0.2679276033593758
-0.0024044699182103856
-0.058993268476574316
-0.6337127272383763
0.35713726638373827
0.07880565787934309
0.14791749036958143
-0.23188257115969435
0.12522652157067496
0.1265739513047967
0.2815038803875143
0.04312459225530998
-0.14434413537994428
-0.006140561166932251
-0.0760331234568625
0.07085471509870239
0.45649929443671156
-0.1896117415212542
0.18371811245368158
-0.1776059499515562
-0.17319957567661293
0.18887832366054785
-0.011060489118497803
-0.10787419260118665
-0.006291501816528619
-0.03894716005116386
0.31276497224874666
0.023844538367996666
-0.018922419303594763
0.09293386129861116
-0.18459729934715519
-0.47386926586573175
0.3410793771686236
-0.08870567939638163
-0.015237718552930874
0.1680111620513843
0.053143928586134696
0.11475328419397968
0.020374920263795625
0.09240452140678795
-0.28678979410386257
0.0407623400527032
-0.19614497094351654
0.2456633261932806
-0.1430227013535245
0.3005923807147628
-0.0945872111924802
-0.05339347604907663
-0.009591349235779485
-0.2958233643384157
0.7592775592401427
0.20629957681772682
0.14153621192888108
0.010736474585696007
0.13739820752822476
-0.001009894513358029
-0.08880014458537239
0.08131516139323272
0.031547930259149745
0.46721226338499733
-0.074376547312374
-0.289788078908647
-0.5231154068248748
-0.35248130050411264
0.039091196097047774
0.059869647015130145
-0.4222001644890928
-0.17260102191971916
-0.09539433999761245
0.29578637206491015
0.2563177670952481
0.04277098264127649
0.2138744987491726
-0.34975444383044946
-0.10806139808111648
0.011090566954547805
0.013686917479284574
-0.08572689854069683
0.23896515835959975
-0.3852963454170495
0.005689509760352886
0.19123155206971193
0.5212299515129829
-0.10306946525275697
-0.0346413075533768
0.04058966250118333
-0.0009193044797404347
0.0005355114738385811
0.16523600627190346
0.18611912373290787
0.009928987391488444
-0.16418746784205154
0.47232532802055066
-0.1455337126788516
0.7507235277888289
-0.1945211739698761
-0.38367171308921205
0.0019492653232665157
0.301830970997234
-0.4050884110020499
0.01621992935146383
0.2346247747589382
-0.0464469600110638
0.29707918035565734
0.00040202478448379857
0.1398272285285933
-0.32678559282742403
-0.10348797433249911
0.02059832606869349
0.23010145023248746
-0.034471955072154906
0.09407428497054683
-0.17870279272766706
5.972308080852724e-15
-0.005220088551045989
-0.8073774904954552
0.043014634264907835
-0.015453052151242675
-0.006478873467269101
-0.12283027398489448
-0.1256565009192797
-0.0884640612059263
0.09937300363020365
0.20311030290452287
-0.18349033761951933
0.22738420209678784
0.1094203031278485
-0.19406022782408294
0.3342031708068199
0.10764719378779611
-0.09123061683028436
-0.06706854716711076
-0.028279904652590993
-0.3348814555390203
1.0214571721009447
0.3191797920034163
-0.0014062696748816388
-0.48129843518295123
0.4912762003112416
0.07273231206072354
8.530909354606193e-10
-0.32514928759615946
-0.020168568805067365
-0.012443387245416902
-0.14652490633720394
-0.41532126769401195
0.033186869780030236
-0.4758204158379615
-0.2305037453863765
-0.06280973303505905
0.03329334702495247
0.023844538367996666
0.02481859325806117
-0.27344706084396775
-0.36134043896859336
0.32954566618656855
-0.27727710040301845
0.0005883081781543318
-0.7610074043714689
0.2862994746593202
-0.09433086798692839
2.1279874252571198e-14
-0.14460248023651973
0.5808072863892468
-0.03708561900301269
1.4450093020420963e-11
-0.13075340195944232
-0.33581207661375556
-8.674194437153365e-13
-0.1945575959923331
-0.446429081685951
0.1283600523835583
-0.24463454237283264
-0.03087059176867483
0.11619080485308181
-0.10970836038519854
0.3458244297477703
0.06954056568715578
-0.6027907863238797
-0.0787336520023158
0.5513941586996685
0.2892780340182333
0.02978121852170574
-0.5514506470067008
-0.6196951296764306
-0.05485722653043809
-0.17887371904700927
0.06014239562157381
0.020391638328840347
-0.06079766651734642
-0.19097140575284055
-0.183330427709104
0.06785417812215266
-0.4794596426700833
0.10213730037359425
-0.05048877690260657
-0.014454285244597609
-0.30541634696286246
-1.2115859679421799
0.2936718809928463
0.83624182146828
0.4201497661218517
0.447251430406558
-0.013948736984220696
0.1311636387228222
0.08705255614956094
-0.14734704132759646
-0.12343143759252201
-0.08153262607663346
0.06881049128035881
0.6541190915649315
-0.3646730639322961
-0.056704822696340425
0.3427845375198166
0.014714534983294733
0.051325618673285674
0.4630976229146612
0.006645494387367924
-0.17870279272766704
0.4877993462410207
-0.04463548556931381
0.2320058101693944
-0.46721275624044867
-0.17283258178704758
-0.0020852380779179105
-0.026821054650670337
0.009559043276933465
-0.018914915227860016
-0.36492385093201635
-0.12129784062757298
0.6922317830767006
-0.5165063170043135
0.09851963279580053
-0.3998112886713859
-0.021208292741671842
0.09635574556349104
-0.6146270316491366
-0.2714678500569893
-0.030526039958095406
0.020023159235033523
-0.13907269743584902
0.17010964303228956
0.017526539595204744
-0.3179300823327659
-0.20627024655911091
0.21336337862885274
0.3603492056338588
-0.010491414240964357
0.12677457026278602
-0.4556979706910418
-0.003181920233884272
0.6011639294390924
0.10507766259965923
0.024775852234417316
0.07434229641081869
0.09843538223785313
-0.1958038833346982
-0.7736853207802205
-0.1737446747944441
0.44280588685721867
0.27541638359935405
1.3575383730633286
-0.40071329605055916
-0.09850266622258122
0.10526689465706149
0.44854122879268987
-0.040639278365168646
0.006335172779610857
-0.16856575809875704
0.04482503129822577
-0.11758671348044718
-0.094651247183325
-0.1700812023761738
0.9442789739408859
-0.021644129609615103
-0.001166733416954943
0.1900832975840736
-0.12410662407523926
0.10739884135983463
-0.3233317028214482
-1.6376236897445102e-11
-0.3712489739831499
-0.11523178079008016
-0.0929506438860487
-0.2514390817389635
-0.007230346581828244
-0.6285398018781854
0.14037376769727275
-0.038906755980088505
-0.04260150591821161
0.017335025070159802
-0.13744664738007156
-0.23584548802513203
-0.11002901633622972
0.1467062899665817
0.13479255057759226
0.0013448964957687313
0.42171252918433
0.3788339016630318
-0.005364218323923035
-0.026864793925478962
0.15246856488509283
0.49179408596170143
-0.1763797245462699
0.33856929116062917
-0.0627601089807243
0.08830989260489898
-0.1457747413411832
-0.34749177199194115
0.0480884645188
-0.07194602148280183
0.3572595759262913
0.24738281128937123
-0.02984669323346097
0.0192788723036032
0.244584832325925
-0.21015425788563513
-0.0014638381627137638
-0.15632343560561962
-0.24892531725530317
-0.11748558507255855
1.0286079278002698
-0.4565776126111689
-0.0018524459218540522
-0.3166314742661431
0.047228000646652536
-0.2476336148125188
0.1780237466691893
-0.07044476378101501
0.45201165518261066
0.11952110353256583
3.582787680864965e-11
0.14638152899014953
-0.18502886371449354
-0.011356834041856332
0.23243953161432065
0.008791835866775372
0.3791135093491334
1.0831408197022379
-0.010292982455114886
-0.36998411644192924
-0.3218153037075624
-0.002549110873919156
-0.367316005781023
-0.7197229064216424
0.0041981333860401275
0.42457135829868053
-0.054947592214150506
1.212649931666302e-11
0.6494637402040198
0.5957641349643185
-0.03752818139206294
0.14290650592600715
0.11611486740995075
-0.12525914693709572
-0.5796900540171834
-0.08050278692849845
0.09080814287075979
-0.06052396265767218
0.011348786124063244
-0.22852161504439455
-0.002130575031621946
-0.17887371904700927
0.27575136417538687
0.3714951718903227
0.05471166315829042
-0.006354169071346489
-8.089166016764503e-05
-0.0012583355436077788
0.17111141955475434
0.7016935914460117
0.007933273793167588
-0.08629748780808436
0.5572384831579651
-0.025012678502841845
-0.43019701176305514
-0.13559873458556038
-0.044655185630120796
-0.0574007611031296
3.718113466773531e-14
0.09903673957476274
0.2455198760514197
-0.4445213887682049
-0.041119938912997006
0.42169818768955397
-0.20396955442683984
-0.13646282746671942
-0.06539630029900201
-0.0009311915040098414
0.03265939073672607
0.32426941564857503
-0.12114255902022561
0.018566799885154195
-0.4185600861493584
1.3189049007155826
0.0037221002259293424
0.07262258566010173
0.6022335807407129
-0.02833137031798377
0.12039136754729349
-0.31726417516815314
0.11296393258704672
-0.4501851524013947
0.29310859898918146
0.0738308925750156
0.0137789775021411
0.06575905998680988
-0.47746468878180925
-0.4616142311693707
-0.08987653856354101
0.5245330968581294
-0.007453996896200023
-0.23932902647064
-0.30066102269814293
0.2646051260692727
0.15707977288839484
-0.5859944839074526
-0.26311548010149877
-0.12240125292430759
-0.002697184173655235
0.27545867753860387
0.5367925963608089
-0.00024828543310149027
0.050235648305424825
0.3194282817560192
-0.749996015607261
0.4767409194299915
-0.16522657486934683
0.3988412412975642
-0.08552961434962361
-0.09518307523297498
-0.22462742993196147
0.572643938328173
0.206843377545407
0.019737356244010153
-0.11454517027769046
0.05218212041574492
-0.3819693550766989
-0.12176173480772129
-0.01793231993022034
-0.2170528520247432
-0.2331826255648552
-4.7386398667015744e-09
0.050910206527060464
0.036478529803614705
-0.24324351129072172
0.00046169564081913173
-0.061036631539562396
0.16090532905505575
0.024244045385883116
0.23332151959885516
-0.0976988892562936
-0.0030899109592464964
0.014193136071095621
0.18147751689658528
0.39920355899918386
0.018457775698835072
-0.16566485732898842
-0.06808502046895583
-0.48936890787128234
-0.020223584666949686
-0.24197356510577267
-0.011186012010355214
0.26085761170996613
-0.028835792630331637
-0.10326683489841382
-0.49358722023847107
0.010524186353598667
-0.26225173534774954
0.26944229165261296
-0.1684732810388475
-0.18058268734572336
0.31902162981089194
0.027784687406866453
-0.015054593880952502
0.8824045058341721
0.10222234653236198
0.07692554140646818
-0.7237667130741233
0.12083234913153006
-0.2679643124899375
-0.029275440360899525
0.07757461478966718
0.0072733018918084945
-0.4423225811840668
0.08106848330200794
-0.4117094414265302
0.6925623289512159
0.08090241240211711
-0.781550561997371
-0.1775417137900834
0.19359031913596828
-0.07217329433585776
-1.3017931161776655
0.42922534908609467
0.07097798613542378
0.0025245206709982766
0.39835931496166377
-0.06266905773763
0.1457324196942335
-0.03143609604692213
0.3615312509501488
-0.07893905387302855
-0.2646922654817283
0.03968029057774699
0.0012698986710643373
0.08909018428167959
0.07232608718428081
-0.10367080552434924
0.0017948257224486392
-0.27338750203135476
-0.018076630791577303
0.021351590770943035
-0.5424450296355574
0.5284326178734531
-0.21086714662940265
-0.20494432250472924
-0.4226437669443037
-0.23748822726007243
-0.062281446443921286
-0.5910793870403254
0.0932751228250437
-0.05289917522230735
8.942205748303573e-12
0.12142353881761708
-0.13643482193020176
0.574832042216868
-0.19266761779475272
-0.019819952877602118
-0.042756363073388245
-0.06695707365801802
0.6254896677285248
-0.018167346950440828
0.6152824475023702
0.018516844599541504
-0.13992732699630775
0.1553057844157738
-0.038812931939268824
-0.1181775915257078
-0.29779611938629214
-1.187051427429238
0.33054624384196557
-0.04223693757221556
0.043762877383953826
0.09260523337299817
-0.06941253287680098
-1.1090304720303181
-0.5012539795935189
0.3906376385306178
-0.09191299808374442
0.9453268853245096
-0.0832451936119677
-0.18638022431568033
0.5808486937474454
0.4612138728606584
-0.2491819056040509
0.004958585677920363
0.46811947775623364
-0.10293574302993114
-0.013520195052972674
-0.0011705781773618102
-0.3141550498781994
-0.0049462682593613815
0.4248783493886238
0.11153210487357404
0.039557863030945696
-0.2888022244648066
-0.2487763517844319
-0.4345398377508412
-0.24107439052451002
-0.2808888781645875
0.045809589795200084
-0.14144095782346996
-0.012052111440799849
0.054158875722748544
-0.17592317612031225
-0.5431225894916443
0.28866545211221406
-0.33508974791436225
-0.013646327479241592
0.32426941564857503
-0.12125258464998472
-0.013584773863111325
0.03270786805131905
