-0.03205295846754154
-0.010506429633702321
0.2695193286972097
0.21815447113450068
-0.007677642707144332
0.28920241743125286
-0.19251860938920815
-0.18643666665904865
-0.6159115516784199
0.114725838691833
-0.10471995150479915
0.2482563458449457
0.21861589139441284
-0.5028308132123274
0.03175232813119076
-0.6361032451725906
0.3998636185919294
-0.001834384647044762
-0.0414354790849615
-0.714995375198149
0.3957145438738041
0.08642600871596733
0.16087109500204902
-0.269202212990433
0.1457877171041769
0.11871505912598306
0.3478745440231015
0.05288059853189462
-0.14827587234455378
-0.0007234531364508571
-0.08123238661529485
0.10457393877192732
0.5146334179275718
-0.20763040024182775
0.19800795145961592
-0.20207191652793893
-0.25126057472849395
0.20211597366022088
-0.014224027112518703
-0.08492398571341321
0.003681745165695299
-0.02182160024537777
0.3013464184782202
0.031159744554960334
-0.008546627149719191
0.11758377813560031
-0.19673370321642264
-0.5304605415447414
0.3838617029232783
-0.08621014819278146
-0.005583585210045572
0.1780913316716603
0.06197859148124316
0.12344833752177096
0.024921456810610768
0.09861039104168647
-0.30861747502224945
0.02948385431194048
-0.20702923614275673
0.25743643433647023
-0.11944000220026495
0.3310893158735719
-0.10144289975290158
-0.06175948824970907
-0.002177907432917597
-0.3062447456742462
0.7997528558905366
0.22376222407387367
0.14484782538537777
-0.01506436608450575
0.14498559355513813
0.0006327451932979487
-0.08620646745856159
0.09273727390993311
0.03573899019494518
0.573951245816806
-0.07632310193539611
-0.3036948146345016
-0.5591563408316274
-0.35545137212155214
0.044967591251423376
0.025488426012474162
-0.4247799032704744
-0.18369880403880798
-0.09564020152427981
0.3365081753711306
0.26205072533402146
0.07374175280954715
0.24082350751311538
-0.3986431125102676
-0.12041880086854372
0.01946844198278698
0.024825309245576323
-0.09518121768900076
0.258278362119743
-0.4362180300241216
0.011715560835945842
0.18184925806303728
0.5072971740034311
-0.10619933266871513
-0.028273132652166674
0.0499026075300393
0.002527017680326759
0.0015741748999033632
0.17469655405299522
0.19298233458679648
0.04544854216493024
-0.18047950107214022
0.496528141505869
-0.15121684854324077
0.7929294643125253
-0.19316468576231627
-0.41119691105109923
0.001375534457376284
0.3510309705764584
-0.4079309879043232
0.018820736879833575
0.30750490702159505
-0.04594480164508133
0.27949526424475984
0.004265866764134625
0.17716156203578406
-0.334705363494378
-0.10636241983787731
0.020720280689014135
0.24938071132300188
-0.08258502768162136
0.09480192446544738
-0.17611244273396054
2.0544602007856197e-15
-0.0030701826895733046
-0.9027414794837222
-0.005546205106923857
-0.019902195629342152
0.003003847890686297
-0.17215045879805901
-0.12070525198773667
-0.0925718037743586
0.09644065121732082
0.1727056423028092
-0.15485799100093464
0.2893765676511866
0.13187193365234398
-0.20919530681805995
0.3684496727944851
0.11602994657002733
-0.09461567748478318
-0.08399152090695126
-0.04531117188556276
-0.3499965580121554
1.0000942359929146
0.3443586179353414
0.004708661941161131
-0.5411553194634438
0.5205874653429423
0.08527696538033054
-1.3718743241255156e-10
-0.3300769593728714
-0.017191484211242575
-0.013143429458570364
-0.1264517268219939
-0.45592643427408547
0.033502262118126534
-0.48571316639864803
-0.22292307128112007
-0.06295708771856742
0.06099105103249234
0.031159744554960334
0.05904041171368112
-0.253145376484812
-0.36582380544636856
0.39230176141734074
-0.2719000889688042
0.04926290281233906
-0.8051130505619678
0.30137330737729373
-0.09655497555943117
1.0370311414387932e-14
-0.1381977954900183
0.5698336524202687
-0.03617875286969854
7.373179161022637e-12
-0.1253691612922232
-0.37960308924772107
-7.723224196526454e-12
-0.20744821328552274
-0.4621709470411805
0.21416504062185385
-0.2548888317666021
-0.0322675090586562
0.13562208974518147
-0.09797211374050394
0.4206426414666245
0.09376209672004382
-0.655832144447262
-0.07711562996876094
0.5732675228890278
0.3744941741324195
0.039460466812709316
-0.5876323258916637
-0.6555832025983386
-0.05342324965741992
-0.18821537531843058
0.043283994229406965
0.03574385951526292
-0.045858302305306214
-0.1879366758012234
-0.18175503098597406
0.048012718712089834
-0.44529421895472504
0.03000033275143201
-0.06462766859215886
-0.001542117328831059
-0.303125473426577
-1.2147160694560575
0.31604107502332673
0.753034737581939
0.3908028719597205
0.44998226509243394
-0.017139997541324264
0.18091013327232858
0.10411855294625255
-0.16445687718518556
-0.13325536077812714
-0.08279566507514731
0.0837131878969504
0.8352707955980597
-0.37988960450884157
-0.05240047621974621
0.3782636859612668
0.019939858804594743
0.06808127252686819
0.5054608300801728
0.01900196032196552
-0.1761124427339605
0.5213635460340281
-0.024215916516332543
0.2291109871377089
-0.46619274650738673
-0.18573162386480774
-0.08177193820936389
-0.022197672047753206
0.01031537351686984
-0.016118594822999183
-0.3707843908478857
-0.13640349221533452
0.7426693401853696
-0.5671101765477853
0.11330302779318578
-0.4248055751929993
-0.020086738187446718
0.08496679750576869
-0.6425101596002323
-0.2556488645272605
-0.021170272943259887
0.04243499907005742
-0.14071473284181138
0.203133591898379
0.0160284526192248
-0.3303196440069547
-0.22153463881561924
0.229390101665054
0.4003154802236708
0.004349097075494444
0.1473857058558591
-0.5267121640968861
-0.0011435722157541312
0.6806292494522466
0.1370624259436474
0.029529439962913684
0.08046487531149148
0.12475721910348217
-0.19916417370262607
-0.8543720158850522
-0.17135739531209251
0.436203786600892
0.2920821112110386
1.4818971638945477
-0.44784489248245674
-0.088376119211768
0.10882286737314828
0.4987975512619552
-0.024742389410942877
0.008929094576761951
-0.17463290871997467
0.052235826625571066
-0.12310356237627763
-0.09810064874784194
-0.17361083023864382
1.0282375237432082
-0.004679602753713096
0.005462807020759224
0.23815491142785072
-0.1297993360788568
0.11000567774773838
-0.4101161277261854
-7.300836115831742e-11
-0.38212252678764314
-0.16688958270198517
-0.09422230085201383
-0.2603347730302909
-0.006008383178445192
-0.692947597658167
0.1766602784228941
-0.03513066139372814
-0.044266958664666047
0.014013605800724511
-0.1428593078166463
-0.26362361814936053
-0.12432435788182261
0.16531602111369928
0.13676686986192282
-0.006051587376696265
0.4303844434369916
0.38063401035032945
-0.011627293842433209
-0.025157986668871868
0.15855985012979967
0.5148219155531766
-0.16973439684621305
0.2943032245786088
-0.07483502687190438
0.09461466441825475
-0.17241729048738139
-0.37449442813800277
0.03578585269364414
-0.07412618636989783
0.37920286228142697
0.31851682127201
-0.030046419307146535
0.026560231526263054
0.2733947609776617
-0.2150389245083546
0.027213448021666066
-0.15296603456494393
-0.261502935738153
-0.11590389094670289
1.1293007812866769
-0.4933658617261911
-0.0106211326242282
-0.32509210394703025
0.059143794425112854
-0.26754338492750007
0.20101867586477082
-0.06893764977312442
0.4750817900935945
0.11133736716313804
-3.5849258625720046e-11
0.15816729585120826
-0.18365037997837075
-0.012323086189418011
0.22238879884548685
0.009131342250154021
0.4022856239479216
1.0208583483631257
-0.004320556296584205
-0.3908450022252347
-0.3601464009714939
-0.006207311256859106
-0.41064070862790064
-0.8001744003799773
0.021132853386892015
0.47096969687272205
-0.052868463650395756
-6.467119357146563e-13
0.6872508333399603
0.674223516202085
-0.048297030772996845
0.1576031518940959
0.10436047935650257
-0.04568780507162057
-0.6403491034414044
-0.08089473553655131
0.09758357431312382
-0.06600553104816204
0.047899419123761756
-0.25771053474846234
-0.04935752632135272
-0.18821537531843058
0.40029148296759054
0.23286599525811838
0.06263455549250714
0.0034550865547382406
0.002909025202362704
-0.0025119414232310498
0.24347082804457817
0.7216001051071996
0.019043719871644684
-0.0902200269521478
0.5890565744573183
-0.019704067501944172
-0.4456442429396859
-0.09811628228201912
-0.04253265784929621
-0.04099145399462879
-1.3439582334469468e-14
0.13413749163562702
0.2662239201443608
-0.46918307631711537
-0.07180769970974252
0.5288421760664836
-0.20531181965077028
-0.1460375665503186
-0.06630235805110236
0.022378423231415083
0.045663790038067656
0.3371518544229987
-0.13036968654004555
0.017355682089537448
-0.41752420653236777
1.3260086126963364
0.01234212919636315
0.09018891914663646
0.6910720122527727
-0.03566271565368294
0.14258830823805985
-0.33323005875185485
0.16369683463988804
-0.4431980041094171
0.29990826608069154
0.09168808375381775
0.013181992220171055
0.0639458108251516
-0.5151076530866999
-0.5024284671406577
-0.0953070779514848
0.5313284393302329
-0.003332277477155378
-0.2486567173005014
-0.2964265619251709
0.2783830400809526
0.16681314294047442
-0.632016262490124
-0.26104892516256395
-0.1315273547721506
0.0036231913836911375
0.3081949330694196
0.5592692504365052
-0.0006477442478157759
0.06702142095451755
0.3622501589420746
-0.7548407261272635
0.5004146262709535
-0.17930319883405293
0.4964473797914166
-0.0778469541311386
-0.10056198079899527
-0.22816094755988167
0.6141610533620513
0.22497475006619166
0.034578752247115915
-0.1142664664216861
0.058189050895677955
-0.44724672496388634
-0.10477836458513236
-0.031155267891536446
-0.22591229056054565
-0.25694836504606006
-1.144304837510825e-10
0.0693710775388821
0.03758072225772043
-0.24302616228827922
0.00046927128776921595
-0.052899447270071
0.21394731076790982
0.019809418781710816
0.21675809040281366
-0.10283879439557964
0.011441370180234712
0.017704284241768075
0.2033388075899446
0.4294001578167681
0.012294627657461808
-0.17871224605497857
-0.04866868857510848
-0.4853498078539933
-0.019638454376548164
-0.2637500328690557
-0.009892291058715632
0.2854734780988436
-0.026071400603918618
-0.1063459259586888
-0.5459520560411673
0.0110574971645317
-0.3117088156581912
0.3167709837823921
-0.1856748425519428
-0.19671580175524273
0.33457548388433855
0.0077806756175436385
-0.015477598022041258
0.8374764802401297
0.09753944928703435
0.06527920041695467
-0.792840248994505
0.13024932479675547
-0.27916802696266896
-0.028214804781724626
0.07474858008822079
0.007064713684213637
-0.503282314769782
0.11041395983533625
-0.494299161914725
0.6772610908756493
0.18788113896286887
-0.8637941964931093
-0.1867297005737019
0.20669182551653997
-0.07676458775724353
-1.3746047873293712
0.5967557581874472
0.05147357803054231
-0.010241685679788533
0.45864894137778217
-0.059323692532624706
0.17219771229905026
-0.018570165376273852
0.34223686933818137
-0.06603013426572271
-0.2683794576641266
0.044787265754678125
0.000668968359431055
0.10728805493726383
0.08428201309454166
-0.10369907121351678
0.004982347668487464
-0.2915158347975271
-0.007622409941659232
0.03214450015481619
-0.6098221465642347
0.4973834916440509
-0.21468111611105217
-0.3006143031194677
-0.36228174354714654
-0.26211958625304843
-0.061809225562353694
-0.7623569953283
0.11421571916867815
-0.04992299941436991
-5.607120772041117e-11
0.12686879935766293
-0.13752220124180092
0.6288212863181395
-0.2081418830008004
-0.01909863330530666
-0.03557419191514778
-0.06627064274392049
0.6693557721408958
-0.014145583163152144
0.9028397047680607
0.01507855909058211
-0.14277652611552002
0.1465909501756301
-0.042334954072891104
-0.11995196475890539
-0.28684682045495824
-1.4502129397436403
0.3202797549522145
-0.022436601450234704
0.04798304248003202
0.10621795478377301
0.011317392834133118
-1.2328130659384129
-0.4579041124594553
0.47271747816129056
-0.12412941079750689
1.0050617823475676
-0.08500613512531732
-0.14930345915056906
0.6525288983391897
0.47142502527969143
-0.26343874120289684
0.005000391811271737
0.4093515231182946
-0.10631933630552247
-0.030333523326550097
-0.04890633813493598
-0.34745912028817094
-0.0029472634545458926
0.5087622776396934
0.11689285866885413
0.04265326319761055
-0.37054905630177853
-0.2738665918901416
-0.4387973493021005
-0.24174052602709717
-0.2889463911707029
0.05549580792077396
-0.16917335395879612
-0.004101625243935542
0.09800070907390303
-0.1879815174674363
-0.49950987469767316
0.33599787123382624
-0.3764383508025615
-0.043822725503853376
0.3371518544229987
-0.12848701985863142
-0.012888478490357973
0.04963578496019433
