-0.11577184232329771
0.04977534575279467
0.2159431763490792
0.07224651757765758
0.13860290563925604
0.14952517829521184
-0.06650561441153834
0.33369631234092184
-0.39109554445091194
-0.3816792466968878
-0.1533317905195392
0.6320691527819783
0.15316240017488997
-1.164659416702623
0.051577424849478165
-0.2581890904133864
0.2608992996515125
0.027166847329124826
0.05008922087491584
-0.39210021614514773
0.13644419470940716
0.0571797055040437
0.0819509348948366
-0.11420463098935749
0.10834218020594251
0.054621572057911225
0.5778606305423863
0.0704290276092073
-0.10292756162318355
0.05362437464308808
-0.05815793042093664
0.4924505739553877
0.8589353535226614
0.08263761879934257
0.05055820385258629
-0.1853248979658059
0.21904325860286444
0.16801137272083147
-6.901399696660985e-05
0.14262338030405725
0.03945265051054605
0.09984342839818469
0.13526209595438715
0.3599546678594543
0.046851363272320416
-0.21026943294986428
-0.11622712298507124
-0.3449584538860122
0.24218393984971623
-0.07927035388738182
0.5816562759374834
0.3942788014131213
0.04234513441540559
0.07043833886814424
0.12178580484114823
0.023313985659776153
-0.1235259481680525
0.060712775207182865
-0.18287405098120274
0.3421227438110998
-0.40354333065894177
0.33790808559750507
-0.05699957393263319
0.04063709092611288
0.03396954151616023
-0.2400896798390031
0.3285286366266646
0.10473687474429508
0.08105068703402879
-0.12213823333019792
0.052354970965633595
0.0017068276664210392
-0.0804113286802706
0.029993543640101768
0.03128087906756292
0.5816779396823378
-0.05898935090037049
-0.14474028289056237
-0.4382286610494888
-0.231276237619481
0.05498331110523859
-1.6948055322902424e-07
-0.6290099203090195
-0.22174348337326574
-0.12617432708394416
0.2798640250688792
0.17035241929466846
0.1516910931323796
0.10233520476531761
-0.4804536418646224
-0.17406068118184723
0.18433241546900336
0.07573333081094895
-0.17982280054481906
0.1556450412043287
-0.35479437180161266
0.043843817568758096
0.21483905668338577
0.1807026213065722
-0.06860650233397195
0.06642762544174441
0.07564517947227223
0.03590042799910081
-0.05616796176769318
0.18495313221339385
0.3053442216006344
-0.18709405068849208
-0.3727491156457592
0.2582701579007623
-0.07552668386495073
0.4004630774185089
-0.6106050570241881
-0.320610552645502
-3.916714433559553e-08
0.29864674283205916
-0.3042925007187989
0.09030986416606404
0.1903129992049693
0.05330793275503474
0.4113985947849977
0.01135656012999794
0.4179154776378027
-0.4844528092621742
-0.08396106080668761
-0.0003232810208102311
0.16619189933925216
0.27737288332784593
0.04133966698481762
-0.15030212512060234
0.0
0.1544636922683454
-1.3613086993490038
0.04210198901868528
-0.09941180222561709
0.03769130217869211
-0.14564232476769826
-0.2530175672855422
-0.062489055339158064
0.014326765498835232
0.11959399165367493
-0.2879814903355838
0.3641285408618635
0.10795980559217787
-0.13130300533202158
0.2226861485566534
0.04925679876259297
-0.04278022148991442
-0.29550314809694034
-0.0002227434452460317
-0.4364667409309766
0.17493147764406852
0.2347347418000231
0.10353848583217135
-0.5346295797374369
0.281252849568303
0.02993073468939902
0.48783465163497897
-1.1138041094280637
-0.14967985036176568
0.020571506290005526
-0.1598174231180851
-0.0590241595461995
-0.16168805844483303
-0.45172317019215114
-0.20118712556183188
-0.09417961324123715
-0.27007893718294895
0.3599546678594543
0.16248533531477183
-0.30548033064313374
-0.20015871674916288
0.4530975104245121
-0.3358927889442154
-0.3133598380834324
-0.5400220447424778
0.09955029402624715
-0.07618894369747588
0.0
-0.2946720262980881
0.3342570168817151
-0.0975753368386016
0.11592018247450385
-0.105649643355584
-3.3992774392913122e-06
-0.08165561483022986
-0.14242403077757057
-0.09941886038212633
0.6051001847483539
-0.18445247111039467
-0.033568142180635495
0.1027545068332268
-0.23817092108331464
0.299449948855235
0.20104871797427348
-0.19230693222635173
-0.06811281160552618
0.10499522575222894
0.23742326951115628
0.011485314865326057
-0.7230118992113791
-0.4383415475272028
-0.048454862351489554
-0.26335459880873685
0.05892643040947968
0.27177271541617554
-0.02216602751014027
-0.13037051413511275
-0.1508491882014965
0.30583478701363637
-0.7512937357894676
0.012872561200761919
-0.00018580028924104858
-0.45816758410447767
-0.13039760713380052
-0.2996082492092652
0.19495846781225884
0.3177248093022494
0.23037760280449243
0.1617256535916791
-0.023070734042607274
0.14535759388696584
0.09247771084045237
0.37970116276365634
-0.06772501783635686
-0.10525986148531079
0.06880354793778762
0.3281584727529595
-0.18489672724602318
-0.15734797835924963
0.3056603662245348
0.022301695070589964
-0.1672557830471186
0.27975641326532763
0.04819138509105077
-0.15030212512060234
0.3208131848168152
0.47646435847919405
0.1317310171105277
-0.14819148247108674
-0.2153416179170902
-0.4838408557688128
0.03208225716460433
0.04602676215194211
0.34355355987283864
-0.20268510912738813
0.1568479509182507
0.7313749538271509
-0.43051296258102045
0.10506757596440945
-0.2998656603100304
-0.03146569264308179
0.06646676743553549
-0.3054783296925128
-0.1547932109949759
-0.19810990234027076
-0.22406280022428243
-0.11910136713071034
0.10306314144022193
-0.05397373940859712
-0.14228724222629982
-0.09019145177517754
0.15166792074544017
0.2799715541686517
0.14423625177272165
0.4964601419598911
-0.3601992109844337
-0.2219740319094653
0.31012699600109
-0.015927015902374272
0.3799874421301291
0.0005825382946551115
0.42100189895871604
-0.10315121619503685
-0.6405987172942006
-0.14652884339090402
0.22802125880181956
0.16317250811843748
0.46822204178958204
-0.32702756026695917
0.22990353656490223
0.11427756546715219
0.8271594022774825
-0.04896706550779261
-0.0443132063943638
-0.11765572466431573
0.04431879197433738
-0.12166355745055887
-0.07136365595778268
-0.0703624978104743
0.3890440445321447
-0.13943556473914928
0.32197433909959033
0.31365640912456083
-0.07601320799975064
0.0681344248376755
-0.11892276519943835
-0.01669146893258278
-0.3985376041618424
-0.06603870865337283
-0.07720341961402384
-0.2784146264064882
0.013045667762559911
-0.4103541111501261
-0.4540927512074272
-0.159927627284374
-0.03645981645023227
0.008113490984799103
-0.06434145974238895
-0.430844250793259
-0.1717784421429575
0.4195545927192633
0.06473470114568221
-0.05891224380649917
0.13549054061209295
0.12011116298275337
-1.0531226865508703e-07
-0.039871497063712485
0.05937333373635407
0.17838705047905826
-0.15864864874475082
0.04503559051950364
-0.09307710619906988
-0.25164470317755006
-0.005481845489886527
-0.25929061508677415
0.034234823962049576
-0.0983479553164301
0.1973674392525566
0.21306694307194768
-0.03611699497484178
0.05075568788787238
0.15035669898901577
-0.11170082636591797
-0.1949184391280793
-0.18794219132695716
-0.1850988486242912
-0.1375551732536429
1.0056779158001388
-0.12079834236030898
-0.020482884795537924
-0.36997821287423543
0.03997131883264971
-0.09400689168086694
0.47087597787595187
-0.11496055198359945
0.17824540724380095
0.09841594768753763
-0.08529741459705413
0.0792668711301286
-0.1517237350383273
0.04566660961412765
0.2380062638322289
0.048974024443938335
0.20100908717384233
0.3325083999658809
0.028927758507274817
-0.18522245881996033
-0.3211064898243592
-1.0239386234089398e-07
-0.13915132069547187
-0.7498997518690693
0.07871854472111517
0.3560952132396916
-0.05400065034717505
0.5691677540287366
0.3347975367228012
0.4309506989786932
-0.008453495615421238
0.10796346475831466
0.08604039493364929
-0.19291239019229425
-0.39224308210586006
-0.08529125934706358
0.045110091624351374
0.06476920230285131
-0.13734033536713094
-0.3148225387043938
0.1452229238323094
-0.26335459880873685
0.33299406766165
0.01801575687583963
0.060609874535925284
0.038857137491756524
0.221604528216169
-5.045528064392854e-10
0.21983508110886466
0.2673022185078261
0.04304444773299422
-0.0620453702038817
0.37923540289452
-0.13604192273861093
-0.09392681492060322
0.20933690048737294
-0.11982436166478531
-0.24542984415833188
-8.582349187779718e-13
-0.2312807502460061
0.17783238635855192
-0.2149370594941397
-0.18286398304388124
0.6771276011494383
-0.154261977073135
-0.11919786316205595
-0.05677626818310092
0.0365778653894668
0.06829953679053338
0.21818487927534472
-0.3402442406095312
-0.00016925185986253521
-0.22262423898725778
0.45978058395507465
0.016284827898234582
0.05742315283066736
0.444735309820099
-0.09243537124303586
0.11633111573183662
-0.1332896116786285
0.55211177869612
-0.8093691367947335
0.16231720082009285
0.1278259056095312
0.01936011701548133
0.18926590319500583
-0.36286552123762794
-0.3362640058621438
-0.05190670644191453
0.21764847727643902
0.27880805529561686
-0.09102532867071311
-0.4153988549569635
0.2685331001260511
0.09833310235911148
-0.12969330145265115
-0.3129815449194665
-0.4630913187671122
0.0055697853841464645
0.15795381257744384
0.3034448094447816
-7.1081548524686035e-09
0.08048314166898247
0.11119333162606182
-0.619812622084483
0.34599040423255406
-0.1591358921952422
0.6160781745683682
-0.14616899957486926
-0.09322299333621505
-0.12516866847824581
0.38020195629275066
0.17520926114071278
0.05103446684422107
-0.07814521250506688
0.043450125934100664
0.56627498592333
-0.38868695096916955
-0.00022653472800382958
-0.10529982117725921
-0.09312408357931656
-0.6913968218581648
0.23842458167621094
0.027166750881043988
-0.20829493815116487
0.0577879665785255
-0.3344906731271313
0.19960581575884564
-0.8689207166278167
0.11354341942925789
-0.0908975136150862
0.05496615119268484
0.018956517348533344
0.2904742525620438
0.2157586819495944
-0.0001244402770785851
-0.16787563554239351
-0.24753896984746704
-0.16168798744953639
-0.05172013273642497
-0.18281592775798583
-0.236250934468708
0.19087250632154956
-0.10834392187591801
-0.08160443696110234
-0.3196773749728605
0.031548120624281605
-0.04721730508236844
0.6064920820615168
-0.2433779641835676
-0.24523156931741688
0.18203112888794357
0.00585954187236501
-0.0767134818733331
0.08797905852978277
0.02127745361396548
0.6000270676960526
-0.38645672395287206
0.0966123400331123
-0.19135859237821706
-0.05636523605356997
0.0224819533563391
-3.569698045745115e-05
-0.07655596651084683
0.19498265057766373
0.20221198265162782
0.42907838855494795
0.534001263577961
-0.2870677925059625
-0.24292860199315422
0.030508562833035966
-0.046247130244333426
-0.5295061641733436
0.6328113206319514
-0.00040831775423105207
-0.06701914381569564
0.644616036867752
-0.07459778345968385
0.16798711827727295
0.04548579217778895
0.4271269323993347
-0.47679311168153055
-0.23758228233374223
0.020578532943698123
-2.336203088871532e-11
0.09554673639297584
0.06658994304068078
-0.1206075644629832
0.06370927198862535
-0.12821799574122783
0.02276351485193849
0.06336083550602013
-0.4001975941819859
0.15097470780780015
-0.1180713320316419
-0.16926053957338674
-0.5738903556466951
-0.014083037111471297
-0.0912383440660227
-0.9359821158084508
0.3356460123873063
-0.11103148272652
-0.1674422696499703
0.08290559341189993
-0.1259263517857842
0.35961542550907216
-0.13255759516824706
0.013462319190757379
-0.08388289430463913
-0.14828808219622616
0.2920162214239026
-0.07625457487417993
0.3782652645467697
-0.11836470303315755
-0.1617234954831943
0.09691065438726953
-0.005943341726534639
-0.046694063966418745
-0.47218257742107816
-1.010713478717392
0.13519568821310735
0.08258263405374697
0.03412568718834146
0.06856568054911205
0.8814672123672675
-0.44538428788987877
-0.6508878297239667
0.3647802637642887
-0.00033871122334536694
0.37143028030862224
-0.08144814232267478
-0.9128393784204782
0.4648193338728138
0.38414614586955037
-0.18152373398441848
0.060753179201422494
0.24471428201904205
-0.07818475023919876
-0.000256345210397352
0.09286339036851114
-0.18784432499550055
0.02705336584695235
0.45349939787007465
0.06083331227726297
0.026861266221650637
-0.5855695357966758
-0.5850925315770126
-0.39575116104218344
-0.3776054139919168
-0.2454505039842742
0.030414150380994782
0.09915681347878731
-0.1475644522596649
0.21510150310881407
-0.28427208245378127
-1.0877948549455714
0.20451691509546813
-0.3856481146479966
-0.000305950254489067
0.21818487927534472
-0.06355951522199743
0.045802689481219246
-0.1426315782823159
-0.40145840281498796
-0.28027000247270994
0.1597008321502839
0.04090683223902234
-0.40784704445419856
0.21004185526099628
0.1068342397185894
0.3376032735822506
-0.17918993153823526
0.0007784831659282946
0.18269889562523664
-0.0854450722022533
0.0006036614380941558
0.3674493722795307
0.7049422568868278
-0.06171197954580441
0.036744322000126
-0.0765012376321036
0.17774361301050828
0.02577047929465093
-0.18191924958891467
-0.11685674461258884
-0.03886482150795979
0.17666243489446748
-0.17163962150721315
0.028710236260813343
-0.4394541226138725
0.03927932188534864
-1.2807823334232897e-10
-0.10775570231705321
-0.06431679595306836
-0.41528910602485536
-0.19969961611256384
0.18293994841600086
0.3676610985241804
0.17225168816240974
-0.07818475023919876
-0.0427117950208738
0.1198972102123287
-0.36597111464724724
-0.09386607778805905
0.027648926869740853
-0.3339181693333008
0.04068063304315073
0.26653261200652895
0.1362461920559189
-0.20859428806958677
-0.08249420448821954
-0.11990582871077907
-0.701029199316876
-0.15032557062962826
-0.0716269172758455
-0.036264267159049575
-4.4244451693442374e-09
-0.19719526513589244
0.0
0.15431667923962938
0.23664618566594836
-0.03142461069007156
-0.3567089362750382
-0.0798505219871075
0.04792397707301524
0.18874473850038426
-0.3012754147000715
0.031728932204746686
-0.3782279189051613
-0.001675934416729369
0.08268145487160537
-0.14649074520689473
0.41651683819814317
-0.16083660549893555
-0.22728249568002695
-0.09432017197677406
-0.10920932315997404
0.030157004320803486
0.06864377749335025
0.20916737905058352
-0.09826772709344336
0.07337555008497257
-0.0618252783778228
0.11131243543369916
-0.1855302693997799
-0.1107861291995379
-0.22957793715294186
-2.9419609226311066e-08
0.0
0.16160932669869174
-0.19868207488100045
-0.04251899295905228
-0.9318924037701426
-0.18608423635426727
-0.13582254054572745
-0.1264846323332245
0.05165156733318821
-0.060891920998283444
-0.0004461769330096323
-0.13058991429655417
-0.031644042491308845
-0.21130937067932729
-0.08516129836273219
0.045795276614392526
0.2615480752749821
0.23457927130654513
-0.07507106263089407
-0.00022493906598972975
0.2303552816698769
0.36969772017092206
0.16295946111194376
0.06585554922016751
-0.16858410735050408
-0.05511376833941671
-0.06762321513535267
0.8128714367751871
-0.2441690676296411
-0.0831765654014613
-0.30204936546373107
0.027091932591093378
0.2943170791939761
-0.20553913276921484
-0.08694799980500699
0.0994931762152258
-0.3179234648017941
-0.5412615096593114
0.03878437708970727
-0.31782538114614656
0.2589164763770535
0.21718941842033798
-0.20690252093976907
0.17877370356167965
-0.06917340705741974
-0.10200802448004524
-0.1330594678830738
0.2184869022783975
-0.14346869414254157
-0.8503927129649956
-0.3349559830616527
0.0681697194478158
-0.38039305748603003
0.07071937615883814
0.11587210751683145
0.9572073358198153
-1.0894890418401062e-08
-0.4293972147179061
0.6760211339744256
0.08810285498355093
0.25906344011256816
0.05978710690172431
0.061359084759478676
-0.051306146590386764
0.22040524043560764
-0.3106414916751956
-0.06829006297599309
-0.22547544844046896
0.018687770842008622
-0.04641875615429814
-0.13485890150735655
0.3030765591346586
0.038188849469778526
-0.09203690098988104
0.11434115310472862
-0.052577096065750936
0.2132416213116853
-0.1053368497608225
-0.6036581274661587
0.035272699305901975
-0.026749414452031377
0.22286540110561232
0.06270083449813109
0.36103546320624136
-0.053709983348443895
-0.05288360600194053
-0.018865204994598418
0.2447674578198447
-0.1436226514863753
-0.003056705647703728
-0.39495711062423366
-0.18428363352870358
-0.23116957782592967
-0.07810102957878137
-0.091582182097702
0.25228603745531236
-0.17702174638095808
0.2153313293490394
-0.61273658927458
0.1185434404842056
0.4540627130242588
-0.39994359926144996
-0.16991400065139559
0.03367258870665274
0.03885030468298086
0.11669434715266294
0.19535630263253131
-0.007120718877219339
-0.4279889141987
0.7265482376540491
0.47287828601340237
-0.13628391226478323
0.29773408489820957
-0.3830339483047714
0.33983462612750087
0.12186203506237472
0.25001662363790755
0.2090431281308251
-0.3560699842481786
-0.037832129334520515
0.37970656023920046
0.04569189270716954
0.2982292436742232
0.17460972650876933
0.31164007230173013
0.5676416327863032
0.04152307682059666
-0.07743645915129668
0.42873289863698755
0.3148659317553996
-0.12047513855811952
0.23741097786195028
-0.37278206823690363
0.5285578663604844
-0.16128626404607693
0.09558321611219106
0.014710473968191274
0.07174877001364274
-0.058865241402774555
-0.08603845309242918
-0.22887674619119486
-0.31194648746497833
0.07332464515012989
-0.23472668268686386
-0.2327314539926594
-0.5276125396666582
0.045453662625449795
0.2530094655474062
-0.059837674142976506
0.07560907838750278
-0.19685522591932067
0.03465107773509477
0.15889136376823726
-0.10790699795683097
0.06038495381224046
-0.07319000839366897
0.09576051712926766
0.04572464672784451
0.0685063432391777
-0.07913445517300946
0.07703824935574395
0.027856905049832896
0.5903310829383289
-0.05986583295912451
0.06057380704707909
0.47726935133169224
0.04325804498921851
1.1157696456750803e-08
1.1337822103239092
-0.4756288284838637
-6.633075016628679e-13
0.33924794459033997
-0.00019103928046345465
0.42509721270426415
-0.23343470949158854
0.1237113901248205
0.3345293209683169
0.05807417284268838
-0.06157068712871209
0.078639979570499
0.018723170351284887
0.16138126073446768
-0.12033437897398334
0.05601499113742652
-0.011007080085291608
-0.13331978914015719
-0.3713850163753223
0.08258846378371298
-0.2963328844849527
-0.00948032857163177
-0.00970079356179375
0.03634473713586281
0.9836858645934106
0.0
0.25906344011256816
-0.18554297991791124
0.12514850697421473
-0.029048074288465876
0.08706725805621217
-0.0002677730391715263
-0.3812102482826319
-0.20188375130856698
-0.061292402617740466
0.12530560604778088
-0.07753707421472433
-0.10472038292095544
0.026948048721604237
-0.1129173015544393
-0.09204821420069345
0.20745412170380273
0.0962616450017097
-0.005582344699426221
0.06596786875837593
-2.0764081861626466e-05
0.07193059313524586
-0.3311473344882715
0.048387071626179966
0.3079609611625852
-0.08867343458259264
0.35632322551183254
-0.06125678198438879
-0.09153528790067669
0.15995299093557094
-0.004921354367835218
0.24024296540409995
0.07768174759142625
0.14730920529634256
0.19250891640225654
-0.11652900546073931
-0.04150999963291338
-0.668432610375036
0.48993704903127266
-0.07764604032797971
-0.1574707965105485
0.044671615560730474
-0.17773252023620814
-0.07886180383805028
-0.05477555958010552
-0.047164788240254246
-0.1478468520075996
-0.46007069067931855
0.011353073469114
-0.06555916291868658
-0.14667702594397697
-1.3858285295891177
-0.037225677265507705
0.045629490036102234
-0.29288681604853456
-0.14746164488496755
-0.3836807527830132
-0.10066591430417694
-1.1967365510927408
0.02746153872969461
0.42294654053612357
0.08231928754306776
0.5955282214905767
0.10429585705518936
-0.11579972515865836
0.07349668509718278
0.15834450613550924
0.10771432016653246
0.13988632070591903
0.06563011614565888
0.041801316735068504
0.023944109632163754
0.20458465888171654
0.23641567090457283
-0.07020657428650433
-0.232088247921482
-0.12278982924599513
0.27999930843517823
0.13661926698506163
0.04360734883535319
0.3119402984834672
0.9217651062885716
0.0404339732740149
-0.23267412430939177
0.15109250750288303
-0.33774701679557234
0.22990367910889029
-0.42741183837312685
0.022555529720330158
0.03773893944280564
0.033041527226922815
-0.5326882912529325
-0.11481530993382641
-0.25028496039430986
0.22832759032937755
-0.08391725756071662
-0.3075892731985867
0.12820041689713513
-0.110835452632737
0.5462696521144981
-1.2953587312417678
-0.09668850976575423
0.1907126049445352
0.03990822706805345
0.05993513564495647
-6.263838282401043e-05
-0.08118770664476188
-0.05054529681066004
0.025379233657166315
0.10504401244203589
0.16380970928545768
0.03783204612435039
-1.7268854983563482e-08
0.0003817738892282233
-0.15492425782510424
0.16332656322157063
-0.167569000165522
0.33236224453637353
0.25114232267084036
-0.06812836244318253
-0.401369787666991
0.30478039285648884
-0.4092520558689163
0.19988612269855152
0.03176461856363172
0.41069073626141317
-7.08106331117741e-13
0.33650150419949637
-0.11325410476218827
-0.09585585562513525
0.23469429117361812
-0.1070354732106788
3.999227672918315e-06
0.13450027929357014
-0.38814736556650553
-0.11780720109441595
-0.4454548545839055
-0.07650420459076954
-0.012976367446012063
-0.230273471071717
-0.00013680463351218114
0.4865190455319568
0.02293092956875189
-0.3392958720043521
0.21124741452180443
-0.08365305811640662
-0.04715081577986639
-0.09192399998608457
0.08404894732040269
0.28680854312467535
-0.25647869691605674
0.25759417793917067
0.242397951295004
0.2808402883003711
-0.15943200226599746
-0.9015811176852897
-0.4870746123748664
0.05095248141619589
0.8342242043082015
0.20951971452208257
0.3005026116025486
0.2298855481537723
0.20106277714708162
-0.42055756397113747
-0.26821563217813343
0.11859825914552084
0.1283536018987963
0.13848249531893705
0.2399028635362622
-0.07368414598479298
-0.10959870036249875
0.15882572541839696
-0.28477155569161017
0.16969184217190378
-0.06698979214401855
0.4366291050705296
-0.1962656713791488
-0.00770528569427369
-0.20769671079039712
-0.09328351967453775
-0.3435078106531402
0.5336321196440182
0.2006896109609189
-0.03745504258487843
0.017497927599378568
-0.12312383394794436
-0.0037786318919861297
0.12527553350176984
0.11975275688916913
-0.11304608802428012
-0.008377037493145207
-0.08916880080581319
-0.2885588710089085
-0.302408079029566
0.027407579537193957
-0.3173645074250727
-0.08143953739595813
-0.3601992109844337
-0.34969302366472377
0.052349836252483704
0.21257610007488242
0.10710744529901345
-0.00013405163910698825
-0.09206113023448392
-0.33477915075560377
0.2793141636821388
-0.4705648176634024
0.1585798729537703
-0.38511646002510835
0.024685944970126328
-0.09368474753244409
0.01396413441829264
-0.19786811802924822
0.3013404408922378
-0.31590103561035715
-0.13313330861435918
-0.047129853868788596
0.2467331241848317
-0.055678625362392827
0.04005030749752789
0.28135876465522847
-0.16538816136303894
-0.5034782826857138
0.11148022404891518
0.20933690048737294
-0.06713193721614778
-0.14387099237599865
0.6208248565057642
0.27018643330988973
0.060851471853703626
0.2394222726928918
0.29203958771118704
0.35269719535105826
0.25029782254937283
0.5570757462678716
0.2467331241848317
-0.3456232555120838
-0.3568985945158887
1.0372072810573577e-06
-0.19308772471597063
0.02740597035731539
-0.15113053713834268
-0.4830412107822391
-0.07189481759921913
0.3449788091902643
0.052120853017862304
-0.13729759939313257
0.06192964704114952
-3.6664349555352585e-08
-0.18079301929219527
-0.22776224155051553
0.09198308818199392
-0.070771299396665
0.015780746858744706
-0.11759414313475655
-0.19036999056083015
0.1733714166302386
0.018851485933355033
-0.057772277708705126
0.3239441769401559
-0.11105350008389457
-0.04273293714409328
-0.0715046839637019
-0.3615710101687416
-0.0707106476740511
-0.0007154856691848852
-0.3526569535127013
-0.2121318265543691
-0.08447386383194692
0.1270007828955312
-0.40492957693386333
-0.07622362307688092
-0.2841857688844659
0.02844608175419434
-0.05365041546491723
0.03421326974498435
0.0004489874068854311
-0.04512251014419301
-0.060229442029112554
0.00017115127508061012
-0.34096782747262244
0.15221183785878548
0.48203812177793637
-0.3365640110961981
-0.09261631176384932
-0.04414720693499354
0.06466108542360935
0.09238273763260184
-0.8592607688939543
-3.150684319349658e-06
-0.0966102575384157
0.16629119575704399
-0.2902539571999651
0.06777072958435795
-0.008495838668706589
-0.3080453734903872
0.21478818226488325
1.0251035941990287
-0.26535206027627933
0.15753262728596407
-0.04150999963291338
-0.1582588252914826
-0.0872928957910545
-0.17735599470192054
0.12312963637862148
-0.759327411977683
-0.08409440626832301
-0.00022905359036006658
-0.261567775103271
0.08243429909799574
-0.13386174761435474
-0.11854162798691274
0.1784773169633547
-0.06834152737898203
0.44184345824267707
0.35973256039117846
0.4019940074254798
-0.10740487959797686
0.16531532312679686
0.024856868442132297
-0.13783467007304623
0.08764727034763863
0.19762343974206514
-0.08576548635176401
-0.026630250541549105
0.2116442468125041
0.04101914391948073
0.16982328447096268
0.2324279916825028
-0.13562224355806765
-0.12306417534497023
-0.3613362301270551
-0.34284435070692626
-0.3229321465926873
0.26763437362051484
0.03701221576674761
-0.9594443282084596
0.21794037358257337
-0.27318928271303206
-0.10601441403495782
-0.04811219592813806
-0.1310906502568733
0.39172105902202164
-1.2443630089509805
0.15035669898901577
0.13267567210800807
-0.2724702087079384
0.061029801469598834
0.05075568788787238
0.090982192042176
0.2860725115522835
-0.2724775017576457
0.15781151392715614
0.1408743445217629
-0.17128876144098923
0.3726151566236018
0.19105353203644956
0.961647618010839
0.19324196494241244
0.2728003837841769
0.23307726624568828
0.30868718975840154
-0.0674539009237322
-0.29989758217363066
0.02434476900174503
-0.06819548129802985
0.13258539244288414
-0.4065180296374652
0.021082412834633045
0.035334907783185876
0.10184468665583728
-0.10545185088154624
-0.03143714711412607
-0.271693239064519
-0.053560998187615866
-1.1067289739574566
-0.09032881723463893
-0.045918462388069486
0.06298427029676491
-0.000238784013509457
-0.0037517020121571863
-0.051300870657589724
0.15960055931987926
0.00044955641777547615
-0.12893597793827372
0.14404913844347417
0.29904853920470165
0.11181801579622357
-6.166129826049579e-05
-1.0553529846452973e-05
0.1160246659059091
0.13448163730085955
0.13578263586686087
-0.3844100033535587
0.07161142925101487
-0.13650653197443377
0.17711466053690716
-0.09966917381624679
0.053801560002845965
-0.00035481631839774907
0.21802522826496917
-2.253379622754281e-08
-0.2765425183989629
0.37796981082978093
-0.1501304972532266
-0.088027899622176
-0.11489797052051626
-0.4253149710354695
-0.532583905294949
-0.11949357271684487
-0.0768111391877864
-0.5827275806055583
0.11047136159981702
0.015986966535414506
-0.1085050859801416
0.1759739049193322
0.3414132397044139
0.14511769901475519
-0.4772272443186596
-0.6434456671704598
0.21498284136306783
0.22315255731075143
-0.03291922130471965
-0.10890999101583834
-0.04337762046832537
-0.04203309240875473
0.22663845783995482
-0.044369887650545566
0.049438840167924526
0.1949028516544048
-0.18636613589772108
0.14669375621526468
0.18084006636004527
0.28464329088742263
0.061265945223008704
0.08572097702985158
-0.4205063971007881
0.32604041272900286
-0.7055615324233987
0.013100972230884427
0.2653648349162514
0.06760698882800092
-0.021235651788946236
0.4029874768809523
0.1674381616227523
0.03781788259993922
-0.01751224508340733
0.1209010992387226
0.2941611636066983
-0.045487288184450164
0.09922202406709452
-0.1444503440477411
0.04633780271219069
-0.08454469019803044
-0.2055409617173657
0.04951659947465325
0.26385573244170996
0.08874498379957806
0.014107704940535615
-0.43480056654343185
0.24781561638208482
0.24933746294360506
-0.18287405098120274
-0.16901218397308945
0.2411764391209249
-0.10610344581853472
-0.16008466958587994
0.3553419982629205
0.01815491925243311
0.3791738871235622
-0.06351239178474101
-0.035998678017294145
-0.2842637652833834
-0.20829493815116487
0.14153647870421018
0.11267560578554894
-0.18134240891878958
-0.04073970738643803
-0.1487792274835886
0.08183242558118548
8.755602188453206e-05
0.2976587433144651
0.23208124464470814
-1.2459217361475299
-0.08883686110501263
0.0460428605855744
-0.09823356786574014
0.02065458205319076
-0.04769252796692881
0.046492482102288846
0.11271881815356652
-0.15746616795600635
0.041849281948328064
-0.46318207213674245
0.11666585106508642
0.4869733262911249
0.1267793962665048
0.20459753045870777
0.04770856757678872
0.04656681484883755
0.11981173284846744
0.09320230814777203
-0.34115998243594176
-0.08777299052535503
0.033824528826186584
-1.3985653968444905e-06
0.09962179850921148
-0.0715046839637019
0.1711076548121695
-0.04402710414875599
0.09299308908565466
0.21364470508702435
0.2110117377453114
-0.09331618060689882
-0.15353270532046304
0.04973973728901167
-7.911367791564118e-05
-0.12369542589729156
0.03304281793775291
-0.04487766055165559
0.029923757672209374
0.35914793759549063
-0.9167531766636168
-0.07277339353598204
-0.22013121301963046
-0.030166024431598697
-0.06151113310429896
-0.0003989270911624548
-0.24763340164177794
0.0821463631663446
-0.004337009228863718
-0.07800284403336409
0.12589591523093616
0.0545043336003712
-0.15167097432882587
0.19910482754687447
-0.1470967482794507
-0.35198184294303453
-0.045324680804142044
-0.4434919617245495
-8.381683735281965e-09
0.08656972963612748
-0.34682790725107937
0.02768099344032975
-0.19623355550937263
-0.29661952785385554
0.16730740848858108
-0.14915758884157754
-0.07089473786584737
-0.30065492734881044
0.042279014213780976
-0.35482994243987726
-0.04857349124080449
0.07620953441242626
-0.18281117972362937
0.01379932731550047
0.18390256903791952
-0.07871880690686751
-0.08841681120377454
0.9621550324457101
-0.057801100677046524
0.04345723138981552
0.2959813990717819
-0.062489055339158064
-0.07103733680041159
0.6460655008983517
0.2145386280280828
0.06713985855380694
-0.14692258633623048
0.08767703212879507
-0.07157397608453346
1.0227528719096597
0.400117669493865
0.017958742317718778
0.0578463652011788
0.5983684222841832
0.08638883430680581
0.06496638386084888
-0.0319817295832739
-0.131147674584043
-0.26360479125987246
0.13466177477395416
0.038036668886275146
-0.10115269381373146
0.07435855639498579
-0.34538831475456727
-0.049707989943313595
0.15673484223705555
0.31607925367984085
-0.12602312191412934
-0.4219365201176884
0.07864750248301677
0.29864674283205916
-5.37713880848827e-08
0.37169641772103107
0.5567598818470403
0.17881391783522824
-0.27400875883754416
-0.40308025523619745
0.18446369820880162
0.013288676137949531
-0.05062846479551115
-0.04383944040135871
0.2672495143038762
0.06752945862211661
-0.17648453346666487
0.06148639074222932
-0.0780045999711678
0.2628688528552056
0.347613888087715
-0.09168955427598736
-0.23202428387474472
0.1350272787683862
0.2523194702115776
-0.32929293766646855
-0.1574707965105485
-0.04221504767387745
-0.1738947471744111
0.12383709342262407
-0.04581663642945364
-0.18689076049532605
-0.37657339161493036
0.16982328447096268
0.1276695017621977
-0.08486004209968623
0.028305584913531755
0.27849617660572684
0.3117652785890582
-0.08377117818627548
0.14902947770555533
0.12785476847330157
0.03940925361413029
0.023081182656783807
-0.04644443382660843
0.05550972984348451
-0.062493228950301474
-0.12806514190827456
0.05926522568503966
0.11402192150147425
-0.01120776251509559
0.3676667920293997
0.050488064374225435
-0.4116799877404144
0.03417848106614588
-0.10926667335193127
0.1283856765987149
-0.04502894293173213
0.36683807332696955
0.03634679214441278
-0.10360082892874539
-0.14746687901319372
-0.5374345907553495
-0.3547171947702417
0.05692434898880915
-0.03735839187822704
0.2437240006154801
0.02955181555322209
-0.09822740951057136
-3.8060135345404505e-05
-0.07249511847540015
-0.059105350495814175
-0.019371263195902075
-0.09325702818908524
-0.08578399309052143
-0.0893968364083513
-0.06426829844623617
0.21517946054018036
-0.06977119931817836
-0.3836807527830132
-0.10720565520139029
-0.1081775064730959
-2.2403769038576113e-08
0.03670335302209894
-0.1035884001236421
-0.0023305558617577786
-0.06668427390033685
-0.1479331106439627
0.11897300619122565
-0.05321830207658803
0.18026009682176083
0.045140715637872364
0.06826517364411654
0.07283882181473327
-0.04771870842731142
0.17666600028862045
0.38712822251860435
0.33616682492964783
-0.4220156619896098
0.03475340850388493
-0.2701107438775882
-0.07548856310651168
-0.044533758082423554
0.017015687170454815
-0.05820291740025563
0.37591639109206465
0.19526660348661454
-0.3218356749364148
0.1113870959063992
-0.18138328560372133
0.09263705089703464
0.00018834534061863134
0.02830139716623987
0.23464601041048952
0.027716767992128622
0.25027844859967274
0.24135174654632569
-0.02404388896394329
0.2324130499226516
0.150299616454699
0.20804182583008388
1.0411409940114615
0.4626489564761926
-0.16844600011036703
-0.19958099516156166
-0.2835715133344796
0.22116668650767246
-0.17462326184819035
0.04249806307880908
-0.15514664280427673
-0.1433446387209905
0.4882001216887556
-9.877021561918547e-05
0.06285646816399808
-0.06737514118815317
0.3734864925642271
-0.002026410918435277
0.020449009158460922
-0.09010115738087958
-0.09069086161675066
0.10557307428333246
0.18416269047003117
0.06358717303419793
0.10941871902425856
-0.13419060399007426
0.2661613094923946
-0.04556509906790822
0.07019932194397324
-0.37854745601590123
0.20956293840642856
-1.2786717296344379
-0.0005842606860226893
0.06338933418969941
-2.4870829544798732e-05
0.18200498502915086
-0.06885679187813416
-0.027395438433292306
0.6444496900426556
0.3592085259425479
-0.05625792914114709
-0.06634695662729324
-0.24786075997561122
-0.06092556697467745
0.0356755958523842
-0.06973447614405259
-0.06309495108402569
0.3498117184614285
-0.05814008651481224
-0.19773505788700751
0.5300850322779762
0.08090064925070915
-0.07703879061584365
0.0645055436736386
0.03145990429210576
-0.3579524885291413
0.4363085044780572
-0.31295215359208295
-0.06989868058026416
0.1421165604814588
0.26429693107966307
0.0
0.1617228415225719
0.14758442518827777
0.5145484621661263
-0.5718982502380775
-0.1401361164527462
-0.16128626404607693
-0.15133711929223295
0.09002780298173241
-0.32737921685585875
-0.089795148048304
0.5100273409958229
-0.11195603039086333
0.3712794654402167
-0.00016824980179157238
-0.37447195396663563
0.08230564441248073
-0.08152306895681372
0.12272519416798607
-0.5879416687241994
-0.22510999594960443
-0.16166032195427735
0.5110077080025734
-0.002423182857438499
0.23985030082827957
0.13567054149508212
0.8628564511706708
-0.02757501868886011
-0.13845948342337072
0.7040431310582148
0.10625857340751374
0.2259623796779606
-0.06186567104388315
-0.053655043690236624
0.29415529910987626
-0.03651526629157733
-0.17032206125007193
0.020555101705553063
-0.08701466055888475
0.0009876257540048952
-0.2528994719634518
-0.0402983605676299
0.03986221828160425
-1.3086285213763962
0.14851732955776617
0.18869803828509701
-0.05724067625527995
-5.483099148773977e-05
-0.09010115738087958
0.10682683339187198
-0.35905578017547574
0.31020385261492583
0.0703180070127965
0.16109201468938178
-0.06969633857327047
-0.06455397458607096
-0.11568150196507428
0.10012310747434855
0.07003195334554113
0.06891021340814815
-0.09658865669521431
0.3388919168093084
0.5651283859896024
0.054440441033916896
-0.08207305787402967
0.03345847026494441
-0.08942370204136472
0.06203168134850467
-0.3260410283756969
0.24527866796918285
0.22050131648810675
-0.05106517733874596
0.2887470340194773
0.5388249797818618
-0.39645890762412184
-0.05768113835046997
0.40514514302396
-0.414269711065095
-0.15402003015242663
0.31854868378562745
0.31173912225285666
0.0588033491161502
-0.06021562652970369
-0.0977736116476079
0.20861321441175754
0.13674865762157284
0.3683232451774215
0.12958304279857777
-0.06943773864369963
-0.09597846580386346
-0.0903562948415598
-0.15163678955138374
-0.22047879210303467
0.23363746399546464
-0.11918137571915162
0.3976265486864008
-0.1433446387209905
-0.04088084351661635
0.10604781644966019
0.11822598889571263
-0.2520165409947624
0.15695041167298437
-5.156303485331224e-05
0.3287799730770125
-0.045487288184450164
-0.24128583446715746
0.06931184567613573
0.254293192073931
-0.20412883984228886
0.25161434157014856
0.26259922600030394
0.06872133879398677
0.23731055415447241
0.07931813794373321
-0.07495577021916604
-0.1122248990345153
-0.32594889619189105
0.11307383562904764
0.2815932633268765
-0.0922302895210459
0.44687640766151054
0.06634363056482523
0.01982884662377873
0.14997129719199379
-0.09238823138635774
0.11992652701213981
-0.8372986828225418
0.23053660525573255
0.21330705092601415
-0.20887404539989274
-0.3578044098475773
0.019300311329760043
-0.29850944574049665
-0.16220949354469613
0.0
0.29277676921142864
0.030322856711168068
0.30455466094090244
-0.10233074094277497
0.23969356830222815
0.41064809607927333
-0.1866988430439309
0.09922202406709452
0.29676260106693125
0.032284102829816176
0.18130656620736585
0.2413711104891514
0.09670511591811036
-0.28663716696298563
0.07928819080930744
0.06731376087235001
-0.16218323492224782
0.3642328588130246
1.0324828947506715
0.09785271169293878
0.12188635961919088
0.1763244341389777
0.1663319165662177
0.17634528449738562
0.13094472208184996
-0.2929783143464517
0.2420366479411219
-0.0514312513188133
-6.32593851033479e-08
-0.2635069518292598
-0.46477503410888243
0.1931132580037375
-0.15853961300366776
0.0422667074721528
-0.38316457079201216
-0.19251624137622425
-0.17092869500390043
0.056957557782220926
0.3021350954620102
0.30184252623811914
-0.03587877283850889
0.4216908892055661
-0.20188375130856698
0.2745119271939409
-0.09033451330415561
-7.231488245538748e-08
0.3163204257287289
0.12313856508052219
0.038528802461031686
-0.13405821374658383
0.12381537967030684
0.27845137791945157
-0.44794683770442334
0.20650420468999903
0.24989332078743332
0.912738030922148
0.45881084933480676
-0.253863989303431
0.06211938727889849
0.17609406598639735
0.11324019482985775
0.10196709778215701
0.0524236372121166
-0.5789908573659555
0.046838090082186305
0.17064065219116298
0.04643865703262985
-0.0411327898892733
0.09129803084512451
-0.20788441558229642
-0.1196893640155726
0.032302960818985996
-0.000281845481332576
-0.6529969072815067
-0.04378923825354636
0.12188998118399202
0.3167816618865741
0.3645275893834203
-0.09991118180883003
-0.06416395304630501
0.0648916531963479
-0.21904797249503163
-0.3797281090417163
-1.9236685511953137e-08
0.489653758639791
0.30135328437324305
0.07848191093912918
-0.1052419008102501
0.07342712915471247
-0.10883071598489663
-0.03450983884433859
0.03921538478216309
-0.20148289725672386
-0.12644390976441472
-0.04568337814519138
-1.0143341602477223
-0.1353153094098423
0.4057284629703076
0.13170180660318592
-2.0624901693274715e-08
0.07284610537523414
0.09932741353619975
0.17947907951325315
0.07033811584823522
-0.06678466840576029
-0.08957435314000566
0.47266808203059624
0.01074010751870527
0.47337438953792976
0.054971104725912885
-0.06676195722233785
-0.04975823252559245
-0.10846054250062213
-0.15598780958625458
0.0687388571183821
0.08291855220926819
0.05418363114866978
0.2489207234982476
-0.2218647223700072
0.15015132016951996
0.1766593846844178
0.13332092692610786
0.0432922962269076
0.05356122430937686
0.013204869553569804
0.11038353179522535
-0.06885058030165665
0.028764358682934137
0.21478818226488325
-0.40033658385640847
0.0716133726850853
0.02135062554012107
0.03860695167292814
-0.09854535561377478
-0.11176439983010655
-0.3900119632993716
-7.094222503601688e-09
-0.000132894445579011
-0.04801943664776653
-0.06728188942712765
0.04403530060783708
-0.05938484187591158
-0.13358433270367334
0.31863448271292266
0.2933268678158558
-0.0004117234262566229
-6.472904907732702e-05
-0.2135009466052599
0.9540967971293256
0.07300381412301896
0.031066743830920007
0.02887391616225593
0.2564861208745413
0.3081527298551791
-0.1497786433670108
-0.14432586792057084
0.47796463436446324
-0.16448981931637097
-0.12746661539099452
-0.25543389144234646
0.5974584153516297
-3.168145665601937e-08
0.04162788060054644
-0.0885649280748942
0.04709357550578447
0.05085258342862777
0.056996564388326766
0.2496677541685973
-0.39865530871138927
0.04863688842940436
-0.3948991477056419
0.07117404167444774
0.06240714672451757
0.20562171343341534
0.3431424673306946
0.12245449076277941
-0.05693755197369397
0.447564124465201
0.42757105183477356
-0.06631777768061956
0.1438688609858072
-0.12725702169913197
-0.33840549049258667
-0.14983342015024517
-0.25602582765013876
-0.3490428828099801
-0.05807632856138854
0.03202030236672696
-0.6956343285423566
0.16493242032803176
-0.0033281085617201524
0.4008607936652313
-0.1152271801034962
0.1597894053150354
0.5109160105403373
0.06349539997301523
0.1420356272607785
0.14179946188055426
0.09379696668183557
0.12605827386767093
0.06517557501894333
0.04392856513257017
-0.07203941334336497
0.20752078991836082
0.06182507405611622
0.0949314036892008
0.15721894542242001
0.5794685974902054
0.20859526948357773
-0.17622015166886912
0.03574796702106815
0.0775532503163748
0.6996016871222432
-0.196665656598491
0.2354008219066808
0.221605522141485
0.22990367910889029
-0.3138076576233308
-0.06714076957979889
0.0502729381208766
0.15799008532730924
0.14662082947448263
-0.22748040287121515
-0.04349188944309492
-0.4024900461803382
0.22828040909135264
0.3837234259330445
-0.00028119488732994196
0.00012076403247994188
0.14084751311607702
0.3418780156351882
-0.4158677521474812
-0.5186159591835307
-1.2274582846590718
-0.05348322521960146
-0.1781829212505483
-0.09359260070403054
-0.42511872566679215
0.24342649948608797
0.25896054083993747
-0.11422035617115119
0.2855415733858527
-0.09314529206648556
-0.1495331439879056
-0.10190326488222357
0.18550608640775898
-0.10344036660864604
-0.1082839083721557
-0.13310465787784842
-0.28137866291145625
0.12958304279857777
-0.06978202185379981
-0.439636013292732
-0.07624778169366016
0.1525135327579954
0.039820982423217785
-0.45387417344444975
-0.344330656730781
0.3025976339231931
0.4975929676804341
0.03469281624858487
0.04883303719444523
0.2351864690182016
0.025590970619427965
0.2877599214185789
0.1900174303231483
0.1737270484247087
0.021727331455182852
-0.10734218931312081
-0.3748272595127548
0.06995691695408643
-0.15529617815136937
-0.3130726384099349
0.0910021392734417
-0.8951748159971715
-0.09042932663958439
0.2574664993535292
-0.12240115140319197
-0.372921297219554
0.0579078256672324
-0.2232046396949547
0.40794978270034393
0.259245193026679
0.3398116300481152
0.02511551504170469
-0.22943305507361755
0.07103305886831797
0.23703543363506585
0.38149053359139223
0.06284135249659557
-0.07777683805239508
-0.0999317305391279
-0.285409719475887
-0.2927669719079994
0.1756878894762135
0.05616004672826973
0.1621538979728673
0.09991969539285382
-0.07491145810612097
0.0872736513067943
0.059630240043746986
-0.19374841645892008
0.01665142931113324
-0.3155857576069256
-0.08158283650781986
-0.25388053392777954
0.05292451868990094
-0.10890588332403114
-0.24286604860860653
-0.07750906157175325
-0.3268535207473885
0.050462844779371435
0.19073890289594883
0.4733903253623925
-0.42560132255120725
0.4241400929593265
0.26511589100762384
-8.35835562711855e-05
-2.526585250871714e-08
-0.7729700871898985
0.5515554996582283
-0.2849427811070441
-1.203523107535911e-08
-0.13998988674681265
0.6655929978615336
0.29859994630907677
0.2447674578198447
-8.497256159654874e-05
0.20631660607143146
0.06267376655299588
0.13091833730053948
0.9182913026999611
0.19137087814985276
-0.1502075730191942
0.22644341026713513
0.18642632251356392
0.3128310061125806
0.174400545813821
0.40832930140012563
0.03421403801521627
-0.34856727644768104
0.43917447470264337
0.1391665750495219
-0.0768101235807275
0.07659020321992288
0.32057993505691446
0.05369145051144391
0.6378461204665827
-0.4046730565781939
-0.08299804332342631
-0.054372286169960725
-0.06428223380920103
0.04917765473323711
-0.08275772802791366
0.025458472478555236
0.12201372757794993
-0.43867879525464926
-0.019475452586641104
0.16810076412701366
0.10068220329570456
-0.3527296071211619
0.057729307212739056
0.18430186220593203
-4.677314022143944e-05
-0.5594085800770052
-0.09181831828598032
-0.4469307254734795
0.2547303717708218
0.05642858503798571
0.07274317413242486
-0.10629384715324043
0.0478058923081532
-0.2943227796302015
0.222751784232919
0.16436918131112974
0.9671128772891378
-0.06438199047110972
0.07771671636824729
-0.16296593390634775
0.09749222423619092
0.35169348362896713
-0.3785894945573696
0.061029801469598834
0.21130961662162673
0.47479107220227645
0.19038801580255874
0.12369558193841657
-1.0181922716530091e-08
0.8007653618187985
-0.25738330356584543
-0.316496528585723
-0.06899553896366926
-0.07784533883692173
0.09475438326367723
0.09772397757034464
-0.09124833704510228
-0.11344742826591472
0.25666312120920265
0.14415904161786577
-1.232854827877167
-0.3743251598702083
-0.2582629133111748
-1.118002490768433e-08
-0.44146799722179686
0.210070315958976
-0.11828946892001913
0.12933745694594112
0.18577159190660208
0.11312504716252043
0.023938276002813386
-0.4403832816123664
0.20631660607143146
-0.0003261849037428211
0.9329965630485461
0.06829987674518023
0.3139126140229976
0.14014957278347265
0.13790453024256402
0.13686936874553263
0.033822004059488577
-0.2041854613816495
-0.5287619949870803
-0.11113340056377413
-0.04247934523488218
0.1725926171676882
-0.3120087891495388
-0.390592145349783
0.04019219246240371
-0.0854450722022533
-0.3233117614675326
-0.1508491882014965
0.19165286484400818
0.4451627759325053
-0.015402374866061937
-0.3665151247451545
0.05616004672826973
0.5535900494153165
0.06635189952726449
-0.5058800894634137
0.05005350620556238
0.022301695070589964
0.5830088627892889
-0.423345059082976
0.22030655095556947
-0.09169239890622251
-0.3715027152839708
-0.556117872114705
0.056893332377092196
-0.14123931992646196
0.0005510501913588623
-0.24313782279271234
-0.09643821823885776
-0.08987638482848352
-0.10513888548053302
-0.14123931992646196
-0.5121442882608176
-0.21646698100961748
0.11536917672229155
-0.36352717394089706
-0.18789232100398193
0.3112636950886653
0.07725766546492716
0.43914026245991566
0.09142098374697864
0.11139845633982327
-0.02832034752526544
-0.20857390333421227
0.0411828336923759
-0.021798132097996675
-0.6534309983527739
0.0632442110994831
-0.05776556377821295
0.1716097562169826
-0.0720358878557012
-0.11851371010033034
-0.10764645892539834
-0.1484245710822562
-0.056454511651228216
-0.4746950428515138
0.15863961017760173
-0.10729477810705271
0.45091051905481466
-0.36485272357390797
-0.4356694037449711
0.05647883435751342
0.1677911939193259
0.056594626803932166
-0.18392745364896348
-0.11313125507389465
0.27148126176309534
0.06329032276481335
0.016294409762230164
-0.33184665783635986
1.0847024822200444
0.015044157514750285
0.054895514847486275
0.15259061409997657
-0.13941315651551817
0.0319911506137693
-0.676797050434495
-0.015266166408252378
-0.12870598175076212
-0.11133434838395097
-0.41726958280109727
-0.16490952879624385
0.1426362918563261
0.05926522568503966
0.19803227053036138
0.5334006365226545
-0.1381245584406623
0.0783797644462219
0.06253419022528066
-0.11179445680574822
0.1743364600697916
0.16224630832374629
0.24489991005492237
-0.38412335099243
-0.09643821823885776
0.14131801678973124
0.1305154143411371
0.5290189059724281
0.0
-0.6465724173002056
-0.07908534524556232
-0.4502209444901982
-0.08689491615855481
0.047986252357052964
0.04409455868681155
0.10835254264535257
0.456987792646218
0.48756574039248374
0.1884723992362431
-0.0559022036870726
0.18042592830072093
-0.31877913709036576
-0.3152942743087183
-0.2112780835529876
-0.07209561495211386
0.2421902955063266
-0.13020768394552149
0.05261546002182766
0.5293392180410148
-0.303001131697852
0.14742844564264587
-0.07000801699031152
-0.2611849634516724
0.10557307428333246
0.06408494646330949
0.2778563232725177
0.30317907153605517
-0.28137057318786424
0.043765878331756165
0.0
-0.006763714801825064
0.06611096391032788
0.2913959469614165
0.293282972612092
0.2826268110778488
0.2027696416607691
0.00011156733058693976
-0.10967901101203945
0.32382162946574794
-0.354822346283296
-0.7313683671500781
0.07278742734717734
-0.24196029391086937
-0.074082767705884
-0.09469981834898213
0.12364027376820033
-7.027528020328768e-05
-0.2201487660852001
-0.12418569125758137
-0.40638553895579804
0.06014169969523336
0.020157399989565727
-0.3128316649272645
0.48574908198682076
-0.5397285404807045
-0.058527081744732944
-0.07548856310651168
0.02537910164135426
-0.07152417052049602
0.2236107810106137
-0.11384514853169764
0.021576368519840655
-0.013185861076222043
0.3150824763591543
0.060318634571921714
0.31236161433664944
0.23600046157295732
0.04564141276104382
-0.06541549006604681
-0.20310959349336521
0.1536617816576363
0.28076491900674894
-0.06800541399418875
-1.8379243505643895e-08
-0.12111941102297274
0.05284733224279839
-0.09690863490583985
0.649471442908983
-0.0004367772190685078
-0.12122295336093171
0.025843009108723197
0.10743748276572936
0.16818453982297216
0.41676036775159725
0.08055006195718366
0.03631630019812709
-0.027312002382883796
-0.0894501519404444
-0.07337515328672216
-0.017741720984824915
0.37386577349611444
0.10857042034642708
-0.4139067526134248
0.10698570554244208
-0.374346981607211
0.1016013255310915
-0.39673103947306027
-0.219402399622956
-0.8436342683684113
-0.05789251310536054
0.21794037358257337
0.3080968353282764
0.035699290209630564
4.916688626410759e-10
-6.240525755721928e-08
0.04718621605636672
0.05080841608875115
0.15188172796119215
-0.07964268801437362
0.021228792770875863
-0.13867375343560132
-0.030618911711468022
0.06736762463897006
0.2522820451511397
0.08336161781001478
0.3549812485864891
-0.12511519215810052
0.4141922335529199
-0.13476402029236817
-0.9953220656614652
0.0353026819726278
0.03257041553318198
0.20822414441487047
0.2183487441986155
-0.0681775721489395
0.0
-0.08317073138289965
-0.12994543803796108
-0.08391838214532578
-0.07068309656518121
-0.3749674050952589
0.05846139734260927
0.05574079230431857
-0.09857398610193042
0.1513730224623209
0.21668665141430793
-0.3874871031670477
0.26511589100762384
-0.35535156967456094
-0.3555857436853722
0.19366951206071242
0.06713985855380694
0.19720504187730184
-0.044987163531526216
0.04417686126752443
0.22256971355940225
0.07234157903713175
0.3177571830388131
-0.21533764427613952
0.3315278974954946
-0.22896202575157576
0.4229942414566098
0.1555075926910399
0.17858239804871584
0.04632291517681353
0.3411097458956875
-0.20065630781803248
-0.43950394580868557
0.3930438253797341
-0.20576121886626048
0.017249658178727437
0.32436836120110357
-0.41000858334853674
0.22998806845844522
-0.10068283437200815
-0.10628179638610545
0.07395605665351122
0.06002770169594893
-0.010493256239914728
-0.19355141223545083
-0.049861228005562766
-0.19233751160325077
0.14749904718608348
0.23508003418749374
0.40008841648109134
0.05523616225607567
0.041853460798885606
-0.1497052484563668
0.15603925981458344
-0.25299176518550315
-0.2632632901220382
-0.24305978042083756
0.21572260911418165
-0.30467352710274215
0.39042136336735417
-0.04403977861503504
0.17651199355749125
-0.2336675743267891
0.08171622855053332
0.21686306545081027
0.1698058200440786
-0.04844356961976823
-0.13805545516172973
0.26597262903814506
-0.10803450610271915
-0.34215609559500254
-0.28439928052715374
-0.045487288184450164
-0.05205258446910245
-0.08543234009282613
0.23012214585047644
0.5698666609077447
-4.4816878725477935e-09
-0.1826191453432515
0.02560544522511994
0.04616782485516753
0.36447782785941485
-0.0463460078080692
-0.10924222283071931
0.078787764665136
0.06535974253432075
0.17573069691736412
0.28245858733531337
-0.0002079054607641655
0.06821798902808329
0.03871346962373707
-0.1721892525244369
0.24629123872165587
-0.4260863122027565
0.0423573227112662
0.08508784264610093
-0.04400898619199698
0.038307805187459604
0.02785295169785178
-0.20379889194338732
-0.13387687185399122
0.05184729846727298
0.2226861485566534
0.21110713473427475
0.0353026819726278
0.3484653396694342
0.25918619771436296
0.08673303746489137
0.060924670074200306
-0.0901626562653904
-0.4539530419973037
0.3613939699014997
-0.46946537102547714
-0.21535650137569606
-0.4206736705181345
0.07946527255213522
-0.47606769118660275
-0.16938368450778582
0.550790035511636
0.09478575223326247
-0.058350124126579944
0.100202312761732
0.3278144606097668
-0.3452962205920907
0.1676856870042941
0.038036668886275146
0.06457939937115387
0.21926132330461903
-0.09201224479397394
-0.16010752504918674
0.07813824718026748
-0.21644802357181717
0.03614137535149973
0.17991521929596996
-0.21108035559536883
0.14309408353065547
-0.18324012485998847
0.0904734071538288
-1.1417546941864134
0.07016921844871256
0.19523670193645629
0.32451331502477826
-0.2088834447600183
0.20362669097317304
0.03660763966388366
-0.4392333429885173
0.0781461721726273
0.04282915347950943
0.1733565988699484
0.4834861378423416
0.11662486676051442
0.4958310392013702
0.08069162579714553
-0.08393992952680851
-0.04947150943874289
-0.060736548555246114
0.26462045881680907
-0.04711930613173985
0.1621282158155044
-0.08912934766381957
0.60456255766634
0.06436887737637424
0.10991107915872138
0.30128548152981327
0.21576019084710785
-0.19491961746075956
0.07943623727574362
0.22961087356118617
-0.22896202575157576
0.06943789020948334
-0.39685711308072663
0.10714376306874654
0.08197261923953725
0.0
-0.1370074411959647
-0.19954890192375618
-0.1768854085078964
0.39559315112515214
0.3379772730760639
0.11992191913516204
0.2694175379387111
0.8841675610762942
0.21017527396293922
-0.05736892132799057
-3.383548590934392e-05
-0.09072506238519681
0.048489434774763515
0.37609233199341735
0.05387312516661099
0.05082463521512721
-0.43788778083014657
-0.07023121227251927
-1.8435125145955992e-08
-1.072367329511851
0.0029002547459877834
-0.3389783081449941
-2.9118133364857083e-11
0.08478711528552005
-0.058129715701409505
0.44216034595437603
-2.5908751665081863e-08
-0.04276450144181416
-0.1585860670940935
0.03875628209490002
0.02780911209879193
-0.12728644448439558
0.306801181281234
-9.546743589456466e-05
0.4369954257832702
0.2908585704757171
0.31297525397658754
-0.2268464639595793
-0.0862045872380018
-0.11261982718607569
-0.09950482575573974
-0.5657897533821487
-0.41073218073312523
-0.00019757781691703073
-0.043366433162393775
0.08153227053825518
0.06331296172846859
-0.224682587927767
0.8995738487853141
0.07556946796061875
0.35062923297381315
-0.40837635680109147
-0.3825086536703519
1.1411743253341378
0.04852696738979807
0.15877304993720393
-0.16839872690742233
0.06936739460539905
-0.0361001470670921
0.8703091382762792
-0.0578427098594935
-0.34448526902385895
0.32342777543164797
0.3542026120727809
0.3123542770064792
-0.06638602625867253
-0.06830542629191932
-0.04045973952836549
0.2369826332758347
-0.05587563170908669
0.059424532251567554
0.2023475942397402
-0.4210248236661183
-0.6237521316599032
0.024146752270685714
-0.25473344088790106
0.633192260575516
-0.00928572408616283
-0.3797281090417163
0.029373282596220292
0.03394206814897545
-0.029113660597182883
0.1192461864858656
-0.1227792804076339
-0.5734197385447265
0.20173892212514247
-0.40943245998798233
0.41255858873753093
-0.30022078849728956
-0.32069242101210105
0.8248167973181595
-0.06503243827372454
0.03669809602202566
0.26150990533009494
0.10446465960358764
-0.06718177194382129
0.013917183928130341
-0.12127143389152377
0.27698274547807267
-0.04242453604169414
-0.39623262777268103
0.5258768677671767
-0.2910349289937789
-0.036595618719043224
-0.19773729144752542
0.3316764161215715
0.07557811146169947
0.2991191865150977
0.21867849573509474
-0.11124628004903467
-3.015839915538775e-08
0.17991521929596996
-0.3399341022650017
-0.32897354897164827
-0.024888079450709803
-0.2717177753619912
0.04614878379741972
-0.0614327408424708
0.20812750458486823
0.05232358649476998
-0.07480045050396791
0.17331155952001043
0.07028999999865015
-0.020971686016977423
0.053179749258242544
-0.2821049807481845
0.017249658178727437
-0.08409440626832301
0.056478277795224845
0.6166141932711697
0.14913188522923368
-0.0961636442419857
-0.9333915924400418
0.09932252320550493
-0.0849951634575485
-0.10938695381623319
0.08631984277957665
-0.00018245363246008746
0.20100908717384233
-0.3780097692952059
-0.2407116002431808
-0.0634430092179865
-0.05606668682182801
0.5816891071996986
-0.1990777167591443
0.3616826645799664
-0.005886585043675737
-0.04517861673183084
0.11270439237757038
0.08326843296939006
0.626945540245354
0.038297637152214445
-0.16016576678692682
0.2598509812633001
-0.08306719887435468
-0.1676965521543887
0.05556123731089566
0.0803280410569668
0.08841513872331357
0.252727863668283
0.17571153047439714
-0.5179392397875568
-0.26659511675856223
-0.0822576259823961
0.20867679011350074
0.3398499418321553
0.06407666848897269
0.3001798168305013
0.11693578904407059
-0.40179556908102326
0.37741307805190216
0.11582807709176296
-0.4238180409284591
0.05026795027877816
0.03335594393037539
0.052355098687438546
-0.08915023065630615
0.08648691258816484
0.1174248798890285
0.023938276002813386
0.16883936825080206
-0.37615133718286237
0.040852654646732316
-0.12216541199141888
0.3495567344591995
0.18249488899600838
-0.5253306269224756
0.04661599481930489
0.07666062175422157
0.14354667423726047
-0.3286850364375828
-0.042327748233599534
-1.5770129184348826e-05
0.42946697183323523
0.17167266369624834
0.0779725213043086
0.0
-0.1361219695630656
0.22386502947135886
-0.06070939746567246
-0.03498631232935239
0.05899300904834104
0.25914670828521663
-0.08206464838268289
-0.12659029108910627
-0.13390708067077395
0.10845391063866112
0.2726764859487009
-0.11688367184981883
0.2508580582593622
-0.22151561650379875
-0.10489860896482243
0.11199519196157458
-0.07608251239981276
0.043617887473947146
0.3428102647427971
9.803296193187805e-08
-1.1257349034774424
-0.008211698713102032
-0.6083882415632862
0.11331429676007597
-0.04496937858913673
0.12789333803827213
-0.11046934062760441
0.03026345195860894
0.2128473849474455
-0.0764382234766801
-0.350886611412981
-0.2795398932521571
-0.05205976353770563
0.022519130061238724
0.03340958297710862
0.3869177611122884
-8.549226942173035e-09
-0.031017451860588744
0.07156714966522221
0.3370794082443257
0.1454811513805314
0.6676915133032074
-0.42872351262695574
0.1942221240337577
-0.13349042648208367
-0.2642081397485226
0.14389883883921636
0.15539158653121526
-0.3015308423310242
0.09559801906007503
-0.14385573451458622
0.2580075883733696
-0.12357870853502417
-0.3324598550757618
0.48745827458519175
-0.08826842967313099
0.026999239907801873
-0.23209619837469808
-0.27132946711838707
-0.08098343175059142
0.5860750239458555
-0.38687150749670596
0.08626371438317414
0.05885904673598904
-0.8514872626883525
0.04139231047084761
0.1540827152788628
0.03690216814940908
0.07946386864899117
-0.05367342088003889
0.04475410552609114
0.07954851658953616
0.25743669609434294
-0.05587563170908669
-0.10684951651437333
0.10279192721206705
-0.04504352790961486
0.08322141514018484
-0.6199862824320249
0.3427325857799593
-0.05815088475672903
-0.3416093190732762
0.14851732955776617
0.05565793482555732
-0.5889171094694913
0.04737146489061655
-0.23404579483549712
0.6195593409837694
-0.3735570552142846
0.07083061828569438
-0.43725682435418106
0.06656662530443812
0.16275322715817142
-0.1178385729986607
0.05410062053043657
-0.0864772975920456
-0.30358871479460897
-0.3484555522513854
-0.03896201736565647
0.07717386836929087
0.16169786679752668
-0.43898485801934134
0.07351312637669559
-0.3281787432891782
-0.414269711065095
-0.4658330153670307
0.08764038156424175
0.6071720199955385
0.07503761013789949
0.23287846890374256
0.03810227575541117
0.1917584879264517
-0.05103912887832225
0.17249590977779336
-0.23335347482105867
0.1716097562169826
-0.1996844103129662
0.4553745789741461
-0.27634135115396435
0.08619460467364426
-0.2580054195419102
-0.1886801999111931
0.309765085038885
0.08923615848766486
0.45862456309274147
0.3954046807388828
0.9188908600661196
-4.3413877445635626e-05
-0.08128828549582975
-0.12282916616914967
-0.306404499630178
0.09515857590927233
0.15961786938847294
0.09189934691077062
0.16761602902056555
-0.00010533263654169568
0.0555290306121821
0.03927970047060338
0.10882106127536063
0.34889365458599253
-0.5349179563883297
0.4315546324292859
-0.0921619523515556
0.2868499647614465
0.04129082165749107
4.603387450095797e-10
-0.6531264135724558
-0.29919651460573443
0.04935677291248472
0.24612095003900367
0.5777643059519344
0.16277336615822532
0.30886545887603223
-0.20525819745189117
0.024305662768960193
0.03744883531750003
-0.4100338423002776
-0.0343626030254467
-0.1832440432520042
0.053889442748323725
-0.2293200247387256
0.4109222896201351
0.0002225383656072221
-0.30427728032846774
-0.8225376010303073
-0.15382894738965658
-0.41692189345019876
0.1389960941943477
0.14907428253197474
0.1287478028155916
0.037706378742246395
0.2386468905515332
0.23068034287113404
-0.04989368180860777
-0.0673338794516453
0.204008550190715
0.023808073048622737
-0.0721026125136138
-0.0018224754173371013
0.15544045045485957
-0.12975239403471361
-0.4266304189707522
-0.10009652715887915
0.31263542228700564
-0.10958213803565012
0.13530210581058566
0.06919816165944283
0.03634473713586281
-0.2931836188294202
0.29476996390644733
-0.14248497457750156
0.10650823056495907
0.23953142010413328
0.100060577608095
-0.3148291087451861
-0.8383683022971574
0.6002864634451333
0.03743471289181509
0.058178559944271006
0.04633712023784855
0.05485528741760751
-0.48551383820658645
-0.15340896821504352
-0.3541148504042116
0.2884569616310697
-0.07338068011613862
-3.06431075427711e-08
-0.06824432754130881
-0.36520674280277166
-0.00018376916809059778
-0.1041352001673326
0.7898826967353718
0.01663392174130435
-0.04635005922556788
0.39369081624208135
0.301075457393808
0.3456804486566241
-0.06809577814145895
0.2797154558125334
0.6007371727336678
-0.502462105499793
-0.2902539571999651
-0.25742596475712465
-0.3692530243703508
-0.6961088450728574
-0.15689945155633397
0.2642123327572326
0.3820259216354024
0.2606616555899079
-0.0563567246741611
0.0866774584724879
-3.600219691415371e-08
0.6143666198668468
-0.037733454410540095
-0.35712602895051776
0.033346443811058855
-0.24160755727254446
0.28134089710418864
0.03939413911186728
0.3926846206240191
0.05908969377931925
-0.086869956438036
-0.12562117394060557
-0.34325221701774045
-0.05962320999025052
-0.5785869680316175
0.03432049217373876
-0.11136000871069657
0.09189143263411552
-0.31975849365031905
-0.09775602672679477
-0.09171778000097447
-0.23849059347858254
0.24969373895898503
-0.15705127574811203
-1.0440774742999176e-07
-0.30666886509332447
-0.1566958242419013
-0.47965395144588246
0.25485975578913894
0.21190866979040496
-0.38317737507728516
0.3736348704587879
0.9689198657835003
-0.2418389223139527
-0.20139241339164252
0.034849876064314576
0.5409913321982217
0.04346336988541588
0.5285606074080013
0.13530210581058566
0.1535551755913355
-0.13105307267081262
-0.05118154288903822
-0.20254633475267436
0.2565793295890911
-0.06123164153183298
-0.048560418756139034
0.09698547012661961
0.3977722170683311
-0.23641143953845536
0.07909346349378149
-0.31266226755832843
0.18439480766353006
0.08900131240126992
-0.07039609339283887
0.10928673087497967
-0.15241230077567444
-0.0005874617262637332
-0.04219792303190952
-0.05473831080847408
-0.36373191239209246
-0.3947641885081186
0.03565875401943826
-0.05816824983968441
-0.01688099924447453
0.2380554925213938
0.06706870150879311
-0.16432778581913665
-0.06598628698982154
0.5304373519842238
0.0
-0.09207534332438339
-0.0932025255022133
0.5705967998680412
-0.2926041764306016
-0.38856808964609446
-0.09942488528104514
0.10056881722132209
0.31903272720309883
0.031790468246173785
-0.34567626209377267
-1.3404937635641102e-06
-0.11535094209036023
0.27498996696996203
-0.39632900407442306
-0.638070446879046
-0.13113732149474341
0.14547389810427466
-0.9804622716885724
0.02131245676907768
-0.253821394218863
1.1551424864828923
-0.18570456114848843
0.17825105025576704
-0.5190944836558039
-0.1051810759098428
-0.08042444644396977
-0.04769324679155508
0.37847435005581237
-0.0915261585723707
-0.11143319947467852
0.05404739056315519
0.1355533549255833
-0.2672270773885479
0.2123356570432563
-0.02583495380069362
0.1357850933923144
-0.20522723621407415
0.12922077565659418
0.1339057866199187
-0.2603407755440539
0.27556867112388556
-0.41096067033623207
-0.04309698259477904
-0.0910710580225447
0.14372678422940233
0.048304873549352055
0.24186748914362818
0.41858793258587096
-0.24733897048325773
-0.2871668355060885
-0.13053605250083536
0.30876833238207
-0.4219365201176884
0.10616862372496191
0.05742078393154383
0.4426995538342313
-0.30051491094993316
0.5792646249304374
-0.12160296300737215
0.2822511466621867
0.40291551472966114
-0.12345620712092911
-0.2191340864647042
-0.07178275385835522
-1.0964786337030117
0.0298756054361159
-0.2664391309186218
0.18088191142314042
-0.37546225017955887
0.07049108723548862
-0.02583123899127625
0.0445530892270095
-2.4654597610722705e-08
0.002111867194537653
1.253424665706187
0.25397501346711365
0.07227305990011895
0.29927199305608704
-0.13383842516649228
0.039362213719792746
0.6995632393027077
0.10194721513366505
-0.6856834997463932
0.59682961819681
0.021094163925305057
0.038851025560417966
0.21108210123003793
0.5121935293056327
-0.17032927675779164
-0.1366029691044735
-0.31983512545907805
-0.07518134615637423
-0.00024117904322921223
-0.08026619639137808
-1.515885005036025e-08
0.10090531229392802
0.4927832881704561
0.14964703054860784
0.22096424423980748
-0.1324110899732204
0.28538383876117496
-0.059039042808344745
-0.2396033150852602
-0.15427401274496833
0.10851738536159267
-0.07072961500405564
0.23991131956002387
-0.09836662178802498
0.014747837403792709
0.18714314150829903
0.1597894053150354
-0.03234591843485652
-0.16040500885686215
0.08468873952485215
-0.17474195249798477
-0.5452193371835704
0.035768269279936434
0.03170626160514554
0.17113530278534622
-0.32446173615035034
-0.14368420695656192
-0.07720341961402384
0.3805081094101887
-0.056103663715314875
-0.38491871055756927
0.1279930809268579
-0.1275770573900499
0.07520958719502766
0.37075075177277783
-0.04974650633483971
-0.03385630725262535
-0.5582294090145901
-0.07896848233472273
0.0
0.02361172289402692
-0.0931556574403098
-0.4365786854421259
0.11122268928370108
-0.09396870079549773
-0.2177601469931048
0.2787175124839634
-0.32054967974706816
-0.060617509329974235
-0.14900356555802852
0.02827309763496682
0.019995298725557477
0.0
0.03699435764374227
-0.06547266058245235
-0.05748208542266431
-0.1678739816177293
-0.01265515351496096
-0.21149860095446782
0.11405824770451022
-0.9219737190630491
0.07367844046783692
0.04201118727996002
0.12305646653546509
0.04152307682059666
-0.12965922061761515
-0.20009131486062243
0.18203112888794357
-0.04957039295727146
0.03155499811383635
0.6739152055403763
0.03963700470158351
-0.0168406955483138
-0.32724675793639685
-0.21406960218139134
-0.08246317188105633
0.1468897886617626
0.021164813947306984
0.38148694654518234
1.1031572168901391
0.12423230136897027
0.1971824331431271
0.13526209595438715
0.7239191384190208
-0.36527767323447863
0.0688989699066267
-0.042155825210647764
0.0765210200365672
-0.43051296258102045
0.15432024369698188
-0.1160962576436871
-0.18474206158695877
-0.11580431861595611
0.3405530341325408
-0.1901844918520819
-0.10045762524998754
-0.1336064039478028
0.021794985538213022
0.212275366575395
0.10358277580445198
-0.40727099897910235
-0.09757289763207254
0.11127397307787125
-0.002485838623532162
-0.42396555598576735
0.2101860509564566
0.0
0.06580022465607391
-0.13087066339308878
0.04595061461924075
0.05966655913711596
-0.11944511768309286
-0.10770353272721016
0.03664876278369853
-0.1377432968103253
-0.002737986052145808
0.037459953972123344
0.26527479102140994
-0.9581961016405223
-0.044987493881356456
-0.07428871646121153
-8.972774259408409e-09
0.08601428374191715
-0.21547698055146974
-0.1380740924840211
-0.17656132582253217
-0.00011033790017059925
0.05632584611151235
-0.05830031953909158
-0.07771966372922641
-0.513393474705536
0.030484174037345598
-0.11907098444562123
-0.8716348981867811
0.36377570642823165
-0.05147262697003647
0.04364942620644245
-0.5622678306177046
-0.21261988385645347
-0.35837372613550794
0.11873339527968214
0.18686517733308436
0.05743652494065606
0.21725425374819796
-0.17108628817415317
0.15975549553362695
-0.05078416957043595
-0.04897311379817119
0.06192964704114952
-0.09189334684175247
0.049970482191569555
0.18549095937729917
0.032417443634603374
0.1230343981220552
0.19727528857196533
0.2599200620516984
0.17388252890485198
-0.327972972177699
-0.11520974718335975
0.5382802160579621
0.12785476847330157
0.07865676531001717
-0.014024253381322675
-0.05566596627411466
-0.31423864294069165
-0.0671356695386791
-0.04911377152397252
0.14512541441232477
0.28317742030498316
0.204833247672204
0.032914795480831524
0.1620646669832002
-0.22015434271118617
-0.03870982740034068
-0.05255459025079692
-0.45336375987451105
-0.6806780497853367
0.1113870959063992
-0.18917736989886558
-0.40190890091397646
-0.134738227566881
-0.35218329062958903
-0.2291003294040785
-0.08536969471889068
-0.3050702405255223
0.15493652492178736
0.6885571547831028
-0.3460553736301088
0.21708404643970014
-0.013405133770345436
-0.4174196617118248
-0.1288570279794268
-0.43352647420013424
0.029295260364439597
-0.21923842071030886
-0.1014909264244436
-0.1934542534557992
0.34029735703939146
-1.2425891670490306
-0.09185932643541574
0.28388187363531775
-0.1818961196015268
-0.3454882401320023
0.20924255487224797
0.0007122730251694814
0.024304181829550704
-0.35199203584433925
0.0796865083030622
0.1622945823610784
0.35166329095928905
0.005359681817778205
-0.22518106429335055
-0.07322181942057548
-0.04212479775323262
0.681176846669045
-0.1794727926109409
0.7674203980914611
-0.12524543453269055
0.182274456461793
0.5115126909090563
0.059489408454020384
-0.08734505756452245
-0.16711464949285737
0.32265537079936535
0.18907155378098248
-0.20828516281734658
-0.11278589876102962
-0.11504286249017763
0.1553444910732045
0.18878941218302928
0.07470863739155141
0.35306692187994243
0.31658234025812837
-0.1524887687202631
0.05730211652332302
0.20210256874015364
-0.034316168613720464
0.003954329650306413
-0.08414637773968099
0.9184408231177635
0.8207526482297471
0.24897507367587984
0.08139595286525682
0.40770569327039957
0.1659279508921746
0.38278353573372814
-6.819977784499363e-06
-0.1497052484563668
-0.11180506390338708
-0.11028729073792423
-0.10655648102060077
-0.08656638436894819
-1.2446233704768617
-0.14853283837382844
-0.06419792515485884
0.10454517840718079
0.14008276573919917
0.3721169984540558
0.04738726059527187
0.1237144124825577
0.33524816896391385
-0.36733104824486495
0.3949673644977454
0.2359811718518369
-0.24145786917455284
-0.35681721275349276
-0.4264191110900488
-0.054396862340690036
0.3826301347782101
0.19065034885087562
-0.2400896798390031
-0.15397364312110734
0.03628622256633427
0.21004185526099628
-0.06746909669606971
-0.46195417291863733
-0.03469436526952126
0.13499675646845274
-0.13244277273665664
0.2563849998176059
-0.2399917004575155
-0.36881281356498047
-0.3190063177684519
0.29662906383812127
0.1951487424675389
0.062345798495372584
0.15378304101224516
-0.1287460261281994
0.09689585257468825
0.1562455096897351
-0.028683930846247985
-0.13330050811694674
0.040721883822074624
0.13850991636378882
-0.38981675407047667
-0.04894948630879369
-0.18081325500069462
0.08821878549762396
0.32691701440096205
-0.23156109526936328
-0.060652176881825684
0.060307082124402715
-0.11564756691276272
-0.17177021108384413
0.39051233584775963
0.040669387408753976
0.014425676869757882
-0.333070935610334
0.07772733791809262
0.1368057820243704
-0.12243142973490657
0.36458980955721065
0.24456635952451622
-0.05815635453006935
-0.040314379928323194
0.051518843945422464
-0.4356886602187445
-0.15467782306014222
0.14837219795809495
-0.0391719621163268
0.35749467066071555
0.2590922713939353
0.3399681798156896
-0.3542653238432019
1.253650954189322
-0.3893208631526166
0.28662096063971393
0.43252856077437635
0.19065034885087562
-0.07161864039562517
0.29447218266192926
0.19789516531557116
-0.35163946559494014
-0.23364610910883904
0.17555307296256714
0.04713642991288508
-0.2741013723328466
-0.22424229417238356
0.22421926988881452
-0.5166390393126603
0.2595443764077624
-0.254248356758998
-0.0010024606130732178
-0.3188400713158799
-0.09689282152878147
-0.051925404834347454
0.15181622763872496
0.5005521916502103
0.10822058729768873
0.03393768440313548
-0.15860302725822223
0.21224662443883682
-0.07169503385117844
-0.19911575466025125
-0.0716004276029239
0.09849547510774524
-3.497209188678559e-08
0.056467569580698956
0.2153638268916927
0.08065044993734323
-0.40372798050579617
0.5615888464869915
-0.21626008672721989
0.01428419160900783
0.06115688829931019
0.0587807882306633
0.24207391597376932
-0.10040971513353003
-0.23563936885216435
0.02857164991489236
0.1763244341389777
0.2682661194769929
0.037129233870378246
0.01838020716666483
0.22987005876509958
-0.07288154322778928
0.32534130461610966
0.014256808315148946
0.28533245658499895
-0.03779783362244316
0.027115876897980555
0.03911816322972934
-0.015720138800212138
-0.04903471610485901
-0.436548880877523
0.02321276686937387
0.014494631642456204
0.41874036788691005
-0.07974370026697014
-0.40382098437102865
1.112558620995755
1.1607408093870819e-06
0.11263807494247703
0.04023639429230374
0.080513671209961
0.13850991636378882
0.04938613166222693
0.1380849151362682
0.09720139215387408
-0.14546572438030259
-0.27245480653444504
0.041048301769114004
-0.2836514713252118
-0.09843235495604663
0.033914733697765556
0.2672313409001903
-0.05238416624392982
0.49583654420583256
0.24251951628050816
-1.1173878371612391
0.03998766931628107
-0.36584346569330956
0.36743036569504745
-0.7212275606779276
-0.19373318137925755
-0.11913149942979044
-0.11838504082700277
0.04976692470251941
0.16761759309278357
-0.00047365998911183847
0.14163019840303473
-0.00014096208377849186
-0.09126801629043564
-0.19327732060680836
-0.008018831463986766
-0.00024247645661110373
0.39754024512515096
0.13809794765808733
-0.14342141762917066
-0.12870845198918496
0.30992748961066857
0.10981376760561679
-0.08423941345903212
-0.3933519026205425
-0.07529326200549584
-0.3515580880898116
-7.245929499949126e-14
-0.22076632200211904
-0.16215723264801662
0.1355394724460514
0.0369815606871086
0.09430439919133661
0.18891100146429227
-0.088873263848955
-0.057985517551254896
0.054677787482282796
-0.23336623137856607
0.6031777254586083
-0.09258019208195226
-0.5834167125414029
-0.3661858331227215
-0.12192138881962025
-0.4711314934947024
0.25950256444663794
0.16463482962766407
-0.05732309050391401
0.19977349213273746
0.22360688062310946
-0.05997868103103986
0.05940194491295769
-0.19667410222650167
0.18718732819749664
0.01945225874943537
-0.2437832220321942
0.03291654865683499
-0.01659223040638723
0.05393327740468998
1.048730199302211
0.05261039706228128
-0.04933618199287091
0.15306830232896784
-0.04972964574544596
-0.13214657875012872
-0.09685347014415638
-0.05939945820129974
0.3733409450056931
-1.8709167635622992e-08
0.20454296550753778
-0.12139605486623864
0.04963986253884332
-0.00018066860226267768
-0.35243359323555784
0.024871683728441184
0.15314321600134903
0.07477686101143632
0.05231899777255564
0.34029579112536223
-0.490626583138033
0.1783024745601735
-0.03193602813456902
-0.26751899771780313
0.03275027338914687
0.4954522254386586
0.19618627334681157
0.07440621520171183
-0.19882768289121702
-0.11914345188858015
0.2216458255783009
-0.07532337907671516
-0.13588033110580086
-0.17006879385495888
0.03458731485798657
0.13516703381799605
-0.0409222805243128
0.18770658565904283
0.39837931628800555
0.19951357790569493
0.33012048527430654
-0.19625191090540942
0.12997311938814848
0.5119763584445253
-0.0803372124763234
-0.1596113542005035
0.16495375920134905
-0.2352018244361427
-0.08394181858177954
0.5144621703862375
-0.12158886377504637
0.41459805136133204
-0.10628179638610545
-0.5350665512111386
0.08243037183884265
-0.3938104948586197
-0.021137778158429116
0.07071284484518571
0.054602490338966185
0.21818487927534472
-2.521009242373402e-08
0.3667868612643258
0.30685858958761636
0.5791732642059014
-0.15035870588549818
-0.3869607466062807
0.18991703168329488
-0.06961380307458451
0.5204276006218352
0.04487352362916578
1.038580969927229
0.056477492268992166
-0.06391645287488877
0.21488334721119315
0.22941867853474018
-0.029934489798031684
-0.056476595146149576
-0.2660811513396823
-0.18596925305221879
-0.4343261626292655
-0.20200316708419946
-0.03340637393676871
-0.35490059711876865
-0.26641734436672276
-0.13798157991931206
-0.06666492466004606
-0.15252769761652227
0.3948601474858672
-0.5328216767457392
-0.17880774666682517
-0.07340859347385098
-0.0626450511573538
0.2769620434964483
0.1910022782521583
-0.3646643444511266
0.2598596888974536
0.04540492392988765
-0.31323380042298893
-0.5586657225514372
0.40078558317567303
-0.0964266809673476
0.5729109773923678
-1.2267250634290634
-0.3913831070678619
-0.3383548125274407
-0.10603205151990669
-0.13062972137402468
0.24389557419413788
0.032800267045864855
-0.7577998510289805
-0.12793486161811238
0.061332982039758906
-0.10132471695132583
-0.2100311038248592
0.030359649715123553
0.04939674959573706
-1.192537207228514
0.07375835428762724
0.029943486679049825
0.17381582628553055
0.1114501018219623
0.018243907714360057
-0.08382138311990604
-0.8655518033214996
-0.3613390897273278
-0.08870750865471201
0.6493326681338675
0.10794637692906446
0.27735909559314004
-1.1981414230279954
-0.010899497322047914
-0.21645233911109996
0.08166316246439388
0.08326843296939006
-0.3542819850443246
-5.190474498546082e-05
-0.22412095475416718
0.08096827352898714
-0.4146341888953145
0.12165804812148057
-0.0911385084230802
-0.22989125813337088
-0.3656059920893531
0.029643424757312374
-0.3005068126822568
-0.35559731848224824
-0.4064912224122379
-0.08894067767416525
0.05996546394019352
0.32878776025155626
-0.24940530896479465
-0.3556288456301528
-0.00011371534845806124
0.34176606419343475
0.03280643756728572
0.00019216331888778157
0.13153411566330964
0.16653212687054395
-5.0116690249626146e-05
-0.41231862122165447
-0.04642360007681904
0.41700650567833686
0.013962336313443157
-0.12572828147428847
-0.06836673701992904
-0.21195574119788996
-0.11232295669837422
-0.7180781614914556
0.04496427679572558
0.1597894053150354
-0.10833449041775559
0.29391777361396887
-0.19955399084957756
-0.22521345928813208
-0.10469273829197571
-8.736886247247713e-08
0.13917444360189324
0.41322521208583124
-0.1341288035051574
0.04972477078351323
0.050659700508422126
-0.23333668101422453
0.28524158754228846
0.3331048274336846
-0.32593015671275777
0.21324895895890422
0.07423106615973464
0.09625944654358716
0.1950519072719701
0.15308935769984805
-0.40976406794742193
-0.7476783159856786
0.04779961480246779
0.07332464515012989
-0.205529404605703
0.19397819931479138
-3.27231514293965e-05
-4.8290319232268964e-08
-0.4707165515569598
0.08071602212948117
0.3218852931465948
0.34253732086282956
-0.43833658528739583
0.14465685759372762
0.1928435552791252
0.33768580168857587
-0.13507826195401434
-0.011747526008466045
-0.10021718931463401
-0.308991895293364
0.05317207988313943
0.14315896170568138
-0.0506496917769623
0.17405243329742112
0.36880065735547657
-0.07847863233463628
0.7240176859427071
0.3301365481878913
-0.3324396461970197
0.039841488236611204
0.11105255038108768
-0.16429132585753528
0.035594069676820404
0.5959966999615235
-0.15249146280728787
-0.052020974778816155
-0.23203850793887984
-0.4433423480091442
0.46766934523379067
-0.4183771985891816
0.5660785169819016
0.12679433531471104
-0.3938412452548599
-0.1366763205758066
0.24862120954465575
-5.762405376430046e-09
-0.3693859241511695
6.66474331597583e-08
0.2524766252965903
0.042062124952861456
0.0866342179934239
-0.026957160938441475
0.19748599994770596
0.25912002821759655
-0.13138869457006186
-0.062489055339158064
0.6501661557502283
-0.10501241786860858
-0.07017068655102293
0.03785520722572017
-0.049639493783856965
0.34885497993838127
-0.08659717493295865
0.08203759503530295
0.04756222092712577
-0.24239914274242477
-0.28270219658000934
-0.12959628634259723
-0.020804117740902163
-0.06244995782263886
0.13199356930828227
0.08961860081434686
0.433381689085695
-0.31579049187453123
0.23960971917073667
-0.5971763628757761
-0.003409134023729989
0.26482215985871044
-0.07656633375069509
-0.32385614463396667
-0.163161741128544
-0.07118481092273182
0.18523205758224656
-0.4288198240198073
-0.08575895522644485
-0.08041427169382369
-0.3252368805380361
-0.8014999871731115
0.0701567983465446
-0.3684364078786586
0.10463523867412437
0.023334214140043896
0.07067943516903731
-0.1394193256972575
0.04261642915157783
-0.3047761989397976
-0.42781715313381236
-0.284870147994344
0.19967389976660987
-0.07145987185215386
0.33055161075791295
-0.03683871185018719
-0.026763596278139404
-0.07549828465602301
-0.06968980278028358
-0.4447963775076297
0.43729538053221007
0.051338514499497674
0.15957776194694234
-0.18415444017819366
-0.06070939746567246
0.09433138135794526
0.2516729157015134
-0.20297301057004902
-0.07567683210322686
0.0550036472346922
0.038286734366657145
-0.12921062367478311
0.204104775468494
-0.05412877048632571
-0.05878945239930124
0.04897685217232293
-0.09181831828598032
-0.07157144371424252
-0.1056650886094603
0.3388919168093084
0.22538276163472598
0.2889885325730308
0.4369762823385179
0.38990643115960066
-0.2894013834765363
-0.058924136636471815
0.1289604815594069
0.23098281871687903
0.07075200570494103
0.19308275906738942
-3.333214851262411e-05
0.09735588777629287
0.06934019254417434
-0.06478790902404316
-0.20931900194994266
-0.12530425233850928
-0.13742212870214238
0.08571191526846975
0.5196304486326075
-0.42568518899124674
-0.3524740037651429
-0.2135009466052599
0.48739754627029847
0.06886114536899118
0.04522645585886914
-0.03599706706638346
-0.5831738424107463
1.0380317443578346
0.08651310505721557
-0.3006788591322366
0.24496806797062048
0.08552860684974144
0.48121414682565944
0.14774229745626014
0.033130785768480206
0.05582087525982494
0.045894764029721355
-0.06517897606627689
-0.07930950717178795
-0.07343872643418647
-0.058109498291679315
0.07794934472722903
0.24769546853500965
0.45771924294466204
-0.24724106019797074
-0.21139702823415224
-0.22935374718132137
0.04877521868180014
0.0002695256200675835
-0.10167135979455261
0.04656578439901871
0.30525833103727595
-0.055368278093789414
-0.00019891385043830165
0.028379620793411227
-0.04920526065614726
0.1273586256544291
0.14396062362752574
0.07020994196078094
0.06945146886022686
0.23282566809225091
-0.047562616336030615
-0.07436634215525317
0.18640453727573802
-0.06709195102599333
0.18702396629938814
0.3350093068455131
0.2829921194224294
-0.06995259427418925
-0.04702927507974453
-0.18498080919481194
0.07317915292987609
0.17593623880334533
0.19801249630514442
-0.28723821705813773
0.040118378570343484
-0.09405437849310268
0.17237166488420866
-0.286540755539242
-0.12312238448981548
-0.39613744401358675
-0.19989981539177154
-0.8004400455308888
0.12678395347449214
0.2064625055594929
-0.23048927331701963
-0.23632058310688767
0.1838437258271634
0.1850344510628491
0.017249658178727437
0.02769595441947041
0.3350520191994324
-0.340367027224559
-0.16481054571077797
0.050095164392256246
-0.05898935090037049
0.10301242572129525
-0.07803080069579264
0.18717851647374525
0.10283714026885374
0.13166095989701485
-0.16399458793852623
-0.13543981989040774
-0.5131304935626994
-0.0003038876813420322
0.15280377436338322
-0.3792079879409595
0.37000626397535236
-0.1463887695126955
0.07072601212789836
-0.3055237011078601
-0.2618831340251327
0.31190071101490335
-0.060736548555246114
-0.05294132314922893
0.5997206765385545
1.084194301748174
-0.05184434093902213
-0.2006270623090003
0.10815802419019134
0.020893969139019905
0.08982866851771548
-0.07277536626688312
-0.040747254724812235
-0.02871810100592902
0.05692856874123722
-0.45044980437098764
0.18004739738058317
-0.030481489606980293
0.17698418030206792
0.035543003653617816
0.031683016876412784
-0.14363838310684904
0.0310221019138845
-0.1941645581107374
-0.11272227609727031
-0.15927834896136128
0.18268039923022897
-2.4431810835112595e-08
-0.08027902697149748
-0.16400829135502112
0.15097470780780015
0.2076744795737485
0.3643530205286227
6.249482750927848e-07
-0.05705332592166491
0.19677712638794556
0.18548160083138474
-0.14344052854440167
0.036549106964611354
0.07311550599202005
0.89352932785104
0.07478572604737461
-0.06639034672693096
-0.2743466979394584
0.4080634668496429
0.018622353601929317
0.3893043606537622
-0.11218020581760552
0.038012226596928
0.1484263165157476
0.04707773633014446
-0.11337350117490252
0.12744166822659356
-0.39902333910615617
0.12741193350798785
0.05662180884979549
0.31263542228700564
0.05766636127730689
0.086702347574014
0.05192450198808314
0.17987031825458852
0.06075021515724761
2.717861317471551e-13
-0.17323447316637425
0.4601461073837329
-0.5038894749430801
0.5835097136981323
0.05403533531463458
-0.05807632856138854
-0.5163614089914337
-0.04073226651338535
-0.3556505174588307
-0.46218764729697537
0.037193681119088204
-0.10505718721031643
-0.03291922130471965
-0.47277049706703156
0.14585687557985128
0.20898238942046451
-0.09031712280274612
0.9422447064676978
0.07480159243771344
0.29968351692285305
0.2701342585180127
-0.07396837534802517
0.40346984293290267
-0.0002918140449550004
-0.5121955203507316
0.19595451924584137
-0.21581170481053544
0.35967602005773497
0.09970541127183162
0.024205604053114043
-0.052178051124405996
0.30235868566339097
0.28945139312778273
0.4640574147293525
-0.42887007618541895
-0.8222597401984985
-0.03871893718685424
-0.08908475745816107
0.0
0.12982821333147046
-0.08011103321714391
-0.06362887571977763
-0.08855774065605578
0.35042679800878745
0.21661447988419552
-0.13733354174490622
-0.07949148927320535
-0.00016430874740636813
0.24386476067689036
-0.25323015945613414
-0.07895879648768392
0.3311235981743715
-0.4679924699760693
0.04325804498921851
-0.1883007563201583
0.16660948558092506
0.43199203293786637
-0.10469273829197571
0.0
-0.061323620494384355
0.23704261242322403
-0.5479288288065454
0.0529010163395839
0.5702198767935208
0.06047968524865215
0.18788752376994142
-1.262642809185475
-0.26525964034978505
0.07583417958504472
-0.12959224059384822
-0.08615292507017458
0.28973487507651247
0.24631624120670714
-0.355933139898016
-0.023848056757873617
-0.10830026311643837
0.24620216375319984
0.23989285224804982
-0.06636439122136309
-0.9688958719580341
0.03798526014883303
0.4138721948131481
-0.28993592624626513
-0.2763745532799163
-1.1672944709482647
0.0404339732740149
0.04518630125389145
-0.07163321129201498
-0.3431143010391004
-0.07878012969730509
0.06345763470217879
0.16306912100225313
-0.12312607289194423
0.0658927406023115
0.21246675321675018
0.0390874217488305
0.049421461934796185
-0.2882166578366171
-0.04917623213089801
0.12758737214389773
0.1540817640029554
-0.00010853956517533791
-0.5019362668594939
0.17393922951445048
-0.1524887687202631
-0.20965124568672694
-0.7067932451523093
0.3730369264626568
0.24578093523509079
0.12311467760667935
0.1187407538145804
-0.3941770200935079
-0.169193764092675
0.20678955239714764
-0.24781170151613918
0.08395568988034667
0.2879615884516125
0.20311203573534045
-0.08236925341689455
-0.06663439861081653
-0.09072506238519681
-0.1835200533775911
0.13955781145528923
0.15787154071839596
0.5775382412768474
0.00021940946865026584
-0.2122662652507158
-0.2948881123200916
0.23991131956002387
-0.28882044486984093
0.06866249960474077
-0.35876094842794193
0.14330358554116593
-0.3594839668258457
0.5458720248930187
0.04377238203469392
0.27246626056350337
-0.4399262693443991
-0.15805504317011732
0.11459679972017421
0.0015175923031888507
-0.06031120199503877
-0.036802836408730166
0.19727528857196533
0.06731376087235001
-0.17428753999403737
0.28174677576680424
-0.9199742932887
-0.40764122102199746
0.28662096063971393
-0.058284339208493095
-0.03810442284178867
-0.1228907388901085
-0.15190678707637076
0.015040382940662558
-0.20048616074116923
0.08383857867317018
-0.18224172582498546
-0.028683930846247985
-0.15795528405116738
-0.8800762879771362
0.15891544013656517
0.09881988724445559
0.41742157320870465
-0.1239834280606837
-0.1434692074898683
-0.08282077430567218
0.2821729222408951
-0.19467569139533503
-0.30352829857685926
0.16755295273146745
-0.13023929610212362
-0.44434503888514976
-0.2120154595529195
0.30183479952877446
-0.1756113985244445
-0.15957002419624053
0.38414742850775524
0.5347433188505933
0.623828670904443
-0.4137967605348714
0.24228343523080773
0.051518843945422464
0.09223022704182242
-1.2466228880226526e-08
0.0005813387240065657
0.022652938210830056
-0.17315097682046063
-0.16414254084024285
0.23471299282795888
0.23543123154696752
0.26334530306348797
-0.07989517910095016
-0.12467242077895747
0.01300890579145534
0.13960626577859014
-0.42118813530063703
0.0668210229115971
0.10382864962084794
-0.0942510222916455
-0.1400855150111492
0.06039883590771531
-0.011565988099297925
0.05981457861306457
-0.027442537157569648
-0.08635725874904443
0.07360576152141185
-0.08582615217302071
0.10868503823431745
0.21110713473427475
0.04300898721919847
0.2999799204585518
0.1103951758393683
-0.547990008949602
-0.14237802755545598
0.2889313117342631
0.1950519072719701
-0.22174720046929458
0.20069852814965775
-0.05443244133675186
0.04255909294745246
0.16648751601920742
0.1970730560382803
0.07117404167444774
-0.414269711065095
-0.08415481179421845
-0.21978843192452507
-0.21013293390062468
0.20817679053469362
-0.18909267325699766
-0.06420808141182681
-0.5473242300086656
-0.1366956729816698
-0.27017642066712666
0.06297427242633527
-0.23629944955282622
0.043916202875174504
0.06085265221545254
-0.06143443632483728
0.13101155324658967
-1.3698718513457016e-05
0.037491520432922656
-0.3713560491075993
-0.09761131759203939
-0.25880034667026686
-0.10558170259401452
-0.8620773394718259
0.05320245264426221
0.03688206257607644
0.09521805705385686
0.22070581046615081
-0.2913367607293075
-0.42644126729838777
0.33950823315977957
-0.18132702601947162
5.646384920137412e-07
0.43152932229280366
0.12787237314507305
0.20144967370372213
0.10990293340319535
-0.3612239890212476
-0.07386535785959812
0.03655909141570937
-0.08374293445308471
-0.3584586927132826
-0.000729105396988205
-0.043279083731060146
0.2909924369783308
0.009674359966748593
-0.1186175420527112
-0.2843677052422821
-0.05540889445075252
0.3317613537969123
-0.20339461188945707
-0.06877188795027048
0.18653877076311273
0.21037051387232647
-0.05769826410086914
0.13160110722612767
0.12172430619330009
-0.2791559195095875
-0.41231862122165447
-0.06096218182362876
-0.15267871482339412
-1.852619865541486e-05
0.20144149928033922
-0.13968905991788613
-0.3615638454049345
-0.26334590322143364
-0.27575388254711974
0.15085395478477978
0.5372960501779152
-0.35630030816158126
-0.34798166943039516
0.05369145051144391
0.04389740653467498
0.40318291812961116
0.23724026673766319
0.19170409291702842
-0.35206694084562795
-0.1618345768059349
-0.00010739044175605459
-0.08508794054845373
0.41150890975040855
-5.1564769313674034e-05
0.2672495143038762
-0.43048207086354534
-0.08171737982178943
-0.14551336090981082
0.11387315197345561
0.18083926841414558
-0.6521578268058396
-0.06140718656652255
0.13393691654255344
0.48976792061365465
0.22050131648810675
-0.20674431013068684
0.1727912874488516
0.04699756871330228
0.10283929385770862
-0.11702650107556128
0.36641229036915884
0.02767792934802091
-0.13287894700871458
-0.11188203468144683
0.03097581244061773
0.6052368503203136
0.2308633045694722
-8.292238241864025e-09
-0.24233041249459294
-0.3392057170693781
0.4056861011980484
-0.4685593985679156
0.6142030748214361
0.06616471301820201
0.2144444814780135
-0.1690045134728583
-0.5114155067283113
-0.20339587663695133
-0.40054191104139253
-0.08680883964717041
0.08543816505969819
0.3249664138892605
0.10657409368272809
-0.47556393119482615
0.15787154071839596
0.4521108438974279
-0.19126634525473749
-0.33894837215391405
0.04775094651847723
0.03556652147640112
0.4575158715381994
-0.08013982415449794
-2.0107554584136046e-05
0.006833459202009802
-0.22043927823231704
0.016689609232330264
0.22045747290563297
-0.04363444535650525
-0.2733171703462469
0.06559208627261051
-0.06474151290728898
-0.00025978413486990316
0.10823739103442952
-0.29637306035489136
-3.0793357021236706e-05
0.3587406673905679
0.19255583609172078
0.06842561122210929
0.2498947508190988
0.16961117813421472
-0.1282031909790776
0.16494110829947767
-0.002000411889061505
0.15837310024035187
-0.11563115584234807
0.15618134985297485
0.32604875890006996
0.14916985667687516
0.26248809007753565
0.204104775468494
0.025977318971530255
0.06199608994598052
-0.39734015400569317
-0.06069792893057683
-0.14756091019990042
0.14278673265110803
0.0
0.2017666489795785
0.04239918449696879
0.2423098866981782
-0.3050683333592903
-0.11166047562098376
-0.19808642052818537
-0.1458504406393239
0.45879851814791967
0.3021650956584494
0.2736001254004136
-0.05060342963015201
0.6615792179846989
0.3635111662563746
0.17931177672980217
-0.14252471978968062
-0.08790452399936305
0.03964972210634536
-0.39202164245292287
0.3345456605707485
0.33762534820157436
0.4036760979877555
0.0028941200734452976
-0.2705447766104265
-0.8256191302342519
0.44408173392740524
-0.4153462612426996
-0.0576160737096347
-0.16305869039149148
-0.15801765915280513
0.539049777248634
0.3355967511620453
0.04554629865857278
0.037512252485585304
-0.4305899489362555
0.2958460855859642
0.08222129769881954
-0.14150199507804057
-0.6366919763963811
0.2736776939890157
0.1066336726418782
-0.37546225017955887
-0.08193279048501156
0.2718374570824558
0.5485136719781419
0.06325629155045204
-0.14197052086980214
-0.17002693402138727
0.08651360128078675
0.08339759218095219
0.39012394432942593
0.05467782123617205
-0.2533727723392459
0.2087051489191123
-0.14353233210717553
-0.06696156122492446
-0.285733214314864
-0.13588033110580086
0.0010982813862808135
-0.2328747814149148
-0.18049425650789008
-0.13624860564311891
0.33646371947115067
-0.13427378363909473
0.07073617873859264
0.35436330073847355
-0.07086365033443222
-0.3673656767883742
-0.025418623031888816
0.042863798889753744
-0.12853946005938213
-0.40211505811577825
0.1591662311037886
-0.43934482155395854
0.7033372150195273
0.19692688420792429
-0.08162380790882497
-0.0018329048329176814
0.24768282596401683
0.5707794143995024
-0.08240264337211954
-0.15880993133673899
-0.1503079829774806
-0.8172326421875381
0.29784540475981536
-0.027602229602413784
0.048064129195385955
0.10677164892581406
0.9017421226238399
-3.698787894092075e-05
0.13011063420506752
0.20861321441175754
-0.14927391052531025
0.4031742292250522
-0.0266675776835607
0.06845582072158024
0.21810714910884832
-2.9689832053787806e-08
0.29144199964142187
0.08244766313543869
-0.8655828938002343
0.3651556586199859
-0.08044934601512373
-0.07220939739843862
0.3443555076971961
-0.0007070053266559431
0.36594917795264303
-0.21311338142143063
0.11728921637817925
0.20169740299417444
-0.30112707110143944
-0.06349293044164389
0.3944028117353633
0.14131801678973124
-0.12239609665679228
-0.26356361365971553
0.041527327992524427
-0.3900119632993716
-0.16793210548825122
0.1801151587068095
-0.28841647020447203
0.35047781803024797
0.13659310418318862
0.023215291310324085
0.16448591586769884
0.12334839736121196
-0.11054258231975406
-0.08380514131860134
0.3550700968921573
0.282676691163788
-0.0025166614458175226
0.20861321441175754
-0.038215599070896986
0.016343797567862254
-0.11479187075550089
-0.04227761385972856
-0.16282562252706073
-0.33418424786521167
0.11931105669730313
-0.09431197584835226
-0.07060108569930111
0.29312991828271784
-0.06718261223274559
-0.23345662147018637
0.34735711814292625
0.24218393984971623
-0.33000783653180776
-0.24503939824085147
-1.47090135899707e-08
-0.1105931495880257
-0.07065572954320637
0.0949516222508223
-0.41090684577712283
0.1786891324926937
0.6198738043900114
-0.4428288290662642
0.21803665683504023
-0.07060108569930111
0.2782356419217097
-0.09251271164947664
0.04124113284421203
-0.31337752886982145
0.15605172656818964
0.34029735703939146
0.11452135605589531
-0.0006575495188799375
0.051137557013110756
-0.36778596929471097
-0.5800046029470559
-0.15469428041372718
0.6210768405714483
0.11330262724106845
0.1878853822537851
-0.09270339789412266
-0.35734189354811746
0.4337219559175723
0.2148449567656556
0.14366551812746156
-0.26772011780452076
0.11768775927321463
-0.09298824045743113
0.1926547309388594
-0.05095956766051539
-0.0682574674242313
0.03410852358158598
-0.1359528875791164
0.3739168042529835
0.35696969455809363
-0.12508581999897184
-0.5617042749645383
-0.31161174303019823
-0.07464888093012745
-0.0006933754872960488
0.20297949314277078
0.33873135637043483
0.21258994475782728
-0.2623498290889265
-0.08762463627360587
-0.25287171653717416
1.112426523128876
0.4748170488530149
0.2797154558125334
-0.037352665623878414
0.29020878391384836
0.27771839253676595
0.2917447205507185
0.07430493239169164
-0.2898356234082305
-0.4638378172128321
-0.5227163350665321
-0.30024258469478293
0.03290617186221997
-0.14423444049981002
0.031751958525769425
0.052224775030010114
-0.11171008669577925
0.10113346514068931
0.2984989132431817
0.15642653144237673
0.24445990076851454
0.03967589902294137
0.2227688794349118
-0.615431209838568
0.2109240491529278
0.199605092287851
-0.0735444546543651
0.14213212943784223
-0.3385683556036124
0.07867743324866769
-0.29845103524673716
0.06451407477558604
0.28985559350174644
-0.006027824356787038
-0.14444445636113132
-0.06253551060262826
0.735372866042538
-0.46114272683000596
0.13347423876083908
-0.09299589573822527
0.01731812878872531
0.09865943151252562
-0.08544442115349475
0.2824898030185865
-0.08744083384817954
0.4338902800309214
-0.3541444894614761
-0.037352665623878414
-0.28241087420631605
0.23436009432320942
-0.3116526864356682
-0.23398828275627304
0.06004501041288476
-0.1922321486342681
0.04349150541397705
0.0
0.00024512396627276973
-0.057772277708705126
-0.0516729671051409
0.11739079644908036
-0.020675379982884455
-0.1712527081195362
-0.49319558178489403
0.048411190111585546
-0.2543484485142301
-0.2800214541555925
0.038701954311836956
0.026659537765186626
0.6982837009875771
0.23813269995993402
1.842823899507794e-07
-0.0006975531453366665
-0.1439805916005424
-0.805796634657609
-1.2955659011595902e-08
-0.07513204275184497
0.0
-0.05009511966746587
-0.11874935383499442
0.5386491363808729
0.25705372984618235
0.10336103075277937
0.01571716224480125
-0.20120265600305914
0.9945494988053697
-0.3087231164596935
0.6313316753826946
0.046392957641512404
0.4750410549033136
-0.03998759578870331
-0.43026783609863395
0.1990153881086234
-0.16647521208936136
0.2596057439451711
0.044419710232944526
-0.09145822574105292
0.10913428582936373
0.17064065219116298
0.09043038035853647
0.07228757430910593
-0.12077440542548455
-0.2966271138825351
0.4086708926391974
-0.06715631740331311
0.0
-0.5123919442401024
-0.4076507758776979
-0.344330656730781
0.33565953963374084
0.2610448886617558
0.3051280608720387
-0.13812622918009806
0.3685654131049763
0.03344254281459159
-0.12371228690436455
-0.11261982718607569
-0.29636224979580567
0.5106643439105834
-0.20164512959440248
-0.07023730752802741
-0.071559185631189
-0.2619347195334397
0.5402535408176748
0.17480319668372074
-0.04607152660763404
0.43898073643798513
0.30989578716173655
-0.06589186820357652
-0.09353123329904361
-0.7180321923839904
-0.07626632619952993
0.5219774349071076
0.30038746324245147
-0.041741808117623125
-0.14620747473944307
0.03579315299981228
-0.0715046839637019
-7.373124932613694e-05
-0.32250107316520354
-0.8013007862070347
0.23698925267774218
-0.036122435339181976
-0.06386085496640502
-0.07264991163363142
-0.12739962467174432
0.27885506515416103
0.3298911549102022
-0.33097010010470435
0.12545754304358492
-0.0588189352086529
-0.2449774031053855
-0.10092207727437806
0.1734556606905223
0.16755295273146745
0.1559692960712743
-0.04554123672795566
-0.18066893228283673
-0.1528026295283992
0.12194452871579341
0.18351947785817402
0.2634845631751146
0.1453577935145459
0.4267326900211256
-0.10416323627131743
0.08847312472869631
0.11183669243104921
-0.02521150798901541
-0.048454862351489554
-0.356912939370969
-0.06142882591689819
0.02445678923276305
0.12764770755068022
0.4209491149613686
0.2974618486126588
-0.00016194178063791173
-0.09134378896109986
0.0913675515681642
0.16146160353036276
0.0715531602501501
0.04778252512681927
0.2308633045694722
0.5276334627828705
0.1495794788986057
6.999541677468901e-13
-0.12164425136639272
0.28077881578011366
-0.12028989669763944
-0.34583717417216375
0.1454934424134341
-0.22596993821891803
-0.4997981343256119
0.12258712707571005
-0.13132650122012776
-0.10905931984011179
-0.06521564078094143
