-0.037317324785182085
-0.008204857953254955
0.2722301536955783
0.23220428124099035
-0.011008804372619382
0.3527322378070183
-0.19370495999016796
-0.08305591913893305
-0.5741449233714719
0.06497051364680172
-0.11918659302860922
-0.3505136181313567
0.20281924738033424
-0.5110316408337271
0.026053698409065684
-0.6193647994694049
0.28979074339401034
-0.0026006768855842835
-0.06380717370183821
-0.6854242714153266
0.3862799973626776
0.08523627238913875
0.1599876942790462
-0.2508044032564621
0.1354451214566954
0.13690250270232457
0.3044748571739188
0.046643598836165
-0.15612275022000247
-0.006641636632843852
-0.08223749659559557
0.07663652532987601
0.49375005872841704
-0.205084234855693
0.19870968020971444
-0.19209875959896983
-0.18733282111111907
0.20429096941977798
-0.011963035251920705
-0.11667682640745194
-0.006804894178936386
-0.042125284303661185
0.33828688302040744
0.025790274734329464
-0.02046650620558394
0.10051735026374593
-0.1996606095661803
-0.5125374358781942
0.368911769547998
-0.09594414481089569
-0.016481130468515483
0.18172102813929197
0.05748052227077574
0.12411725823140651
0.022037532586440017
0.09994481574756996
-0.31019210633440386
0.044088584670792325
-0.21215058183637922
0.2657096806360276
-0.15469348595584714
0.32512099676816747
-0.10230561503686847
-0.05775043303730856
-0.010374012197093184
-0.31996282424830924
0.821235309746934
0.2231338129341227
0.1530856976204402
0.011612580833810025
0.14861002823662744
-0.001092302838924021
-0.09604631844660641
0.08795055370887463
0.034122270522752664
0.5053372158430819
-0.08044574230682155
-0.3134350539500701
-0.5658021074495448
-0.38124410036454676
0.042281073823997574
0.06475506553902975
-0.4566520880801443
-0.18668542481452
-0.10317860629839316
0.3199228133710998
0.277233533761707
0.04626113435084437
0.2313268554954033
-0.37829472966633676
-0.11687930802754666
0.011995567467188283
0.014803782594114539
-0.09272229268459989
0.2584649361171263
-0.4167368832678169
0.0061537790146565146
0.20683622344182384
0.5637627972417927
-0.11148002886718741
-0.03746807026287803
0.043901816471491564
-0.0009943205748460691
0.0005792097049871738
0.17871941708359487
0.20130661622817725
0.010739201938330282
-0.177585316948879
0.5108675112780438
-0.15740939812582724
0.8119832614241375
-0.21039428152908676
-0.41497967944065295
0.0021083271750237977
0.3264606571623094
-0.43814399969503726
0.0175434905759013
0.25377037320356277
-0.05023707487109515
0.3213211160130976
0.00043483037842170227
0.15123725959536244
-0.353451599195211
-0.11193268867459422
0.022279168511474025
0.24887794121560403
-0.03728489846268436
0.10175083356121373
-0.19328510575923896
6.459653939452152e-15
-0.005646052600862943
-0.8732602398433723
0.04652466817213031
-0.01671403548744623
-0.00700755552953346
-0.13285333785346584
-0.135910187517504
-0.09568281035281208
0.10748193256021478
0.21968429132229078
-0.19846331873859047
0.245938963120935
0.11834910098189984
-0.20989572175182175
0.36147445839254777
0.11643130428111184
-0.09867511947278071
-0.07254140259614703
-0.030587571006611226
-0.3622080917857205
1.104809021305784
0.34522515799519926
-0.0015210225799309827
-0.5205728322772329
0.5313647922607652
0.07866733593914575
9.227039441629572e-10
-0.351681769944913
-0.02181434265798351
-0.013458779143977006
-0.15848147410269503
-0.4492118669495752
0.035894949023133685
-0.5146478014912782
-0.2493130640258243
-0.06793506529521287
0.036010114909640636
0.025790274734329464
0.02684381340357867
-0.295760593710053
-0.3908261527147437
0.35643689709113424
-0.29990316803658496
0.0006363146691662322
-0.8231063118395818
0.3096617763700669
-0.10202835398884863
2.3016331656996734e-14
-0.15640217625561922
0.62820169770129
-0.040111839785670976
1.5629233964682692e-11
-0.14142300039275396
-0.36321465240017103
-9.382016719326969e-13
-0.21043367562223503
-0.48285810731098716
0.13883435127970656
-0.26459694710509896
-0.03338966058550473
0.1256720819047504
-0.11866066397765258
0.3740440228026587
0.07521514011189948
-0.6519790715462477
-0.08515839076600308
0.5963884316106253
0.3128833889252498
0.03221139347485813
-0.5964495294157139
-0.6702628249382135
-0.05933362691064799
-0.193469979824198
0.06505007068381499
0.022055614861042093
-0.06575881229023954
-0.20655484894508622
-0.19829036003170736
0.07339114176314715
-0.5185839925960275
0.11047179847244147
-0.05460870775616071
-0.015633768278226323
-0.3303386031200944
-1.3104525025917948
0.31763577787348646
0.9044799268980355
0.45443437531129716
0.4837475604471546
-0.015086966812609261
0.14186671285513863
0.0941561251794301
-0.15937069606806495
-0.13350355696703037
-0.08818576371140696
0.07442549095882264
0.7074958139291059
-0.3944307229552704
-0.06133198863111094
0.37075607255964177
0.015915254636106286
0.05551383658867961
0.5008868169078948
0.0071877728706921
-0.19328510575923893
0.5276042236853418
-0.0482777824408566
0.25093769868324284
-0.5053377489159934
-0.18693588018101434
-0.0022553954321115695
-0.029009677496363663
0.010339070042150355
-0.020458389790334482
-0.3947019744059282
-0.13119585651801596
0.7487185362893983
-0.5586537097919536
0.10655892587709692
-0.4324362593054327
-0.022938909028657223
0.10421846344691324
-0.6647811654283001
-0.29361987749380486
-0.03301699302877062
0.021657067532657257
-0.1504211580681638
0.18399074710751284
0.018956721423011993
-0.3438734708605269
-0.2231020892992987
0.23077402750092282
0.38975403382386425
-0.011347523338480136
0.13711949235268428
-0.4928833462245716
-0.003441567865483982
0.6502194616362309
0.11365209697343664
0.026797584672907118
0.08040869650004696
0.10646780039576238
-0.21178166116347125
-0.8368187579433576
-0.18792240082070885
0.4789392564359195
0.2978906150221933
1.468314758850138
-0.43341187132032055
-0.10654057481582356
0.11385677054159833
0.485142607573539
-0.043955481035829684
0.006852128732963881
-0.18232087973665037
0.0484827952764131
-0.12718189796611282
-0.10237487642374393
-0.18395998566757513
1.021333010853011
-0.023410310587795503
-0.0012619399419943136
0.20559427032901859
-0.13423383929069885
0.11616268606551824
-0.34971586857289677
-1.771255296208349e-11
-0.4015432333432837
-0.1246348005919429
-0.10053550232582772
-0.2719567431717996
-0.007820349544701089
-0.6798292305652776
0.15182839686528057
-0.04208158322304739
-0.046077828170558506
0.018749579135738655
-0.14866242082514974
-0.25509069780037835
-0.11900748575061638
0.15867765880385243
0.145791747270852
0.001454641292685534
0.4561246612838733
0.40974709813131943
-0.005801943496401716
-0.029056985936417545
0.16491014068081752
0.5319249378588974
-0.19077247306741785
0.3661968582021
-0.06788139187218521
0.09551606145146876
-0.1576700949497474
-0.3758474217147984
0.052012527663629696
-0.07781688332342926
0.3864122874769331
0.2675694773049907
-0.032282210983599874
0.02085204609980274
0.264543180672425
-0.227303039539407
-0.0015832887095710896
-0.16907957241454927
-0.269237853183222
-0.12707251738668446
1.1125432852784172
-0.49383476773828655
-0.002003607220982161
-0.34246889517558227
0.05108184914433268
-0.2678407466274027
0.1925506489148611
-0.07619312160581615
0.4888962239640099
0.12927413603411636
3.87514646659279e-11
0.15832639703162135
-0.20012738998471596
-0.012283562194887153
0.251406812198891
0.009509257798322335
0.4100495220630013
1.1715261115551838
-0.011132899335528162
-0.400175162257804
-0.3480757298899648
-0.0027571206769462474
-0.39728933130128097
-0.778452960704718
0.004540704949970998
0.45921677349589085
-0.05943136651766116
1.311603286739048e-11
0.7024605815949837
0.6443790389421918
-0.040590515674653854
0.15456780887406446
0.1255899478960836
-0.1354804090831662
-0.6269932981351957
-0.0870718887370767
0.0982181712477372
-0.06546277394267735
0.012274857559564822
-0.2471691900161863
-0.0023044319231351764
-0.193469979824198
0.29825293032279676
0.40180952122720115
0.05917618543281328
-0.00687267513966022
-8.749249439190665e-05
-0.0013610168868344928
0.1850742695199846
0.7589524369656065
0.008580636266083354
-0.09333944256350611
0.6027096583456469
-0.027053736183693847
-0.4653014854818055
-0.14666371663889083
-0.048299090044830906
-0.06208471625503316
4.0215149616904046e-14
0.10711822904709747
0.26555452483002395
-0.4807947448881927
-0.04447536392855472
0.4561091495098702
-0.22061365856289078
-0.1475983202976885
-0.07073269883822352
-0.0010071775912810351
0.035324427202435574
0.3507300996332878
-0.13102790378800833
0.020081867913959286
-0.4527149759839741
1.4265287594563825
0.004025827044077626
0.07854865576283153
0.6513763974725627
-0.030643236317861124
0.13021541439668477
-0.3431532250558955
0.12218189387975054
-0.48692067686791674
0.31702653153777544
0.07985556163863762
0.01490335479991178
0.07112506005179439
-0.5164262486268696
-0.49928237902533856
-0.09721054716812388
0.567335482299646
-0.008062249931408047
-0.25885849620228957
-0.32519524000082567
0.2861971488866268
0.16989762751855447
-0.6338121753306372
-0.28458594643125273
-0.1323893082778629
-0.002917276894780083
0.2979363601859711
0.5805953682911417
-0.0002685457538911206
0.054334923631524666
0.34549392474125196
-0.8111963835762364
0.515643419027085
-0.17870921606987372
0.4313870551694553
-0.09250890992121842
-0.10295010213372473
-0.24295723579983702
0.6193722128944199
0.2237219883037253
0.02134794275344665
-0.12389216202722332
0.05644022966484432
-0.4131384074411151
-0.1316976048919639
-0.019395613808359517
-0.23476456533547888
-0.25221054330250614
-5.1253172589538205e-09
0.05506452642742671
0.03945521154657147
-0.26309240660119126
0.0004993704317777534
-0.06601727707910361
0.1740353526037344
0.026222381894072718
0.25236077121803696
-0.10567120890629074
-0.003342050549007032
0.015351309090830234
0.1962862499845527
0.43177893833035647
0.019963947253283768
-0.17918326278325297
-0.07364082105877828
-0.5293018629951151
-0.021873847865037356
-0.2617188316339522
-0.012098800927753416
0.28214383389240233
-0.031188819957049446
-0.1116935040583255
-0.5338643935497445
0.011382969685791175
-0.2836517193073833
0.2914290316517478
-0.18222085646319122
-0.19531840151539967
0.34505408962160217
0.030051943575989375
-0.016283062654072287
0.9544095289686048
0.11056378447635858
0.08320273667460117
-0.7828267457170532
0.13069238048572027
-0.28983044802354996
-0.031664343348724276
0.08390477504569878
0.00786681004767211
-0.4784165125732001
0.08768374645744274
-0.4453053123208622
0.7490760550127422
0.08750412401864939
-0.8453258101123499
-0.19202928170735808
0.20938746808049918
-0.07806270185132469
-1.4080206374866209
0.4642505342324603
0.07676985539711256
0.002730523890742422
0.43086580319918183
-0.06778291076351103
0.15762431981729583
-0.03400131053545768
0.3910325351303295
-0.08538055361918444
-0.2862913989556671
0.04291823895872299
0.0013735235761773632
0.0963600256501673
0.07822796273737984
-0.11213043906065948
0.0019412851600565846
-0.2956961748432906
-0.0195517005693655
0.02309390030954326
-0.5867090453447049
0.571553207833493
-0.22807410066346936
-0.22166796861675045
-0.45713188890564765
-0.256867486074998
-0.06736367003003164
-0.6393120112582747
0.10088645904610613
-0.057215796806275636
9.671898001144854e-12
0.13133181179652942
-0.14756802948351017
0.6217388680825296
-0.20838947345714245
-0.02143727934866992
-0.046245321812706026
-0.07242083274569605
0.6765302026502776
-0.019649819250626005
0.6654900638208485
0.020027836230875312
-0.15134552619054661
0.16797887994716784
-0.04198010305379101
-0.1278209922059161
-0.32209655793117864
-1.2839159208998399
0.3575191228078776
-0.045683510710619844
0.047333968621165984
0.10016190599570732
-0.07507665970590045
-1.1995283834386956
-0.5421567675532628
0.42251403083551303
-0.09941318366713359
1.022466432773947
-0.09003807834026316
-0.20158902285979535
0.6282464839381833
0.4988493511086514
-0.26951537937834913
0.005363210851627057
0.5063184597453969
-0.111335394787402
-0.014623455463742037
-0.0012660984384034676
-0.339790392269039
-0.005349888320330741
0.4595488153424738
0.12063322770166043
0.04278582121096348
-0.3123687528725526
-0.2690767319922639
-0.46999869008354
-0.2607462835759024
-0.30380967020125793
0.04954769465660266
-0.15298267069200017
-0.013035574872112649
0.05857829003168256
-0.1902786698679909
-0.5874418947112033
0.3122208197695927
-0.36243338101137995
-0.014759880412557533
0.3507300996332878
-0.13114690761083397
-0.014693303964467351
0.035376860310698775
